1901 128
148 -0.13645627 -0.07035436 0.56698924 0.06096077 0.025978649 -0.4496322 0.3156603 0.43060791 -0.25622505 -0.035536803 -0.088535435 -0.2711985 -0.20217586 -0.27154684 -0.3010548 0.27598453 0.113609046 0.40619588 -0.4251528 -0.24999829 1.1141008 0.2528206 0.18306987 -0.63601387 0.26464388 -0.0768055 -0.6240206 0.3564148 0.15412976 -0.72299194 -0.65414774 0.27494705 0.74838334 0.2952164 0.3381191 0.11915139 0.28841564 -0.22761498 -0.030476997 0.06206812 -0.2278886 0.60542905 -0.5499557 -0.086575665 -0.32435057 -0.27307135 -0.08882462 0.17014074 0.06444046 0.3274097 -0.24993373 0.3020197 -0.07583083 0.41653287 0.21424572 0.10571058 0.10767186 -0.41244283 0.096354395 0.13379489 -0.42751533 -0.101278335 -0.043349955 -0.19958964 0.4602565 -0.13714133 0.9897482 0.23970948 -0.42467195 0.37840185 -0.54601717 0.26819697 -0.009244973 -0.34204525 -0.2653772 -0.012827495 -0.043813977 -0.21558464 -0.26566285 -0.25675297 -0.5313891 0.25576842 0.53793395 0.4491526 0.21757779 0.15260547 0.009524934 -0.63134104 0.10456131 0.13695057 0.051146053 -0.08132228 0.1656851 -0.30822718 0.28497678 -0.06497346 -0.58694726 -0.23663135 0.28276372 0.09764115 -0.5791894 0.18180105 -0.18533237 -0.119270205 0.26208603 -0.43493965 0.18095739 0.32750863 -0.18947901 -0.12462658 -0.11083215 -0.34377035 -0.62598914 0.34864137 0.08776398 -0.16532952 0.48727608 0.47726336 0.01766622 0.50114 -0.05301992 -0.25705582 0.16612639 -0.05957139 0.07028796 -0.08367878 -0.3704495 -0.09821271
313 -0.33939284 -0.22126186 0.25583375 -0.15895157 0.30646935 -0.20588262 0.4333908 0.055594925 -0.01872788 0.52716863 0.46942088 0.13501197 0.28142086 -0.57535815 -0.19628417 0.16649285 -0.026562925 0.49159667 -0.35562754 0.55411994 0.8096806 0.77324206 0.49654582 -0.5127352 -0.17517242 0.43242428 -0.72650766 0.604563 0.86441344 -0.069431394 0.19491218 0.12143458 0.32800347 0.40680578 -0.083432734 0.13924462 -0.0016902729 -0.4473824 0.4756929 0.1262499 0.6350455 -0.018223848 -0.021890473 -0.29905215 0.1595368 0.35732013 0.18321428 0.062910244 0.05715749 -0.30245245 0.39299124 -0.05121697 -0.49489784 0.045087263 0.21684317 0.24199614 0.17217323 -0.069087826 -0.20416608 -0.08305416 0.01901198 -0.068994224 -0.03314223 0.13810474 0.66093946 -0.89987105 0.2782953 -0.03048824 0.06450507 -0.10842066 -0.15774134 -0.002639446 -0.584068 -0.469933 -0.09998351 -0.28111002 0.45727065 0.24741057 0.03980189 0.44097626 -0.13738582 0.28850773 0.19266737 0.3243591 0.18434128 0.5062027 0.09044668 -0.46349734 -0.011498658 0.3616861 0.047330238 -0.35276002 -0.51265925 -0.026536 -0.0738064 -0.93746185 -0.4176967 -0.33518046 -0.0711129 0.052356586 -0.07399182 0.16549562 0.6617452 -0.1324176 -0.33546725 -0.4573215 0.031423107 0.17220508 -0.07594426 -0.3086852 0.15727979 -0.20056044 -0.11975711 -0.21396266 0.44305763 -0.123199634 -0.032177728 0.33673364 0.1697294 -0.40180057 -0.6055863 0.036390465 -0.070613444 0.08584221 -0.32075685 0.018238876 -0.46638882 -0.23252061
914 -0.33096656 -0.35978863 -0.014998085 0.016855739 0.16332385 -0.11419334 0.59178853 0.12948608 -0.09942698 0.50205445 0.4935308 0.13597064 0.07750429 -0.5501314 -0.23580633 0.056251492 -0.113072895 0.56321937 -0.45614362 0.60728806 0.9823914 0.624799 0.32974294 -0.46238354 -0.15051895 0.14825605 -0.6749697 0.44886866 0.69008046 -0.06601287 -0.021453235 -0.09727948 0.28382772 0.53492147 0.038451847 0.18595476 0.0323571 -0.39033774 0.37015456 0.13097945 0.3472341 0.1058164 -0.195 -0.22620714 0.15774068 0.34789285 0.2401329 -0.02797669 0.13303974 -0.22013174 0.15080985 0.042739265 -0.44614726 -0.15021078 0.17442381 0.008739266 0.44556847 -0.080904126 -0.37746587 0.019250534 0.026505167 0.1305428 -0.07982884 0.24386391 0.7203844 -0.7619188 0.4871656 0.2776728 -0.06591005 -0.04281563 -0.096852355 0.04493084 -0.4264118 -0.40011397 -0.17406711 -0.19854333 0.3979979 0.21082126 0.040939253 0.32576638 -0.11336056 0.48235354 -0.058566686 0.29285714 0.22049552 0.37804493 0.26365727 -0.5543567 0.2278715 0.26065958 -0.11205785 -0.28225195 -0.45295718 -0.14847437 0.026255144 -0.8898552 -0.505786 -0.5098438 -0.085697435 0.11492468 -0.21159813 0.05144051 0.67791283 -0.009838321 -0.3713123 -0.62356406 0.19649436 0.030385807 0.06891467 -0.23756438 0.40477893 -0.21549729 -0.0677614 -0.33310732 0.24820817 -0.1484923 0.04031506 0.31007388 0.11038634 -0.4435476 -0.5370838 0.05597612 -0.2646821 -0.017601874 -0.61182725 -0.09801108 -0.45247248 -0.26068616
1873 -0.23884505 -0.1398127 0.20630664 0.18712942 0.034694448 -0.23010394 0.48911592 0.055619977 -0.11450467 0.41554543 0.4692337 0.2605211 -0.11024009 -0.9122295 -0.22003554 -0.09180429 -0.14310883 0.6798887 -0.48937342 0.41045183 0.9311429 0.53878725 0.27103862 -0.25693858 -0.09210612 0.27422065 -0.2880176 0.41660544 0.47269368 -0.07050027 -0.10387273 -0.026480353 0.2814048 0.46701935 0.29789484 0.19709955 -0.055870827 -0.17992653 0.26185718 0.13933015 0.18416323 0.24874239 -0.24863714 -0.14912148 -0.07301833 0.070649594 0.030505292 0.19298242 0.06959092 0.101384595 -0.062193487 -0.14023466 -0.36574885 -0.13540338 0.19278459 0.18125607 0.5255841 -0.19342934 -0.48493576 -0.09812334 -0.09637985 -0.21026446 -0.10048363 0.045113534 0.7576231 -0.56001586 0.62189615 0.12809853 0.06918595 0.0009870742 -0.2611476 -0.38415053 -0.4152652 -0.42750835 -0.30169135 -0.1114033 0.4756122 0.103404164 0.02645338 0.512881 -0.16818215 0.5292149 -0.04177521 0.386019 0.21462199 0.5048849 0.49583507 -0.35351822 0.35241285 0.16306444 0.102563635 -0.40673473 -0.46033925 0.12713814 0.2249131 -0.8413047 -0.7532385 -0.46331498 -0.050725106 0.10484421 -0.42150563 -0.08355937 0.5037385 0.13936542 -0.50250983 -0.35464656 0.33515772 -0.15369245 0.18002118 -0.41798303 0.6192364 -0.325335 -0.26762348 -0.19933045 0.35543042 0.10988133 0.15536694 0.5037689 0.056613177 -0.46277288 -0.34759074 -0.10682984 -0.18026742 -0.097492605 -0.5057614 -0.08729163 -0.58718795 -0.10038556
460 -0.29710457 0.21194522 0.2618076 -0.29073384 0.054313716 -0.032616522 0.05668189 -0.45147666 -0.370658 0.30657068 0.28959936 0.292273 -0.086002134 -0.76503366 0.025398433 0.27430397 -0.4371263 0.5135359 0.025607245 0.19067968 0.109165974 -0.3669489 -0.194836 -0.23528284 0.5335007 0.3632255 -0.6825991 0.37953043 0.3564173 -0.75781214 -0.04121708 -0.31845737 0.6912685 0.21423002 0.44759503 0.42071632 -0.035756793 -0.32051787 -0.23845091 -0.41516364 0.6227426 0.38062197 -0.4401262 0.07811468 0.03187474 -0.006458264 0.040757008 -0.16457637 0.5294162 -0.1855552 0.16457526 -0.30567917 -0.5244136 0.111662894 -0.19740282 -0.21384183 0.33485997 -0.48456317 -0.19368646 0.2160601 -0.40830785 -0.06440785 0.24467483 0.9319876 0.4329738 0.39044753 0.122497395 -0.16432448 0.14471854 -0.46008313 -0.28863093 0.02302305 -0.7227034 -0.78117883 0.26726592 0.18379395 -0.24918143 -0.39743054 0.18712908 0.1562628 -0.5387445 0.24206853 0.5282985 0.34393916 -0.020221913 0.169981 -0.09659408 -0.32706094 0.5973208 0.41957688 0.12571788 -0.29880705 -0.4563845 -0.545854 -0.45165068 0.7945008 0.07688453 0.05360105 0.089283995 -0.23319088 -0.19098254 0.5223265 -0.12136943 -0.014897283 -0.41780546 0.00021782871 -0.07083192 0.057910528 -0.30096647 -0.39664203 0.27160946 -0.1387575 -0.1987906 0.53953 0.12103783 -0.38022426 0.044872623 -0.11145693 0.37674913 0.16732682 -0.022007538 -0.12948574 -0.21578775 0.4575168 -0.16411792 0.19798851 -0.11276412 -0.020989046
458 -0.00087058777 0.1482291 0.48139203 -0.0022610158 0.028369764 0.434842 -0.67700493 -0.7014729 0.16203994 -0.20620632 -0.450736 -0.7571741 -0.19220869 -0.091127835 -0.026924662 -0.49016032 -0.095788926 0.05472074 -0.49044487 -0.12896997 0.9702745 0.19233665 -0.34942627 -0.36902446 -0.015731761 -0.036577117 -0.41042545 0.031302728 0.24349831 -0.52164227 -0.025280342 0.17611115 0.3000755 0.7905627 0.5669822 -0.014412485 -0.24503328 -0.0062354933 -0.27312344 0.3482649 0.05007671 0.23374222 -0.10373348 -0.5295007 -0.2140517 -0.034700535 0.091733694 -0.47138938 0.3186708 0.0092009045 0.17692265 -0.5735416 -0.5106249 0.26880053 0.20962775 -0.19370407 0.034340817 -0.1875891 -0.56844103 0.18818323 0.09149449 0.052348793 0.21650188 0.048866298 0.31970605 0.012362951 -0.091190204 0.07270343 0.12455419 -0.09147314 -0.6480478 0.2735341 -0.7714357 -0.1666402 -0.07292632 -0.603688 0.1520057 -0.26553166 -0.23522764 -0.10362803 -0.21686088 0.3737568 0.92983586 0.12535176 0.11616516 0.283468 -0.4784589 -0.24580343 -0.29154563 -0.06274545 0.123643346 -0.42735714 -0.522286 -0.17871667 0.24355768 -0.09632179 0.012614003 -0.4336837 -0.6761362 -0.0754248 0.009255652 0.0916463 0.3077714 -0.52972376 -0.30325478 -0.27166545 -0.15180485 0.93877614 0.36535713 0.108591296 0.07990561 -0.29642436 0.005340387 0.5831427 -0.60319954 -0.38784906 0.22858474 -0.124239765 0.22411591 -0.07347451 0.53698766 -0.25630453 -0.5402656 0.093938045 -0.01798315 0.51720136 -0.10813908 0.40162727
621 -0.172709 -0.36786428 0.02955913 0.11660351 -0.3049215 -0.3263114 0.54628676 0.24633147 0.4053828 -0.16162938 -0.62084913 -0.31289995 -0.17853302 -0.5802055 -0.12115851 0.7004986 -0.060441863 0.45884606 0.05296605 0.63017327 0.36109418 -0.10792646 0.0040720333 -1.0620518 -0.46375144 -0.12899998 -0.35988337 0.41926035 0.46204624 -0.41772884 0.53744125 0.37079442 0.0895242 0.6025966 0.3198196 0.17179698 0.38086912 -0.11914945 0.2423524 0.31739756 0.1022123 -0.015081085 -0.15254402 0.21305303 0.7824649 -0.2725202 0.65270317 -0.24272682 0.3655501 0.10934327 -0.18312374 -0.5768995 -0.31713924 0.22557947 -0.10514188 0.21733534 0.16895293 0.14224167 -0.54141974 -0.08569505 -0.7386238 -0.16121113 0.29324612 0.0540899 -0.13800606 0.25459623 0.25568062 0.24610887 -0.26405036 0.02996106 -0.64025205 -0.09585579 -0.844093 0.33562934 0.12561476 -0.2820662 0.28175858 -0.2832737 0.13314673 0.28921145 -0.19734377 -0.17256582 0.36332336 0.14897794 0.058603384 0.090313174 -0.42923823 -0.477349 0.114286065 0.07909333 0.63745093 -0.5052411 -0.23137057 -0.3415237 0.18563125 0.0013161193 -0.7035087 -0.2356095 0.06875948 0.17485155 -0.17412071 -0.023175783 -0.6761058 -0.069292955 -0.000309601 -0.037645623 -0.13086537 0.30277932 -0.4730573 -0.34254965 -0.30147117 0.37005803 0.11997126 0.32425275 0.19272797 -0.21191789 0.18391222 0.13067542 -0.1875218 -0.45008618 0.3495336 0.11328534 -0.4570415 0.8515738 -0.103550866 0.12596631 -0.10042897 0.50403154
642 -0.11240849 -0.17958304 0.5968001 0.10528218 0.08981158 -0.57598317 0.11180777 0.49001744 -0.16062921 -0.010826917 0.022828827 -0.12415932 -0.34066215 -0.03679203 -0.40047812 0.0849518 0.13243392 0.3994687 -0.59387183 -0.2603521 1.2154343 0.27206972 0.35534924 -0.56387043 0.23955812 -0.15051426 -0.7024056 0.19546829 0.37924072 -0.71764576 -0.39085048 0.20828736 0.7748364 0.25074974 0.38114777 0.24221253 0.38744166 -0.26562798 0.05692615 0.08611507 -0.19378193 0.59585875 -0.33334354 -0.0031911596 -0.58580804 -0.17886473 -0.042768583 0.008804708 0.20214391 0.40340656 -0.3339573 0.29384807 -0.19812639 0.52894634 0.12608771 0.4159057 0.041039575 -0.07028869 -0.023433357 0.03571536 -0.39775428 -0.116204254 -0.09713451 -0.0046889745 0.53385824 0.10159419 1.0371581 0.30948856 -0.4173287 0.24806762 -0.5615682 0.07683838 -0.22423777 -0.4232897 -0.39010862 0.05059034 -0.15588485 -0.10639866 -0.18289846 -0.019878203 -0.44177553 0.15423562 0.49932274 0.39839604 0.31437695 0.03948251 0.1939154 -0.51037484 0.10139455 0.24569252 0.12611814 -0.13373972 0.17128174 -0.4406378 0.43083566 -0.17198652 -0.45765403 -0.084521726 0.15550901 0.06845251 -0.62932366 0.10931308 0.07621403 -0.12476268 0.16175215 -0.23150592 0.21090083 0.17934835 -0.21662275 -0.3506236 0.030715529 -0.37288642 -0.47407585 0.40568587 0.21769415 0.05873019 0.5675713 0.2774687 0.12766929 0.30641448 0.04954757 -0.46455547 0.09809927 -0.0070194104 -0.29587907 -0.074563 -0.51567125 -0.21631362
1655 -0.35477096 0.035124265 0.23732863 -0.24714841 0.5568503 0.22341628 -0.17893735 -0.1797081 0.009532075 0.26841304 0.10270947 0.03547093 -0.21761832 -0.5335735 -0.25050583 0.28825998 -0.30221713 0.31720787 -0.5369636 0.5090374 0.5754837 0.03237147 -0.0027138048 -0.50481355 0.26821393 -0.21451233 -0.6452207 0.1909817 -0.15885161 -0.6697241 0.4104517 0.09904455 0.44617286 0.3138405 0.6900573 0.0730808 -0.6290068 0.22795264 -0.43577635 0.26813573 0.02475268 0.28018853 -0.54339564 -0.5311255 0.034563996 -0.089398414 0.036030926 -0.21157935 -0.1416584 0.5985754 0.13062797 -0.23501986 0.08034607 -0.6757321 -0.25432852 0.34561113 0.053976584 -0.26394844 0.16254209 -0.14227466 -0.757518 0.45620012 0.22996792 0.13792668 0.73523647 0.38103744 0.42490783 -0.020027775 0.18219353 0.0064708362 -0.19311105 0.0066082138 -0.18390748 -0.11405996 -0.20181422 -0.7310539 0.0074131023 0.2888146 0.085511334 0.36917567 0.058021937 -0.65029585 0.47640076 0.43055972 0.26839018 0.25033155 -0.07380088 0.29764807 0.16156362 0.16716889 -0.25082403 -0.34356117 0.23986761 -0.39667967 0.078102976 -0.5665741 -0.028584788 -0.32562414 0.25282797 -0.18551533 0.020700904 -0.39830875 -0.8004507 0.072300844 -0.46959537 -0.20276447 -0.16420007 0.26685223 -0.26677215 -0.39385697 -0.47613376 0.6492002 -0.57682 0.52141255 -0.6931317 -0.7130802 0.20963787 -0.14274476 0.32679364 0.06555587 -0.11767514 0.09789228 0.076670885 0.13423453 -0.003059405 0.33788902 -0.7633451 0.3461934
454 -0.048607614 -0.30218643 -0.061958198 0.009039597 -0.15274873 0.11714841 0.11289337 0.013226816 -0.31922534 0.54768014 -0.36874187 -0.20024052 0.18495959 0.31454578 0.39118725 0.64359313 -0.35749722 -0.014038371 -0.36573333 0.28771445 0.58074224 0.40275115 0.027132245 -0.22687559 -0.476123 0.5488472 -0.32079384 0.13003443 -0.08843458 -0.13442227 0.20652993 0.07234884 0.31872204 0.34002206 0.124351874 -0.32073128 -0.27088332 -0.3347566 -0.39123106 0.1390115 -0.1784916 0.20086625 -0.09935023 -0.25100034 0.23331194 0.1288252 -0.5470129 -0.0651828 0.77528846 0.75544333 0.20814435 0.092188 -0.3479737 0.20949094 -0.64724505 0.6074808 0.48069423 -0.57164574 -0.259442 0.4708868 -0.3109308 0.5365682 -0.042134017 0.2406105 0.69682413 -0.064005494 0.24549598 -0.6134291 -0.24221283 -0.354045 -0.5947005 -0.26769254 -0.8291334 0.07526485 0.07728231 -0.22736187 0.1061712 0.11356635 0.04522378 0.3440777 -0.72099966 0.038873736 0.4079316 -0.04751648 0.022803878 0.4127899 0.22388695 -0.0020633051 0.066574566 -0.059380986 0.070248835 -0.107809566 -0.2816609 -0.087456934 0.3264999 -0.05096633 -0.12798262 -0.024611093 0.19686481 0.47956276 0.23660266 -0.21190287 -0.42118683 -0.29868925 -0.28660548 -0.05336825 0.41504997 0.90317595 0.09356525 0.5886408 0.356597 -0.3716403 -0.26680604 -0.03621276 -0.04910963 -0.32574475 -0.10563802 0.13982296 0.1145526 0.69905525 -0.17679404 -0.1542737 -0.2787559 0.35694584 -0.02782773 -0.40131652 -0.5589286 -0.4481013
292 -0.036298364 -0.071377546 0.4225268 0.42568547 -0.17845853 -0.53395516 0.23162355 0.5749372 -0.092179395 0.5621884 0.31531292 -0.040033557 -0.058255773 -0.969959 0.13606647 -0.21354996 -0.16253516 0.51414526 -0.40470797 0.6097293 0.8106838 0.48408163 -0.12361261 -0.37286273 -0.15300444 0.19493422 -0.36525965 0.3862303 0.14184502 -0.3067671 -0.6538331 0.10432947 0.2866872 0.45757353 0.60800874 -0.02598064 -0.0599759 0.06432659 -0.14063154 0.03794188 0.11787347 -0.023335442 -0.40059522 -0.073801614 0.028504746 -0.026742829 -0.23385344 0.105879605 0.06756284 0.15183228 0.19321129 -0.2966628 -0.17498174 -0.1998671 0.28589603 0.018051803 0.5887928 -0.17444588 -0.108184166 -0.13155748 -0.3538863 -0.07359459 0.061878152 0.30111995 0.49882752 -0.42621365 0.52692294 0.38041186 -0.3423907 0.22570719 -0.7796144 -0.0772439 -0.25582567 0.029736739 -0.39220658 0.07901023 -0.07521176 -0.13513446 -0.0038616685 0.36251736 -0.18205646 0.24261263 0.11877089 0.20570691 0.054303974 0.44795412 0.40759695 -0.20289925 0.4052587 0.22266164 0.06369044 -0.6650899 -0.58600295 0.2168268 0.11576078 -0.66023797 -0.79178286 -0.05567184 -0.010640964 0.1156661 -0.5146191 -0.23683527 0.46997166 -0.06994723 -0.48087704 -0.46841088 0.3361104 -0.107551284 -0.004839091 -0.6633296 0.28494918 -0.40653503 -0.52743405 -0.31402642 0.012474678 -0.40050292 0.6592962 0.22929178 -0.43251842 -0.17813471 -0.43830866 -0.41825148 0.060246874 -0.024641057 -0.28623208 -0.052425615 -0.091900714 -0.25670686
191 0.14355756 -0.18155523 0.35722187 0.007240891 -0.35366052 -0.0037717102 -0.24031918 0.08523918 0.72571975 0.09075908 -0.11455499 -0.6897031 0.46387848 -0.29808423 -0.39876515 -0.07133591 -0.047553506 0.64641887 -0.38241014 0.14766265 0.7008607 -0.102517284 -0.31500053 -0.7482695 -0.30187884 -0.13020171 -0.3505425 -0.19516328 0.5250454 -0.13905106 -0.1426744 0.48941746 0.51328737 0.38872918 0.29027507 -0.1833383 0.13000141 0.18310267 -0.10004453 0.47786465 -0.033488046 0.54445785 -0.3311882 0.049202725 -0.058628708 -0.110609554 0.50795895 -0.8413059 0.63681114 0.15571356 -0.11085211 -0.55559474 -0.33615488 -0.29081726 -0.3633492 0.087618075 0.03806529 0.59276664 -0.5346992 0.25453106 -0.35079214 0.29762343 0.027978638 0.0018813716 0.6548158 0.24955487 0.20730291 -0.24891664 0.24452583 -0.2409692 -0.46372983 0.16086544 -0.90293264 -0.005909764 0.1989058 -0.32022643 0.17467229 0.049685087 -0.07941206 0.4174959 0.11327207 0.10071202 0.60907096 0.05769947 0.42792824 0.18844573 -0.3999455 -1.0928848 0.14926586 -0.25652033 0.07769912 0.052393805 -0.77624774 0.2893064 0.039587557 0.54897547 -0.12894197 -0.2131482 -0.5167414 -0.20549867 -0.67892647 -0.2550569 -0.4280192 -0.12283388 -0.14384243 -0.038252704 -0.27439943 0.50348204 0.33007985 -0.06518902 -0.15619276 -0.14387232 -0.47051173 0.5722058 -0.19498585 -0.0313032 0.118399456 0.089000046 0.18747976 0.045784794 0.01529048 -0.040033467 -0.44964793 0.45070302 0.09819031 0.20246749 -0.22568284 0.17014824
190 -0.17659077 -0.15388061 0.5207398 -0.03435633 0.069758005 -0.47686866 0.1968379 0.397088 -0.43000305 0.1400689 -0.16582786 -0.2829114 -0.29128316 -0.4022261 -0.4187383 0.21871717 0.2548103 0.27436453 -0.37270105 -0.39185005 1.0371764 0.2846916 0.15773652 -0.5239188 0.30938244 -0.15268926 -0.68406504 0.25911763 0.33498904 -0.74653673 -0.23498048 0.3516582 0.78000027 0.35977775 0.059833277 0.29140437 0.22276102 -0.25585288 0.11991093 0.12540948 -0.24879953 0.6989135 -0.49901572 -0.04636497 -0.18361625 -0.26916257 -0.051627785 0.10611971 -0.051903386 0.22529234 -0.3541707 0.21537258 0.08192168 0.5807239 0.11532531 0.18421505 0.1873927 -0.55329466 0.035615683 0.12886827 -0.31616879 -0.054109316 -0.091697656 -0.08743547 0.2680102 -0.14925036 0.8188406 -0.023026317 -0.3984131 0.36597842 -0.29085356 0.38528258 -0.18574837 -0.33370045 -0.28618824 -0.030898405 -0.292284 -0.11380661 -0.10918643 -0.2543199 -0.7245983 0.35765436 0.6513378 0.24652135 0.023119135 0.42112374 0.21366626 -0.6549701 -0.055502698 0.24379207 0.13819376 0.05117982 0.084311165 -0.35703903 0.29349315 -0.04304955 -0.48400453 -0.19696099 0.38429084 0.101170965 -0.6376088 0.36603582 -0.24368049 -0.16190729 0.31091315 -0.28072548 -0.24664982 0.44428226 -0.029635245 -0.18749191 -0.124597535 -0.31044224 -0.9583365 0.3336576 0.122525945 -0.2578413 0.61009073 0.35248864 0.032276675 0.48579192 -0.054141566 -0.3413374 0.16265118 0.030309968 0.2198746 -0.14062852 -0.41121843 -0.011052443
820 -0.48126662 -0.3681932 -0.06543516 0.040242326 0.38886756 0.3780905 0.50224173 0.2603231 0.05236319 0.21738163 -0.38529447 -0.2813133 0.3443804 -0.3048404 -0.10794832 0.28596574 -0.13448106 -0.14501041 -0.56397957 0.20825604 0.9265683 0.12472692 -0.48989373 -1.0181593 -0.03668175 -0.39308664 -0.41609454 0.84775347 0.13816163 -0.333255 0.11702079 -0.05291618 0.050070576 0.22414713 0.2634589 -0.18832901 -0.34220356 -0.2128262 -0.034348395 -0.19867565 0.4332436 -0.2033742 0.30741775 0.020837685 -0.072574325 0.14717773 0.2843143 -0.10145727 0.5812148 0.59223956 0.12381622 -0.47699502 -0.49596325 -0.0116349235 -0.34641406 0.036795955 0.40104467 -0.26845375 0.13692518 -0.037638623 -0.9880933 -0.24514063 0.22262284 -0.056529775 0.48435205 -0.0039272993 -0.051665712 -0.0060694995 -0.32192415 -0.19266562 -0.24137795 -0.24040553 -1.202004 0.18331493 -0.030891653 -0.2472834 0.0642329 -0.60025316 -0.18714833 -0.2933637 -0.8101735 -0.10288268 0.17951266 -0.1842381 -0.23167668 0.5848068 0.8191286 -0.046093296 0.1679925 -0.2357937 0.70046985 -0.34232783 0.056863017 -0.23424363 0.19857432 0.09648675 -0.200099 -0.32615945 -0.3540097 0.07156755 0.017520826 -0.08115048 -0.18488815 -0.49335966 0.24467812 -0.512576 0.10674803 0.23763002 -0.3481643 -0.13655196 0.5651284 0.3441681 -0.38934603 0.08049378 0.04760895 -0.0022469214 0.027423054 0.08411566 0.48711145 0.032654352 0.30243814 0.05362948 0.086713724 0.74585885 0.21634606 0.3050405 -0.39535764 -0.03874795
134 -0.12824291 -0.07568635 0.27200687 0.12406586 0.23893605 0.08277833 0.116828844 0.12965819 -0.42512116 -0.018408969 -0.7859139 -0.27147245 -0.10524357 -0.463269 -0.41508254 0.4252843 0.04994915 0.100429215 -0.6121903 -0.29102454 0.78869206 0.43446377 0.32509264 -0.62424284 -0.06578365 0.24015802 -0.52097106 0.4671485 -0.1569766 -0.31270695 -0.17054595 0.25049067 0.65940267 0.26091775 -0.036675032 0.13895366 0.102687046 -0.31927416 -0.08475763 0.25404513 0.068227716 0.43557885 -0.6700077 0.37292522 -0.30282402 0.0965144 0.25701982 -0.35646942 -0.21166295 -0.18902157 0.2659257 -0.055215444 -0.21875085 0.41052377 -0.036571383 0.056178335 0.8745888 -0.86503583 0.09618623 0.023425043 -0.1591668 0.6388387 0.18182243 0.28866127 0.15868886 0.19084117 0.9746984 0.080751106 -0.24013098 0.4349853 -0.3862172 0.60524875 -0.7578306 -0.046519823 -0.18925756 -0.23225646 -0.2771961 -0.19486369 -0.07254922 0.012645098 -0.41427234 0.061462756 0.8030255 0.15486877 -0.18252459 0.160253 -0.014499318 -0.8928643 -0.42806163 0.397115 -0.21833117 0.1976308 -0.12677564 -0.26311466 -0.09807832 -0.24224767 -0.3052514 -0.31666583 0.24979404 -0.08672182 -0.48459056 0.56297505 -0.434158 -0.019472716 0.4991506 0.103048846 0.12556131 0.12661663 -0.3054527 0.10031471 -0.33689564 -0.039166324 -0.79614425 0.4043742 -0.03894197 0.077626005 0.52789146 0.14814715 -0.012072687 0.36451867 -0.05681435 -0.35633516 0.46781984 0.16204157 0.3953922 -0.18083736 -0.378358 0.29362315
305 -0.0009568705 -0.17696518 0.69747704 0.20811687 -0.09220317 -0.5818982 0.10900421 0.29876643 -0.28832728 0.1595575 0.12821604 -0.031151628 -0.18714222 0.16784394 -0.7045127 0.0394229 -0.08486262 0.765659 -0.5021214 -0.13887638 1.1844711 0.31400117 0.4362489 -0.4827242 0.23673925 -0.14347352 -0.6143544 -0.041594684 0.16474338 -0.38002986 -0.43113863 0.21778715 0.4610957 0.45431808 0.22551271 0.3104705 0.44886467 -0.018548716 -0.13116963 0.024408484 -0.08125874 0.87065405 -0.19888222 -0.23845159 -0.38271195 -0.32818 -0.12321461 -0.187175 0.3768775 0.3646389 -0.18012162 0.027397402 -0.2651017 0.58149683 0.07684591 0.26451388 0.033153597 -0.017152242 -0.25511622 0.17451572 -0.3050087 -0.28744513 0.031490948 -0.19681446 0.64008075 -0.18764871 1.0242432 0.21033475 -0.16747479 0.22818555 -0.5360196 -0.020551782 -0.42718273 -0.5268837 -0.4330208 -0.22827029 0.08974745 -0.011485822 -0.08424529 -0.11925086 -0.24535206 0.17403604 0.23616241 0.60305434 0.14187694 0.08046833 0.32576638 -0.36848745 0.2660623 0.053844817 0.29491135 -0.24644375 0.12709002 -0.4851354 0.52384293 -0.20996541 -0.40581167 -0.19544661 -0.1028929 0.028294245 -0.5683669 0.34945104 0.19163002 0.055504166 0.003365293 -0.3934209 0.3347502 0.10306833 0.018341813 -0.45136037 -0.026970783 -0.4452711 -0.4699782 0.30809364 0.098813534 0.14185871 0.27616245 0.43766448 0.36621588 0.25748822 0.1779025 -0.36730585 0.07836397 0.10920241 -0.43260276 0.019939195 -0.71761256 -0.0728165
136 0.0595227 -0.10588833 0.44271776 0.031224145 -0.34971368 0.2228328 -0.3917698 0.022703193 0.7174525 -0.01006677 -0.12216774 -0.706187 0.47500786 -0.21579748 -0.28945357 -0.057655998 -0.14618285 0.6626106 -0.24270476 0.022235936 0.9004984 -0.04581666 -0.1719022 -0.7206047 -0.37980282 -0.14965466 -0.28155965 -0.27834743 0.41135114 -0.22779098 -0.36367 0.36699352 0.56127745 0.4568892 0.22204895 0.13799971 -0.0096077025 0.15626585 -0.16852868 0.40165484 0.048898283 0.56975186 -0.46334225 -0.112455435 0.039698776 -0.11705513 0.2961977 -0.79481906 0.62280095 0.18416964 -0.19996592 -0.6132131 -0.31327412 -0.16412127 -0.30491868 -0.02908605 0.007327231 0.55916005 -0.4381901 0.4380224 -0.23186536 0.17986052 -0.037304327 0.08069377 0.49398485 0.053226363 0.120788224 -0.21534835 0.36112687 -0.1249256 -0.3405682 0.29273006 -0.9181229 0.027415715 0.04430433 -0.42960694 0.26557806 -0.13028981 -0.22528139 0.31002796 0.057153676 0.09734381 0.7177828 0.11033653 0.5215196 0.12690288 -0.24267733 -0.841299 0.007592337 -0.270739 0.21841387 -0.1908366 -0.72452796 0.10256058 -0.059869736 0.31185424 -0.13282132 -0.03121029 -0.6370107 -0.16962852 -0.84838927 -0.06680049 -0.33881107 -0.18463026 -0.3066325 0.016547713 -0.05222788 0.5783586 0.34469888 -0.052023295 -0.27075177 -0.15828699 -0.41752017 0.7124127 -0.38857687 0.07895355 0.1472826 0.19260265 0.17228231 0.09566584 0.18628412 0.06423775 -0.46142566 0.32317212 -0.018827198 0.340879 -0.29401943 0.054731462
509 0.17839712 0.5435262 0.5868171 0.23267123 0.5452439 0.3790641 0.72096837 -0.34638196 -0.080402 -0.122829154 -0.5988419 -0.61395615 -0.2688887 -0.7504801 0.01012485 -0.09918703 -0.318062 0.35749006 -0.536952 0.28904596 0.54527324 0.39650214 -0.16869575 -0.5302768 -0.31920934 0.032118805 0.064572304 0.29819345 0.19542111 -0.1416903 -0.105747044 -0.13760647 0.5531886 0.06490379 0.17759751 -0.33597222 -0.50023454 0.374904 0.019729631 0.65863633 0.17683887 0.2628122 -0.12942182 0.28760517 0.8777274 0.058616836 -0.04687414 0.37765202 0.50472885 0.6726329 -0.51147044 -0.10061187 0.20183827 0.047813367 -0.14858073 -0.08991083 0.61823165 -0.25854215 -0.2576158 -0.16497909 -0.026483173 0.20997994 -0.37492055 0.3604285 0.65223414 -0.42144904 -0.059334256 -0.30310637 -0.7234608 -0.26091644 -0.650995 0.034004115 -0.7862547 -0.10068538 0.19693808 0.071876116 -0.54739106 -0.11654506 -0.05287862 0.37770253 -0.09239097 0.11234905 0.36838004 0.7662863 0.18204679 0.006406312 -0.040381733 -0.053708494 0.28588858 0.38194114 -0.13374968 -0.08330445 0.03064143 0.1623511 -0.5203128 -0.051471677 -0.65617543 -0.3828662 -0.19680406 -0.21256597 -0.16055544 0.03059598 -0.28171223 -0.045029994 -0.23688164 -0.14289312 -0.15826458 -0.11584379 -0.040497582 -0.38892668 0.08182261 -0.36653814 0.10302584 0.47187018 -0.11401512 -0.7052134 0.052117832 -0.09350386 0.21397784 -0.1777415 -0.32190514 -0.47186992 -0.25310478 0.07010547 0.6414967 -0.0056451457 -0.040219765 0.34591997
518 -0.4070988 -0.17779231 0.2757414 -0.19813442 -0.16378629 0.20209892 0.4638242 -0.36628848 -0.26875028 0.214445 -0.19834931 -0.31774366 -0.060431767 -0.27269912 -0.16052756 0.3470751 -0.20121397 0.37086114 -0.49868166 -0.2610271 0.6870701 0.14843735 -0.5957071 -0.68184084 0.14230326 -0.1694757 -0.6611543 0.20119584 0.34138644 -0.5078287 0.21243216 0.22877939 0.91149503 0.569352 -0.25313497 0.33534247 -0.19527394 0.2981867 0.2447797 0.073207185 0.35752904 0.54510486 -0.21193637 0.16844454 0.4956638 0.009317914 0.09487382 -0.00034509134 0.14874284 0.028059103 -0.28476357 0.431733 0.3359664 0.38394845 -0.28392538 -0.32259756 -0.101985425 -0.08363847 0.16462186 -0.27613723 -0.30652308 -0.45547166 0.02652311 0.18016915 0.40482718 -0.074582115 0.11204566 -0.582358 -0.24066952 -0.14242136 -0.5346584 -0.12534526 -0.10644671 0.13681042 -0.19077168 -0.024733003 -0.62581253 -0.001932445 -0.29502743 -0.21219046 -0.7479732 0.04733815 0.75853604 0.09143957 -0.2231509 0.9405845 0.16808598 -0.6418497 -0.12060902 -0.19226997 0.038937703 0.1086711 0.2533603 -0.13448349 0.35634986 0.14554209 -0.9343573 -0.62416387 0.08840303 0.05197662 -0.2029318 0.08339449 0.18333334 -0.23095974 0.045064237 -0.012345793 -0.19844006 0.64826554 0.106302336 -0.5081623 -0.41775063 0.3148212 -0.19522537 0.60069984 -0.19176657 -0.43909615 0.23324515 0.057344273 -0.070229255 0.1574458 -0.6939325 -0.13728736 -0.10284328 -0.41752326 0.34582302 -0.120326415 0.024164323 0.010951787
542 -0.33297944 -0.16400279 0.25428835 0.20352124 0.13480125 -0.41248998 0.437205 0.346343 -0.2766785 0.4192481 0.4275985 -0.029050305 0.08141526 -0.8710426 0.124293715 -0.091659844 -0.15160355 0.6337207 -0.35637456 0.79495424 0.920213 0.45113537 0.20955671 -0.27206108 -0.11752568 0.19482735 -0.044795085 0.47662523 0.3777298 -0.3411918 -0.48676503 0.057562348 0.2654847 0.73694533 0.38175514 0.2408305 -0.014216394 -0.097920716 -0.10462284 0.034922402 0.19724503 0.09246091 -0.2122286 -0.07986369 0.15257888 0.029644066 0.05798396 0.27656764 0.14159594 0.2200725 0.05803742 -0.21277185 -0.24724302 -0.21436533 0.17587322 0.04118348 0.46544632 -0.062941246 -0.15294573 -0.08434371 -0.14909637 -0.005032683 0.071181156 0.121064745 0.5545825 -0.6499057 0.58303803 0.23163448 0.066638574 0.24610606 -0.6159811 -0.2381705 -0.18282759 0.1504433 -0.40369806 0.06408018 0.39021006 -0.2003159 -0.051197294 0.51872164 -0.22875878 0.4439359 0.05980325 0.16719204 0.11032137 0.651297 0.32594928 -0.11094157 0.5212353 0.15781955 0.008563059 -0.6642569 -0.41147372 -0.02196838 0.15941064 -0.63179904 -0.63244617 -0.24884534 -0.0017854266 -0.008174447 -0.6264886 -0.16410717 0.62950724 0.116303556 -0.477989 -0.5205611 0.34964618 -0.29705697 -0.018921256 -0.5503526 0.56222045 -0.4625971 -0.3769107 -0.17369612 0.14328232 -0.19560404 0.5275095 0.41596264 -0.21854612 -0.42643198 -0.39157075 -0.40463433 -0.14930479 -0.090740584 -0.3067922 -0.09143843 -0.44694796 -0.17517379
1197 0.32327574 0.2475928 0.6946476 0.45646587 0.520036 0.37947437 0.7829741 0.11399366 -0.34829062 0.082028076 -0.2967536 -0.5564395 -0.16124533 -0.73813546 -0.17333199 -0.25064465 -0.6152749 0.19523622 -0.46722254 0.33235765 0.7203232 0.33845568 -0.14052375 -0.13020864 -0.46834537 0.2806634 -0.13455847 0.47645605 0.09459465 -0.013194328 -0.3463599 -0.3186129 0.62393975 0.21540742 0.22596821 -0.30338314 -0.43591043 0.25906733 -0.4160932 0.42574033 -0.024138771 -0.13988765 -0.8651126 0.13425444 0.4284856 -0.21881722 -0.12577026 0.15713798 0.21420595 0.36855486 -0.45492253 -0.28727782 -0.22898255 -0.12924306 -0.13163252 0.027667858 0.85165924 -0.39080372 -0.06305599 -0.31385484 -0.19082843 0.5933294 -0.02988914 0.24723703 0.49974555 -0.5918889 0.076055974 -0.046663538 -0.4677178 -0.0014781632 -0.5288922 0.457479 -0.64546275 0.06737698 0.26776224 0.19915552 -0.5657324 -0.5770495 0.03988256 0.19292082 -0.15588352 0.0015772498 0.20455498 0.51076865 -0.031674773 0.10834888 -0.0089675225 -0.05047627 0.18759632 0.35561296 -0.023534484 -0.35330406 -0.2555817 0.3477244 -0.44461662 -0.034484185 -0.8095728 -0.18766175 -0.47153854 -0.22023816 -0.41622832 -0.40301618 -0.28323475 0.18182749 -0.34464163 -0.051922645 -0.02314774 0.034211602 -0.1734619 -0.3962782 0.04430286 -0.43136588 -0.12359501 0.20739216 0.013195563 -0.54095227 0.23032883 -0.10327796 -0.061406523 -0.057773322 -0.15556994 -0.48396242 -0.07309804 0.20244882 0.4404235 0.11077438 0.13973014 0.4580169
2 -0.1094212 -0.020751493 0.5277323 0.057978075 -0.047393013 0.13904344 -0.50321025 -0.40670735 0.4893615 -0.047360796 -0.04318704 -0.6768548 0.32944342 0.070552476 -0.21439244 -0.15498959 -0.15508771 0.382316 -0.36558783 -0.06140467 1.0365429 0.033169504 -0.11204486 -0.58238286 -0.17017488 -0.15438612 -0.15165886 -0.30484658 0.18899377 -0.38339433 -0.09564374 0.16034845 0.4257563 0.5658494 0.21795928 0.16141725 -0.24392323 -0.046549752 -0.4072179 0.15831041 -0.035819832 0.37928122 -0.2854225 -0.19452254 -0.37926918 -0.0986877 0.036888964 -0.6205638 0.74799526 0.21082878 0.01628839 -0.23778819 -0.5913761 -0.04292778 -0.19976455 -0.26699525 -0.085080616 0.26086402 -0.62055165 0.27152568 -0.021275878 0.09697148 -0.09271456 0.008154161 0.44225216 -0.08876803 0.24809667 0.00012484688 0.42508388 0.15927768 -0.5234292 0.3462737 -0.8623852 -0.20689528 0.009549134 -0.48964426 -0.1334747 -0.33541676 -0.3345467 0.23103297 -0.12727165 0.2972489 0.81364506 0.4834969 0.41621983 0.35215718 -0.34636182 -0.45732546 -0.21632664 -0.34101123 0.17418471 -0.25841427 -0.8305089 -0.07066096 0.28254947 0.22834066 0.0142429955 -0.3230764 -0.73871815 -0.22469205 -0.31770176 0.029865371 -0.005673892 -0.28652772 -0.24764307 -0.11201591 -0.26369604 0.55674577 0.37536672 0.046728384 -0.18392882 -0.40727514 -0.19737138 0.67427963 -0.38910943 -0.14637747 0.17513819 0.047033064 0.38303012 -0.11040952 0.47783074 -0.22497372 -0.5128053 -0.037181936 -0.0081530465 0.6875782 -0.396287 0.21331906
243 0.18290056 0.26477152 0.63297826 0.17430858 0.58676976 0.30545908 0.7660579 -0.18188216 -0.19207309 -0.029998196 -0.48364478 -0.49381396 -0.1896744 -0.6589646 -0.116170645 -0.04420574 -0.38314506 0.2605252 -0.5842668 0.23260787 0.60459137 0.3257556 -0.2206989 -0.32980537 -0.40999705 0.16023768 -0.053822234 0.46941608 0.043444257 -0.10401857 -0.2340586 -0.16180603 0.56975657 0.22192058 0.19131413 -0.56512326 -0.6142063 0.31608355 -0.1681649 0.51519907 -0.02570557 0.07114715 -0.5134067 0.10508667 0.84102786 -0.2606106 -0.14977643 0.3427851 0.23841332 0.59576994 -0.44682905 -0.04956525 -0.09105575 0.14325699 -0.15327914 -0.14205207 0.91211027 -0.13483034 -0.12300644 -0.19492058 -0.20753399 0.36975893 -0.33512256 0.32413042 0.40429115 -0.6784514 0.010622332 -0.31009233 -0.6161669 -0.24994867 -0.47181693 0.20593905 -0.7414531 -0.03995905 0.24300018 0.13989212 -0.60400873 -0.35749656 -0.165874 0.37645185 -0.07417997 0.08985725 0.35714778 0.61134887 0.09524388 -0.11505802 -0.12768252 -0.22474335 0.22340706 0.41598 -0.05500948 -0.33048877 -0.17888851 0.19345629 -0.6258775 0.012112249 -0.7780774 -0.107730724 -0.2658014 -0.22341289 -0.22199129 -0.364256 -0.27222568 -0.15926789 -0.35516265 -0.15564826 -0.22160888 -0.06392521 0.02421282 -0.4556528 0.060137503 -0.33351734 -0.1998777 0.42687076 0.023819907 -0.6178152 0.097510494 -0.20352426 0.075200394 -0.17166252 -0.01606703 -0.59517 -0.22350398 0.13113435 0.31643087 0.052028775 0.010286383 0.3393002
445 -0.348446 -0.24385579 -0.14993633 -0.05099431 -0.0917234 -0.095034994 0.22315745 -0.052751627 -0.4617342 0.3210495 -0.36234713 -0.21930364 0.5298037 0.119895995 0.34147885 0.58560735 -0.17939246 0.05000694 -0.12675825 0.2910757 0.7602964 0.51323706 -0.06546363 -0.5579173 -0.5065136 0.46866181 -0.35167858 0.4121731 -0.116735086 -0.44706297 -0.14945325 -0.002930631 0.10370277 0.57254404 0.28987205 0.025143608 -0.58996224 -0.4891774 -0.44706652 0.20693685 0.02008237 0.27741122 -0.13759783 -0.09947498 0.2964126 0.20387773 -0.28207818 0.02670703 1.0531787 0.85528857 0.26063955 -0.2762997 -0.20498627 0.28406444 -0.741782 0.6166375 0.25605428 -0.38785324 0.041759975 0.61618096 -0.41320583 0.58132166 0.2474101 0.53376 0.7050111 -0.18761006 0.0718995 -0.49467483 -0.38628256 -0.16481732 -0.22066581 -0.3639617 -0.7711845 0.13766095 -0.20564142 -0.32689515 0.008837771 -0.34919912 0.09216318 0.13261355 -0.6063282 -0.1227307 0.40320075 -0.22294964 -0.14721265 0.18011442 0.31154984 -0.089130044 0.18817782 -0.27364737 0.20880152 -0.38719332 0.11098223 0.04996112 0.22363703 -0.0026793864 0.087412775 -0.14380698 0.03796037 0.38791937 0.06315314 -0.4856222 -0.1950062 -0.5624937 0.099057935 -0.15605012 0.2840776 0.54532504 -0.032108776 0.4365211 0.2651628 -0.3408053 -0.10446557 0.035907667 -0.09735626 0.12446152 -0.036954954 -0.07695702 0.32955945 0.43065777 -0.15227512 0.026620448 -0.027981259 0.22770491 -0.10396891 -0.11813425 -0.373179 -0.2781116
1209 -0.074658185 0.5111289 0.412492 0.20399997 -0.10171159 0.6911758 0.25362685 0.0036129015 0.5237835 0.0108163925 -0.33573136 0.0024122696 -0.095673576 -0.022499584 -0.35674953 -0.1362415 -0.4806599 0.24893788 -0.58142984 0.64552814 0.5051341 0.09843042 -0.3759176 -0.4969717 -0.027835956 -0.17417431 -0.5992813 0.12828003 0.11545635 -0.37449792 0.315143 0.19179857 0.1521041 0.09763517 -0.026121045 0.20274891 -0.43738523 0.26706487 -0.05662539 0.58784264 0.78926986 0.5221905 -0.087797135 0.18495932 0.8586738 0.47160247 0.3052025 0.49925423 0.52811426 0.2886205 0.33909416 -0.18518212 0.52935845 0.2812248 -0.07700167 0.28561893 0.3948541 0.34625658 -0.5139515 0.20975545 -0.019028174 0.18440981 0.115850285 0.46801132 0.37427938 -0.5767712 0.27750865 -0.63377255 -0.48497272 -0.051920492 -0.8820093 0.53322655 -0.17012711 0.0070820535 -0.1356996 -0.058639802 -0.3748822 0.0093462 -0.20010717 0.5689137 -0.4049285 -0.02453548 0.2528456 0.48408532 0.18078522 0.36815667 -0.15336795 -0.12750383 -0.11641024 0.25611064 0.5146237 -0.22232574 0.37220103 -0.33418852 -0.33586746 0.27554378 -0.346475 -0.077635504 0.11494599 -0.18930234 0.16690584 0.3174373 -0.34267703 0.17536381 0.046441276 -0.13210517 -0.22500631 0.09549024 0.17876841 -0.5571023 0.17125572 -0.5617198 0.08869634 0.19899152 -0.027365547 -0.3362948 0.39753968 -0.022928739 0.57727844 0.27102098 -0.07082349 -0.6401428 -0.0947965 -0.12591052 -0.1655214 -0.044922467 -0.35766494 0.11472585
1691 -0.30055282 -0.024694782 0.32174507 -0.37054154 0.6672212 0.0067332853 -0.282494 -0.18009919 0.04700834 0.09403254 0.1579456 0.25285545 -0.21361557 -0.39119664 -0.22465916 0.38368523 -0.3649 0.23496346 -0.36937815 0.53703 0.5462951 0.013659875 -0.13137726 -0.4741836 0.3829714 -0.28385612 -0.51365167 0.17520507 -0.1249786 -0.6312476 0.47271335 0.12911671 0.622706 0.49722216 0.7183927 0.16377492 -0.6816671 0.29704642 -0.481759 0.40266696 0.23584078 0.1856265 -0.46508643 -0.58376956 0.122535534 -0.03464829 0.112797625 -0.24841194 -0.112606905 0.7321075 -0.076206945 -0.4847737 -0.012832724 -0.52091753 -0.2095997 0.47692934 -0.19203924 -0.38082325 0.062565476 -0.28717732 -0.72396064 0.38254464 0.09155244 -0.0022718986 0.6730941 0.2225399 0.3063476 -0.03356444 0.2954807 -0.14343217 -0.18615106 -0.034876537 -0.08637462 -0.02532387 -0.22543724 -0.6195985 -0.04453006 0.14206646 -0.039692864 0.40310398 -0.14947899 -0.6408196 0.3563011 0.38201988 0.31272265 0.25559163 0.009107219 0.21278246 0.034093466 0.21686931 -0.03161855 -0.4722118 0.31215906 -0.25228179 0.18647102 -0.46178615 0.17980434 -0.29925218 0.3930086 -0.18350977 -0.07261305 -0.3056771 -0.82193446 -0.030474544 -0.5297864 -0.18909 -0.17378312 0.43426925 -0.1705113 -0.5502025 -0.48526677 0.4843213 -0.6584042 0.5274013 -0.65428615 -0.63624835 0.16581596 -0.08661517 0.4258981 -0.022713182 -0.07482884 0.019030238 0.1246482 0.20622972 0.18920477 0.18506742 -0.6111066 0.2909535
816 -0.26476166 -0.15154804 0.7984464 -0.4689047 0.0209395 -0.28417856 -0.24963537 -0.32272333 0.08835957 0.10087717 -0.42823392 -0.07450929 -0.3245571 -0.10761185 -0.029041039 0.6617093 0.30313578 0.38574222 -0.26867655 0.426591 0.17000806 0.33348706 -0.0015005727 -0.05540835 -0.57346374 -0.3054575 -0.12376453 0.40820122 0.37258753 -0.3438466 -0.0053819153 -0.25431532 0.46067226 0.20164534 0.28137 0.07368849 -0.04020322 -0.14238049 -0.53002584 -0.19586216 0.7338291 0.22118782 -0.12642281 -0.19964707 -0.033301238 -0.26951358 0.24618985 -0.9429813 0.021206314 0.2007958 -0.0018640028 -0.27287108 0.116027646 -0.59580743 0.08663706 -0.011044588 0.68782085 -0.06986792 -0.1696249 -0.33930865 -0.22231497 0.38136014 0.013272829 0.13145268 1.1471747 -0.15536964 0.33342707 -0.28355548 -0.04507872 -0.035341725 -0.2533343 -0.056672093 -0.58014303 -0.25101605 -1.0373033 -0.0056416127 -0.65126044 -0.26970527 -0.51630884 0.41164684 -0.3795412 0.18464318 0.11251814 -0.15613693 0.23797315 0.29764402 -0.22222736 -0.1994546 -0.10424949 0.58964366 0.38243985 -0.39543808 0.40557262 0.34289944 0.19856639 0.4077985 -0.56031454 -0.38108274 0.31318894 -0.44836918 0.18561238 0.08916567 -0.4376219 -0.32144195 0.12888609 -0.28894776 0.07741845 0.4283801 -0.012950435 -0.25837204 0.08224919 -0.03539484 -0.0503483 0.39381796 0.37329975 -0.13033059 -0.060163647 0.53959185 0.30155092 0.25642163 -0.29241645 -0.18405351 -0.5383996 0.39119533 0.1662068 0.5302322 -0.17719635 -0.052506022
422 -0.3365404 -0.32064965 0.1616983 -0.006032815 -0.3630774 -0.45895064 0.56531054 0.32913637 0.16243748 -0.21537647 -0.71437776 -0.32965893 -0.2276091 -0.50227654 -0.11896111 0.41758284 -0.014908376 0.3434643 0.02001039 0.75797707 0.4941534 -0.36819655 0.006928596 -1.0883484 -0.30464202 -0.03936071 -0.35901785 0.5550812 0.51008815 -0.43401128 0.5606426 0.2726316 0.15469722 0.48524496 0.09557203 -0.023587886 0.3354022 -0.0899615 0.160396 0.22650547 0.082127295 -0.2147209 -0.21059771 0.16753456 0.5001871 -0.19183227 0.47502312 -0.15299658 0.30067825 0.28302947 -0.07616776 -0.57179356 -0.4153826 0.074419215 -0.19152458 0.08954497 0.26762784 0.1788984 -0.7091376 -0.22033386 -0.84087527 -0.287869 0.41524956 0.24071662 0.049685966 0.18083328 0.28454474 0.14037406 -0.34467104 -0.08286993 -0.47408235 -0.11479046 -0.8992306 0.38272208 0.13568296 -0.32395694 0.37381622 -0.24983399 0.1995252 0.24568397 -0.30061817 -0.1024744 0.25118396 0.22799537 -0.0002862582 0.2661289 -0.42684922 -0.37170002 0.15172607 0.052532677 0.67986715 -0.34326002 -0.14915095 -0.35827836 0.24565801 0.006792591 -0.7893489 -0.48860598 0.066421516 0.03334151 -0.072919056 0.14077844 -0.59252346 0.06354858 0.1783267 0.09598159 -0.38311014 0.33729514 -0.5469855 -0.15917528 -0.104473606 0.42583498 0.08824275 0.13927944 0.14029449 -0.36472297 0.028364535 0.17395985 -0.15156378 -0.36847952 0.40501618 0.1190988 -0.38327777 0.9318159 -0.045531802 0.03131631 -0.08732514 0.4951831
67 0.005584798 -0.10529612 0.71509147 -0.07930287 0.12985915 -0.25142866 0.09246761 -0.029626194 0.034660354 0.13748273 -0.053043492 -0.090753905 0.09072585 0.09988678 -0.4202154 0.0044995146 -0.21439745 0.89087504 -0.48966584 -0.3409161 1.0676811 0.0066315243 0.5325185 -0.5333475 -0.06894081 -0.20329908 -0.7164873 -0.26504305 0.31115603 -0.5593926 -0.5076192 0.17004403 0.22926931 0.35557836 0.40496022 0.2443467 0.2892461 -0.0013764536 -0.329922 0.22238803 -0.17723948 0.66536385 -0.021277064 -0.18088295 -0.617752 -0.2564495 -0.23688273 -0.37300006 0.57092595 0.67918193 -0.35693145 -0.079862356 -0.21607295 0.36744326 -0.10676403 0.1789611 -0.18402143 0.16754861 -0.18968785 0.2913715 -0.34926805 -0.050743584 -0.19525753 0.06385365 0.6406998 0.005894679 0.65651226 0.31015828 0.2662205 0.44362408 -0.7583122 -0.24801615 -0.40539432 -0.49706998 -0.17273529 -0.36996332 -0.12180374 -0.14971785 -0.28367403 -0.24269855 -0.10517133 0.13487083 0.15390472 0.95702106 0.64189905 0.2929817 0.045696344 -0.4649296 -0.04319202 0.26332122 0.30876446 0.011953821 0.30474657 -0.2945012 0.59381914 0.027518123 -0.6485837 -0.11890893 -0.333465 -0.060854964 -0.47846645 0.06877671 0.13385713 -0.02587264 -0.08459335 -0.2425793 -0.029525805 0.25076714 0.04698555 -0.28988186 0.21618715 -0.6137045 -0.25634548 0.58798 0.08835539 0.083400786 0.14458343 0.38302287 0.3748231 0.1045702 0.3888684 -0.3551758 -0.08486135 0.29367116 -0.5004676 -0.020440763 -0.7108439 -0.04498435
34 0.07264699 -0.021920541 0.3120839 -0.0957377 -0.012250429 0.1294805 -0.35688272 -0.43417865 0.37462068 0.21819855 -0.014626676 -0.47885734 0.28747496 0.14021236 -0.21644814 -0.2971918 -0.10081204 0.60392344 -0.4181059 -0.17370352 1.2187726 -0.00519122 -0.028227314 -0.69460106 -0.3234681 -0.33716437 -0.355211 -0.26679075 0.22362798 -0.25718853 -0.08030842 0.22770835 0.5255874 0.35743693 0.3977647 0.07847114 -0.29377025 0.018841024 -0.33163887 0.22579934 -0.092103004 0.24737662 -0.11218088 -0.27679953 -0.39354846 -0.041838203 0.20152153 -0.6788909 0.5474348 0.2251765 -0.02535763 -0.30988395 -0.48878974 0.15379304 -0.19615097 -0.32817417 -0.043683972 0.2809218 -0.76671267 0.31758526 0.07347318 0.091745384 0.012542692 0.20146027 0.3209508 -0.05670088 0.1413869 0.06888026 0.4907011 0.21087614 -0.746937 0.19979562 -0.8291305 -0.21572575 0.099136755 -0.47392523 -0.21899037 -0.4941546 -0.36810875 0.14079615 -0.24491173 0.097731955 0.59900606 0.60518265 0.54179275 0.5901128 -0.41128978 -0.38413873 -0.31066763 -0.3201383 0.089759275 -0.15612508 -0.61501175 0.039544396 0.21106704 0.19967642 -0.10130355 -0.15189509 -0.50018835 -0.36585474 -0.54621744 -0.16918077 -0.19911961 -0.4707129 -0.30479085 -0.035227716 -0.01904825 0.39669123 0.49430686 0.057704665 0.028834999 -0.4218552 -0.09933026 0.5974937 -0.3377642 -0.20532337 0.24604504 0.0814261 0.31897357 -0.11228281 0.41050518 -0.06283236 -0.4079962 0.154485 -0.112046115 0.6534639 -0.4526999 0.12556075
66 0.15436316 0.038883265 0.51286906 0.026865339 -0.20287912 0.07666833 -0.22937757 -0.20065723 0.5639271 0.00011965447 -0.038262397 -0.61471665 0.32442102 0.1132223 -0.31814876 -0.22050516 -0.07266821 0.6542898 -0.44297934 -0.0837641 0.97471744 0.021199452 0.005727092 -0.53388995 -0.37698925 -0.14353958 -0.31808177 -0.24417137 0.29465657 -0.40665546 -0.17830157 0.3890504 0.4039945 0.40424782 0.35844108 0.109137796 -0.15076914 0.16802587 -0.3953433 0.30709547 -0.06750096 0.5086146 -0.29617563 -0.21756999 -0.26166457 -0.14572905 0.18347062 -0.7166266 0.43419787 0.2773791 -0.10336812 -0.3048466 -0.5997614 0.08651548 -0.2188921 -0.08280727 -0.14662533 0.43375996 -0.7107673 0.38162363 -0.0188493 0.15885168 -0.019502731 0.068077445 0.5626983 0.032796014 0.31776834 -0.06544172 0.3866295 -0.045775503 -0.3785442 0.101668656 -0.952982 -0.27992898 0.04508947 -0.5325498 0.11403547 -0.15104964 -0.15980615 0.25149444 -0.21766542 0.278751 0.6939589 0.5744973 0.49974656 0.15532991 -0.3526501 -0.84095657 -0.15036769 -0.20772032 0.0028744673 -0.1831209 -0.55912685 0.115051016 0.15214776 0.2978293 -0.21126677 -0.27590188 -0.7374883 -0.15017052 -0.6137349 -0.15690914 -0.24724166 -0.24404684 -0.33024308 -0.020908305 -0.18770246 0.3245633 0.5141022 0.0028245535 -0.07213273 -0.23743881 -0.24900809 0.7140171 -0.4106285 0.12607133 0.0798705 0.04514915 0.31879964 0.09175427 0.45542744 -0.15560755 -0.63078994 0.2542309 -0.034861192 0.46769294 -0.43619198 0.051762424
244 -0.08797337 0.114207335 0.50361717 0.07231625 0.5842331 0.036541287 0.28056392 0.3841094 -0.35976076 0.04339229 -0.82277757 -0.36428246 -0.20010188 -0.4619113 -0.30508998 0.35547104 0.058563128 0.39598373 -0.42965132 -0.19261242 0.7509927 0.41160086 0.306621 -0.7212248 0.028097054 0.21342593 -0.3612338 0.24939981 -0.24096376 -0.2753858 -0.24466209 0.30559668 0.7116386 0.25050515 -0.0320684 0.11532827 0.19862056 -0.17965434 -0.21616466 0.16965827 0.0013988647 0.29886284 -0.6593053 0.4913281 -0.1695683 0.086326 0.2546454 -0.25382248 -0.06549208 -0.18685865 0.36492902 -0.23782335 -0.21174945 0.30122918 -0.023176467 -0.070726864 0.82212335 -0.84764624 0.15789834 0.038101416 -0.10896228 0.6368472 0.21623598 0.1148417 0.025579404 0.0030781962 0.81081396 0.035219535 -0.05765435 0.4652157 -0.55328685 0.5661638 -0.8804349 0.04242302 -0.35768458 -0.13769017 -0.28393245 -0.14543761 -0.05606852 -0.054830614 -0.5506293 -0.24263816 0.6454624 0.035761036 -0.14864057 0.121772476 0.0051771463 -0.57833797 -0.40015185 0.27787435 -0.3492168 0.14443935 -0.27832025 -0.14976048 -0.16725616 -0.26947793 -0.28905576 -0.37225023 0.13957602 -0.20828463 -0.41796294 0.53016037 -0.46203795 -0.12846312 0.33406195 0.025655393 0.019196222 0.14460404 -0.54992867 -0.08187006 -0.15834394 -0.19710203 -0.7570685 0.29448414 -0.08941439 0.07385245 0.6266277 0.12993504 0.13171436 0.3510973 -0.262703 -0.50624835 0.36124435 0.25441796 0.41127598 -0.119309634 -0.28564617 0.31120923
135 0.06763981 -0.13673821 0.25309432 0.09356805 -0.35488978 0.32052997 -0.2636087 0.32533693 0.59940016 0.20669985 -0.21595211 -0.65531236 0.47484854 -0.3251413 -0.3088182 0.009801082 -0.21752551 0.7548411 -0.36031473 0.05964369 0.7851411 -0.09711997 -0.24850671 -0.5069538 0.010590056 -0.039828353 -0.28990245 -0.20126194 0.63692516 -0.028246446 -0.12886176 0.19851984 0.60085815 0.4230039 0.4674115 0.111718684 -0.0921663 0.073165104 -0.1759036 0.73447907 0.13001668 0.39740902 -0.48939168 -0.048521094 0.21183604 -0.046368275 0.3506123 -0.83930665 0.4852057 0.11213862 -0.14075379 -0.47386268 -0.15166646 -0.51787263 -0.09718246 -0.20307235 0.088529795 0.40831676 -0.42064488 0.39202088 -0.24314213 0.43452275 0.06107847 -0.09816949 0.7095495 0.11471765 0.3621397 -0.45964268 0.22187416 -0.30045608 -0.5393995 0.094333924 -0.74670583 0.2650836 0.19673617 -0.07030259 0.114966504 0.12207785 -0.06769928 0.6363788 0.041769575 0.035840172 0.69217646 0.08719011 0.37919357 0.44680622 -0.58323246 -0.92553526 0.17763746 -0.19705006 -0.12924324 -0.063214526 -0.8135744 0.08836301 0.016045146 0.4323512 0.12466742 -0.15922698 -0.34522933 -0.02357611 -0.7482963 -0.19159555 -0.13981055 -0.107051134 -0.23719624 -0.23957606 -0.18766889 -0.03554494 0.35800192 0.04388839 -0.4526022 -0.10984978 -0.5558647 0.58593565 0.13396822 0.116674684 0.2297527 0.10851615 0.2780011 0.17878762 -0.19059329 0.3444843 -0.30214667 0.5177992 0.1836943 0.053562332 -0.15674654 -0.43422434
1534 -0.44105542 -0.06244997 0.08505176 0.18750446 0.309356 0.32117268 0.3563445 -0.7426225 0.06565835 0.2554214 0.1252059 0.042471796 -0.19135463 0.16515718 -0.027377883 0.0658213 -0.31228504 0.4891767 -0.77856773 0.3295971 0.815166 -0.069604695 -0.56863064 -0.049412996 0.15297768 0.5223941 0.2833975 0.48757115 0.4930508 0.38972902 -0.31442258 0.13205513 0.8822629 0.46451864 0.18704629 -0.016884254 -0.13709109 -0.32134792 -0.5660824 0.51545626 0.66682607 0.21960567 -0.14872655 0.24928632 -0.14424437 0.082000636 -0.30735418 -0.07980208 -0.3030395 -0.1607509 0.36457673 -0.26750612 0.42082688 -0.006845543 -0.44421214 0.22734861 -0.08331221 0.081965536 -0.17084643 0.42413244 -0.8469082 0.3197425 0.3534238 -0.43075716 0.36725444 -0.22869204 -0.15275295 0.07000078 -0.47911733 0.2669719 -0.3873805 -0.34732595 -0.8445739 -0.13447689 -0.52793485 -0.28098226 -0.3929617 -0.356708 0.3441582 0.052656267 0.12786193 -0.38737306 0.32698536 0.41507897 0.6741952 -0.016468046 0.050794765 -0.79123217 -0.098525345 0.5041642 0.40287986 -0.07489929 -0.42310318 -0.2528066 0.15577151 -0.023841994 -0.35669804 -0.2367848 0.1794196 0.12643477 -0.32476825 -0.05275858 -0.1330854 0.031989332 0.42007002 -0.58722734 -0.28828323 0.6617935 0.17006707 -0.13095954 0.23843999 0.4340619 -0.13975829 0.12977882 -0.16933754 -0.32755992 0.26059675 0.15326147 0.030264731 0.074967325 -0.22818227 -0.4763982 0.09042201 0.45568672 -0.09645667 0.32441276 -0.28293428 -0.120276995
669 -0.27604657 -0.122139424 0.6782718 0.057259437 -0.11309014 -0.52568 0.19378902 0.48018682 -0.25153878 -0.01696214 -0.11703911 -0.30060482 -0.4230346 -0.40345898 -0.5001919 0.13167793 0.1374546 0.23656891 -0.28707615 -0.18717866 1.1536902 0.35282037 0.084190145 -0.69847697 0.27458557 -0.08467913 -0.418533 0.20851834 -0.037265744 -0.5291176 -0.542168 0.09207652 0.77536225 0.23857415 0.49523315 0.04446763 0.27286944 -0.2330813 0.059025247 0.010002251 -0.05376006 0.5320421 -0.50475526 0.30730057 -0.36773884 -0.35520715 -0.18332757 0.4298234 -0.10958954 0.2163781 -0.27929044 0.27697697 -0.13429686 0.23945227 0.051555514 0.2947904 0.30150253 -0.6337755 0.029492771 -0.020600943 -0.4900523 -0.11337926 -0.05488215 -0.14945215 0.48854542 0.026348507 1.0812935 0.16022958 -0.38038537 0.3206357 -0.55171764 0.15212268 -0.04250498 -0.2582649 -0.12662072 -0.03824261 -0.11271962 -0.22886477 -0.24118975 -0.20869109 -0.561698 0.15074897 0.5740863 0.43613678 0.23659591 0.22047539 -0.06170405 -0.74187243 0.073297694 0.37642702 0.26289466 -0.10039255 0.021038525 -0.18457288 0.38017526 -0.14892805 -0.594295 -0.057096973 0.085941315 0.04458391 -0.54949343 -0.01289859 -0.15105651 -0.20412873 0.08246534 -0.60130876 0.35928857 0.3144171 -0.044594746 -0.12749192 -0.10107934 -0.48078075 -0.7497326 0.23847619 0.1692569 -0.12531228 0.45520887 0.22438705 0.054276686 0.4939591 -0.028968211 -0.48829696 0.2279877 -0.16699742 -0.011238912 0.0052303583 -0.35223612 -0.1337475
32 0.06250193 -0.42127985 0.38583755 0.4116155 -0.33243173 -0.22056527 0.20262672 0.34263492 0.4512699 0.052498173 -0.35095066 -0.3954724 0.3962298 -0.30356726 -0.11196541 0.7029835 -0.22727357 0.45584428 -0.10213626 0.30596277 0.42025638 -0.2909613 -0.07571373 -0.8708104 -0.12537391 -0.07923996 -0.07878783 0.08948535 0.52681774 -0.3795781 0.3216534 0.21790323 0.4246802 0.4692838 0.4020014 0.1553682 0.31628805 0.00931709 0.3776891 0.34042096 0.0038658292 0.20003916 -0.73442173 0.38144198 0.6995041 -0.10794317 0.57872623 -0.55425984 0.37606856 0.21684836 -0.053743158 -0.8205839 -0.17329445 -0.14353426 0.05673377 0.2770279 0.14576502 0.29598337 -0.3510199 -0.13109279 -0.64063096 0.25140765 0.52309835 0.052260995 0.41570124 0.047140423 0.1823611 -0.10245372 0.18253747 -0.22132556 -0.44509327 -0.15373665 -0.7157937 0.23433407 -0.0036600877 -0.52114135 0.1784528 0.13374117 0.05950429 0.5117717 0.09419739 0.008236934 0.48921245 0.17980896 0.2101212 0.15939106 -0.3810405 -0.9239388 0.15448171 -0.37021098 0.3690599 -0.10498032 -0.49764526 -0.0024428738 -0.0152388485 0.41565874 -0.47113603 0.036402263 -0.28959268 0.15087073 -0.6007846 -0.054301247 -0.58702964 0.11736663 -0.01060107 0.18077432 -0.43382186 0.59587884 0.113818586 -0.28236118 -0.19393533 -0.18516216 0.03655014 0.3758397 -0.10789396 0.06758068 0.2741846 0.1028182 -0.1962897 -0.16779163 0.06580695 0.21616094 -0.77846944 0.7053198 0.047030058 0.47941148 -0.29294485 0.25123405
474 -0.2628718 0.14427689 0.09693101 0.47812986 -0.022299243 -0.084611595 0.08067786 -0.101722114 0.39030975 -0.0823427 -0.11634117 -0.26046968 0.006976667 -0.57779586 0.02042592 1.0190748 -0.2204461 -0.050919183 -0.12253112 -0.35647815 -0.00039890764 -0.017330669 0.102614634 -0.36993283 0.6034699 -0.19258617 -0.5903488 0.24911214 0.20294575 -0.3172508 0.21891557 -0.0898038 0.5991216 0.4964949 0.23460297 0.076733336 0.20312533 -0.19610392 -0.12481496 0.01875228 0.17193931 0.44701362 -0.5578557 -0.21740952 0.4473012 0.22133912 0.1981852 -0.2551334 0.510359 0.31976053 -0.11955834 -0.4940457 -0.2074613 0.3708847 0.11473743 0.40230978 0.15223567 -0.062068317 0.48534143 -0.22030272 -0.12599948 0.3516864 0.5688548 0.013278263 0.56748646 -0.014848669 0.05467549 0.5166214 0.07567058 -0.2722164 -0.3201172 -0.20045207 -0.6307573 0.48578006 -0.471819 -0.6827582 -0.34239078 -0.15538383 0.3468623 0.5951945 -0.2527998 -0.039350502 0.41602185 0.40523523 0.24630326 0.5658212 -0.35197306 -0.3076772 0.51937354 -0.020274404 0.34946793 0.31994817 0.16547713 -0.13654563 -0.15303984 -0.5396301 -0.9916137 0.2460421 -0.08252654 -0.16666332 -0.31191418 0.31308043 -0.33762786 -0.31635398 0.08640461 -0.06632202 0.13267007 0.33661354 0.31549639 0.16291372 -0.0456244 -0.69270504 -0.18585122 -0.111653455 0.3416423 -0.4190487 0.46435454 -0.21537948 0.15380573 -0.78372747 -0.23572814 -0.19876625 -0.6892864 0.6505752 0.18581252 0.2516038 -0.14679232 0.17722192
1186 -0.042751398 -0.2616054 -0.14048198 0.102685474 -0.03832554 0.14014056 0.39405352 -0.121275365 0.21313313 -0.32946855 -1.1327702 -0.466262 0.021264309 -0.26319444 -0.14566389 0.08342956 -0.8099216 0.35877883 -0.3180507 -0.06719957 1.2256793 0.52418184 0.010433999 -0.6777456 -0.2148853 0.23457094 -0.07834848 0.3685039 0.15263212 -0.31978938 0.45984232 -0.48592973 0.15067573 -0.13897492 -0.06670568 -0.15373832 -0.7305122 -0.49553132 -0.15269415 -0.056326862 0.4434207 0.20833966 -0.115943834 -0.13354859 -0.17895524 -0.84647894 -0.5197557 -0.15149398 0.30805448 -0.2276066 -0.039434604 -0.50169575 -0.6372434 -0.41716415 -0.27923876 0.23741354 -0.14934218 0.2908888 -0.19786926 -0.108634725 0.10564677 -0.11467863 0.48691243 0.0873567 0.34261292 0.10088573 -0.11477279 -0.0059063802 0.12387301 0.13159725 -1.1484157 -0.102299884 -0.17167155 -0.25240526 -0.43574527 -0.1866522 0.079856016 0.31774923 0.23143274 0.31188962 -0.17258477 0.40210727 0.10659963 0.036081515 0.18424751 -0.050685886 0.18968701 -0.5573741 0.32183582 0.5443822 -0.23001714 -0.1705383 0.32096717 -0.33537987 0.22740594 0.26658502 -0.27949032 0.08638416 0.14729498 -0.44792387 -0.3364109 0.3968845 -0.1501764 -0.4796683 -0.20394008 -0.31056303 -0.28997165 0.23506834 -0.27662387 -0.30428016 -0.05187236 0.04984633 -0.50781673 0.0780776 -0.1390329 -0.44434825 0.22592983 0.054169513 0.012056028 0.036707535 -0.70858985 0.1880798 -0.07600833 0.16605012 0.08108006 -0.12686487 -0.5152088 0.1885383
1679 0.0037972068 -0.14631733 -0.17066406 0.019059505 -0.05976886 -0.09507067 0.11499638 -0.13898057 -0.52370995 0.45629147 -0.1783009 0.23348096 -0.032820396 -0.6496355 0.03637513 0.2852619 0.15265054 0.42522803 -0.5750634 0.7817724 0.54083234 0.52490985 0.0645751 -1.043928 -0.061313756 0.18314642 -0.28488374 -0.033706915 0.09038291 0.035898943 0.22007562 -0.01952976 -0.28311062 1.0055693 -0.1054334 -0.16993713 -0.05980094 0.08516218 -0.16865885 -0.1344922 0.3493062 0.37379575 -0.17903474 0.11496116 0.19736649 0.6225566 0.27416044 -0.25329626 0.12708856 -0.13241646 0.34801108 -0.4398224 -0.22886744 -0.0776151 -0.102958225 -0.1248671 0.32374412 -0.2066505 -0.12140394 -0.038392562 0.078976415 -0.12461701 0.030130995 0.14164607 0.57132035 -0.47371933 0.14186887 0.19201513 -0.20540491 -0.17748019 -0.28492054 -0.24533218 -0.7285088 -0.060313627 -0.573719 -0.12941197 -0.13814008 0.2982592 0.38688847 0.60311425 -0.1196608 0.4738692 0.1377112 0.3658531 0.3129225 0.41369122 0.45788735 -0.5071454 0.34924078 0.27066976 -0.1321784 -0.4542486 -0.25695935 -0.41999137 0.17391908 -0.7591877 -0.17325637 -0.44397622 -0.19606236 -0.29538068 -0.25953716 0.22259381 0.64710194 0.28600106 -0.6945178 -0.09684049 -0.28003326 0.2037496 0.14889696 -0.28837764 0.1509622 -0.11356345 -0.5705465 0.4464854 0.15264547 -0.039282504 0.5192688 0.5222462 0.10490436 -0.2899866 -0.30524263 -0.13437198 -0.21412052 0.23637503 -0.6310331 -0.06163667 -0.24580969 -0.22868717
475 -0.54500765 -0.59524775 0.5786502 0.16753934 -0.17820118 0.01699446 -0.30991125 -0.28042883 0.27492484 0.032016076 -0.7305451 0.021017376 -0.5721492 -0.24904998 -0.21562946 0.7093146 -0.5843727 0.29793558 -0.43332267 0.933735 0.44544128 0.4206606 -0.056777965 -0.066799514 -0.5626857 -0.17916757 -0.18933326 0.06574783 0.4049341 -0.46787083 0.13541108 -0.05981389 0.12531196 -0.16979657 0.3935916 -0.13871096 -0.013230964 -0.325146 -0.19181037 0.2624303 0.796163 -0.26663747 -0.26517949 -0.3130449 -0.07140474 -0.03581649 -0.24371906 -0.5111735 0.0999023 0.3116658 -0.08164498 -0.26535204 0.036117084 -0.31578627 -0.26330036 -0.23680277 0.20355405 0.25990164 0.1458962 -0.11754473 -0.013775372 0.13911065 0.120621294 0.107908666 0.44040734 -0.2912759 0.1017269 0.05644732 -0.30881196 -0.008024939 -0.3643006 -0.22640793 -0.5152227 -0.0100911055 -0.6948635 0.23052005 -0.7701953 -0.095680036 -0.5682651 -0.3465133 -0.6692771 0.2533852 0.26818648 0.026733471 -0.32863384 0.23190273 -0.72576445 -0.26381546 0.62266403 0.17390813 -0.073973395 -0.38567013 0.018128209 -0.040716793 0.21198231 -0.29901028 -0.042846255 -0.12039005 -0.030962624 -0.58961076 -0.5440188 0.6780511 -0.30968064 -0.2917852 -0.11226378 -0.08301086 0.0045113834 0.57234687 0.34002253 -0.11509211 0.077868454 -0.14388505 -0.2587208 0.1851402 0.18622823 0.21210173 0.12243833 0.43304628 0.34769133 0.17876337 -0.4915065 -0.046492714 -0.02806109 0.3373198 0.1561021 0.1082958 -0.63593006 0.26430133
249 0.06172753 -0.09527004 0.65002435 0.076520056 0.08746561 -0.378609 0.10946304 0.02448269 -0.23049355 0.22651875 0.04271499 -0.079345085 -0.04645697 0.040725 -0.553743 0.022759924 -0.20518254 0.87901014 -0.590679 -0.22613482 1.1870825 0.038827084 0.35395893 -0.4119728 0.039935846 -0.31040943 -0.6458958 -0.14660072 0.12521699 -0.40848935 -0.1724398 0.13217856 0.39959273 0.25473762 0.23671171 0.17643161 0.49827605 -0.02384819 -0.09086202 0.17104562 -0.014973669 0.7449101 -0.18538862 -0.1580872 -0.6977522 -0.2960456 -0.24061948 -0.18020225 0.45054436 0.6310725 -0.16170433 -0.08639831 -0.18630894 0.53940266 0.29109347 0.23863333 -0.10471803 0.09099665 -0.26884836 0.25416598 -0.46128803 -0.31390187 -0.09389706 -0.1237978 0.66831 0.036703523 0.905767 0.17628019 0.13308448 0.35935614 -0.59457684 -0.10951977 -0.3158165 -0.48255804 -0.26330733 -0.27579188 -0.075005874 -0.10052773 -0.30601102 0.0323622 -0.14691892 0.14164038 0.20417333 0.79463804 0.36092502 -0.020720646 0.18292722 -0.29470304 0.0955105 0.07956794 0.2976743 -0.23594896 0.22673193 -0.33624724 0.4099384 -0.10553281 -0.51418185 -0.094272904 -0.30890238 0.011907138 -0.47460303 0.14496674 0.26697645 -0.0103044 0.11924796 -0.25708285 0.20883304 0.33813497 -0.093017355 -0.19457853 -0.0035617268 -0.6045453 -0.28793085 0.7745366 0.25425157 0.094994076 0.08384529 0.38877767 0.29985332 0.14800908 0.3563296 -0.38759547 0.18573307 0.42293566 -0.6066504 0.04524971 -0.90823823 -0.35504144
594 -0.7158449 0.16034229 0.2945942 -0.13340573 -0.17658786 -0.26680475 0.53536594 -0.03532019 0.25677422 0.1056419 -0.48627514 0.13555205 -0.7570132 -0.41508543 -0.6501469 0.31020582 -0.48501024 0.42563692 -0.53756434 0.25986776 0.384191 -0.1774402 0.08746945 -0.21373285 -0.4223805 0.22485243 -0.09613223 0.063274615 0.5529373 0.003578322 0.31968284 0.3528508 0.71214247 0.75144076 0.07575006 -0.1408925 0.1140408 -0.07432426 -0.8715724 -0.008122297 0.44099656 -0.193678 -0.22997148 -0.23162767 0.20071727 -0.044742882 -0.1378843 -0.12736756 0.40216538 0.43103755 -0.22578871 -0.3066499 -0.57901204 0.16195719 -0.14891352 -0.06323435 0.42398047 -0.026938695 -0.58890045 -0.09327591 -0.48306835 -0.24743389 0.25549296 0.18324873 -0.31275225 0.08870405 0.71784097 -0.0008719596 -0.6846702 0.4208414 -0.58767784 -0.058638975 -0.48623925 0.099140875 -0.13287608 -0.30788356 -0.010175331 -0.53746086 0.4317433 0.59356105 -0.31618917 -0.4492449 0.2239109 -0.2812979 0.55313134 0.43024662 -0.24241547 -0.16473454 0.06023137 0.4838254 0.3629763 0.21751909 -0.056829866 -0.55183774 0.12916744 -0.5559855 -0.041256078 -0.04054168 -0.24776591 0.11780554 0.0039010402 0.037675306 -0.101129875 -0.130045 0.3196046 0.05542282 -0.20838782 0.4669628 -0.16920063 -0.009713282 0.01311196 0.14060579 -0.29352733 0.20788398 -0.07800692 -0.6544416 0.041705534 0.260789 0.2025286 -0.43686318 -0.07176601 0.3111245 -0.513147 -0.018858762 0.1726891 0.096410125 0.27812177 -0.29507586
1295 -0.43345186 -0.22912551 0.18204921 0.25587735 0.050999936 0.7230603 0.14354868 0.12627038 0.23899609 -0.22722921 0.023032853 0.1763685 0.12531963 -0.24107975 0.0735364 0.036160808 -0.15014322 0.4439968 -0.41784018 0.19194226 0.560594 0.3489773 0.22480457 -0.7466131 0.25979796 -0.32730693 -0.56442875 0.2673734 -0.011075263 -0.27438712 0.83168983 0.5813866 0.9118122 0.35872194 -0.06375388 -0.3437914 -0.07116451 0.13199815 -0.5234863 -0.08344075 0.030335728 0.6999041 -0.133105 -0.256067 -0.36335146 -0.28327182 -0.44835263 0.16699335 0.24783802 0.47763097 0.61266106 -0.034760136 0.13680346 -0.012667084 -0.24980451 0.14503236 0.7362195 -0.48751673 -0.36894652 0.09354022 -0.5306435 0.52680093 0.65970284 0.19311199 0.4861399 0.3114064 -0.2766738 -0.10744583 -0.44174042 0.42647225 -0.120786145 0.055025518 -0.6085733 0.06501323 0.098681964 -0.705124 -0.06554173 0.15664595 -0.106622234 -0.13506973 0.07361662 -0.18122193 0.31815177 -0.09239425 0.027309112 0.49561325 -0.14196093 -0.3721678 0.4469845 0.41530547 -0.065771446 -0.54062283 0.3006308 0.66006714 0.0356938 -0.04606304 0.11211234 -0.20861782 -0.048011106 -0.08095944 -0.411223 -0.069729224 0.15998249 0.13972004 -0.31222072 -0.34675175 -0.26291734 0.1305154 -0.18676718 -0.6145455 -0.45096576 0.10293525 0.08408769 0.4201839 0.46625918 -0.3522189 0.2483101 0.3373623 -0.10260941 -0.281801 -0.1051293 -0.06831072 -0.5223684 0.040060516 0.015043303 0.31066528 -0.56763065 -0.06692628
797 0.034989275 -0.2961045 -0.06260025 0.22454648 0.17056502 0.24793799 0.08748265 -0.005949148 -0.26836142 0.35253584 -0.17595986 -0.1534078 0.024686603 0.053599693 0.44058663 0.5392983 -0.15696044 0.04104705 -0.4438517 0.46465924 0.40817365 0.5024708 -0.029105425 -0.25922772 -0.35529944 0.54636127 -0.16887587 0.17354494 0.04137003 -0.000770506 -0.009937628 -0.027622899 0.34916306 0.20032112 -0.003396611 -0.31347272 -0.15952803 -0.2942872 -0.37754187 0.28841192 -0.057926223 0.32195613 -0.09763686 -0.34980395 0.18255812 -0.19137813 -0.20181157 -0.14544918 0.7980673 0.74538785 0.03463628 0.039931275 -0.41137525 0.3857244 -0.41023722 0.4538002 0.14195292 -0.4607733 -0.36827567 0.46021235 -0.27635273 0.7926049 -0.11730056 0.26956803 0.6349361 -0.054454014 0.06994439 -0.5205553 -0.14527139 -0.24053635 -0.530865 -0.25296047 -0.5590534 0.35463563 -0.01659904 -0.58882874 -0.029292991 0.317363 -0.023962557 0.4529519 -1.029992 -0.30161628 0.37695968 0.08614613 -0.032769214 0.48788255 0.22344601 -0.09262548 0.009846458 -0.0959259 0.112859406 -0.31324807 -0.27653104 -0.30187392 0.45612165 -0.18267614 -0.17549847 0.068642385 0.27721444 0.17260073 -0.018062599 -0.16755112 -0.40654674 -0.3157899 -0.3753757 -0.19299653 0.25941464 1.0611204 -0.14204912 0.59205663 0.31787348 -0.3780894 -0.15290284 0.008412758 0.050676145 -0.19645299 -0.10161858 0.17658404 -0.05006743 0.6919649 -0.2486665 -0.19906525 -0.45878783 0.21861152 0.18551882 -0.56435627 -0.43021452 -0.6448808
254 -0.44541287 -0.38246724 0.07034026 0.042861868 0.39508554 0.27203035 0.27512822 0.18039109 0.0023567104 0.34092718 -0.49649462 -0.28110626 0.3624233 -0.4518794 -0.22518426 0.20469116 0.0056365966 -0.12019402 -0.52637017 0.28929833 0.91539997 0.13715078 -0.3785211 -1.1222426 -0.010973239 -0.52700925 -0.34151372 1.0054309 0.25286576 -0.48718783 0.17683572 -0.048951685 -0.028562807 0.03996977 0.1459275 -0.31379393 -0.4883827 -0.2854243 -0.20711823 -0.28597993 0.40426823 -0.121782735 0.3184607 0.043781817 -0.0009276715 0.2700859 0.19154048 0.017854353 0.4435 0.63873124 0.32940707 -0.39897156 -0.4628365 -0.07853935 -0.4518079 0.099981785 0.16815242 -0.060954574 0.10047659 -0.08486424 -1.1042132 -0.2189444 0.32209957 0.07676847 0.4342726 -0.10115963 0.14719644 0.021379162 -0.40075934 -0.14142638 -0.21902736 -0.20553117 -1.1813761 0.1483141 -0.061759107 -0.1770784 0.012562385 -0.6683584 0.020090794 -0.38569358 -0.7576953 -0.04127011 0.24817704 -0.0984749 -0.14661415 0.74800503 0.87319535 -0.054927293 0.15894443 -0.30736125 0.63687027 -0.28606352 0.010318862 -0.3224099 0.1585865 0.12925088 -0.2352605 -0.18601272 -0.36822435 0.13976276 -0.02744651 0.1552661 -0.18587555 -0.50951195 0.1325772 -0.5063725 0.14840962 0.24862428 -0.3100591 -0.2994177 0.50472826 0.26972666 -0.2778692 0.13063724 0.02392571 -0.039812405 0.0636017 0.10661836 0.4100585 -0.08483129 0.44723558 -0.16231169 0.13905132 0.7408258 0.25984898 0.31870833 -0.3876108 -0.013328281
731 0.07461556 -0.4345216 0.20959897 0.40847346 -0.30227438 -0.22052668 0.22032644 0.20750691 0.4734397 -0.10559167 -0.4738814 -0.34969717 0.31345755 -0.3994667 0.005913808 0.7095547 -0.18333596 0.3275802 0.01570848 0.39664727 0.38153434 -0.2822021 -0.12276881 -1.0358129 -0.090327024 -0.25347832 -0.26759627 0.17660992 0.37391832 -0.53286165 0.28113905 0.20839232 0.37027776 0.41790614 0.30510917 0.3011177 0.44342116 -0.13774608 0.35775906 0.4330325 0.05119605 0.2420903 -0.74764276 0.5306371 0.6703424 -0.13616532 0.6128614 -0.44742733 0.47777256 0.18426488 -0.20993677 -0.77875996 -0.24754411 -0.12866785 -0.060882002 0.10571043 0.22369152 0.3832601 -0.33281437 -0.08020493 -0.62958944 0.14526643 0.43221164 -0.099260755 0.28562826 0.023655027 0.22814588 -0.029731834 0.09055322 -0.27200758 -0.56769913 -0.24162236 -0.60975564 0.30361947 -0.15909216 -0.35082328 0.27752236 0.09047497 0.22848797 0.43946812 0.0068267863 -0.040588856 0.52229285 0.24247655 0.19715844 0.022529475 -0.46965158 -0.7785721 0.13965732 -0.13865857 0.5781484 -0.2249618 -0.46168286 0.12664641 0.0006484636 0.12890504 -0.43290263 -0.0457539 -0.1785689 0.15247123 -0.496759 -0.18488783 -0.6429282 0.020625725 0.0026131417 -0.023561452 -0.3929587 0.5888333 -0.1227297 -0.22954911 -0.32871082 0.03802569 0.084627114 0.2561918 0.08807499 -0.123490065 0.2914477 0.017167952 -0.2520687 -0.26988757 0.006710202 0.030994391 -0.7761715 0.72944784 -0.021889905 0.42470384 -0.21073036 0.19606403
1147 0.23483205 0.1779886 0.5893141 0.5617489 0.18090892 -0.021045597 0.70892555 0.15939845 -0.40573746 0.03810262 0.078400314 -0.37077966 0.020986453 -0.92270356 0.038117312 0.0026790518 -0.4514819 0.5452717 -0.41529906 0.584011 0.60734415 0.1313993 -0.49340802 0.048962884 -0.64190674 0.12751295 -0.28485072 0.41774896 0.35473785 -0.27674648 -0.33636603 -0.27245086 0.25735408 0.20732857 0.3783661 -0.3674232 -0.26318505 0.31403378 -0.4098899 0.28644508 -0.15022555 -0.3041802 -0.3584462 -0.3284742 0.038912494 0.0057506133 -0.38790706 0.089954376 0.125692 0.24775063 -0.29357314 -0.22154438 -0.0910367 -0.3997622 0.18501516 0.23388758 0.7345744 -0.2687015 0.025209071 -0.06966476 -0.37427497 0.22397803 0.023618422 0.30831853 0.31322336 -0.6882003 0.20382947 0.21292223 -0.43024516 -0.04417879 -0.75046027 0.2288617 -0.5545555 0.030591425 0.032126673 0.15530069 -0.18668607 -0.30980492 -0.0200807 0.17250212 -0.25176477 0.29507193 0.35686013 0.3970653 0.105224155 0.19407973 0.1936738 -0.25032362 -0.009991244 0.5220813 0.068385124 -0.43001842 -0.34377226 0.40319276 -0.081816345 -0.044380013 -0.84018964 0.2541191 -0.35326576 0.007371607 -0.4122061 -0.5329494 0.13767296 0.12948476 -0.38099396 -0.2599196 -0.3084579 0.18788776 -0.17480972 -0.6381765 -0.15757951 -0.78825605 -0.07020216 0.08890056 0.2851906 -0.6048708 0.3867522 -0.29902053 -0.059678007 0.2002002 -0.08853511 -0.2713533 0.08993464 0.22111626 0.34813258 0.15369995 -0.00014874854 0.32353628
1511 -0.22557698 0.4483354 0.45200595 0.17610244 -0.13850676 0.91430295 0.17174369 -0.11244957 0.4901609 0.067477874 -0.44371733 0.081031755 -0.13191377 -0.062446687 -0.06905263 -0.23423591 -0.45046413 0.3991014 -0.65149295 0.7166155 0.461349 -0.02580023 -0.3749418 -0.7190158 -0.17089628 -0.16848974 -0.5901968 0.11557719 0.3073152 -0.29439807 0.05055892 0.20755735 -0.10266582 0.23526031 0.105854586 0.408095 -0.53244555 0.31798127 0.13195622 0.3550217 0.82523805 0.32662502 -0.34838554 0.001310657 0.4410511 0.21692812 0.21610908 0.50274664 0.6361116 0.019989261 0.3613235 -0.015690621 0.306412 0.10596565 0.13740201 0.39775607 0.3521802 0.26286978 -0.3350942 0.23972228 -0.24450707 0.21535629 0.012971151 0.42630622 0.28047258 -0.4242594 0.20955506 -0.32952172 -0.5312455 -0.111723006 -0.850878 0.5481476 -0.21493915 -0.07775794 0.15802053 -0.30978626 -0.33332303 0.20424771 -0.044794533 0.50874007 -0.54693043 0.1481134 0.16644418 0.2138151 0.35586956 0.25551936 -0.14827298 -0.16887355 -0.31963292 0.29986453 0.62946993 -0.1585589 0.5251132 -0.26642504 -0.39129013 0.10085068 -0.45214468 -0.051858723 -0.0878251 -0.15683576 0.08239459 0.1535557 -0.5759831 0.30280137 0.26279888 -0.3264629 -0.16582939 0.07758941 0.09994945 -0.314458 0.3150065 -0.6379932 -0.09975226 0.062839046 0.11881606 -0.25006407 0.45849565 -0.06577905 0.8129548 0.49259943 -0.26931408 -0.3342363 -0.16356914 0.03191921 -0.1521241 0.17793433 -0.27594867 0.045253206
56 -0.18623537 -0.111119926 0.26232 -0.031246243 0.2133191 0.29206875 0.4213425 -0.27169937 -0.1316002 0.08467262 -0.5057624 0.09817371 -0.3891238 -0.25907865 -0.38641953 0.528138 -0.05749644 0.65084064 -0.49345642 0.34780255 0.6279309 -0.27405092 0.30817243 -0.029128583 -0.7300391 0.22964048 -0.073175594 0.59575707 0.20481038 -0.20568001 -0.27898556 0.26661238 0.55585176 0.40687293 -0.0062767128 -0.2759047 0.06548368 -0.119755566 -0.9244726 -0.16234396 -0.13868622 -0.07058793 -0.6909421 0.08024977 0.27163368 -0.1111702 -0.24041727 -0.2117613 0.07775118 0.4568966 -0.3478003 -0.57390344 -0.0131015945 0.2228935 0.010803524 -0.030309305 0.06706418 0.26323074 -0.8051602 0.15649831 -0.6645889 0.20199068 -0.019293677 0.038674664 0.2576359 0.095996864 0.2575128 -0.14482744 -0.70486057 -0.050779063 -0.83861667 -0.024881989 -0.4926384 -0.054091472 0.13657069 -0.6453392 0.11134508 0.10742299 0.14659145 0.8154636 -0.5421394 -0.14660317 0.23933505 -0.43284905 0.5052411 1.1100012 0.07335589 -0.369053 0.010418972 0.30677375 0.23823598 -0.123031594 0.005231991 -0.2747996 0.5434485 -0.47780916 0.3997111 -0.016722864 -0.12917373 0.28276676 -0.089027315 0.80267435 -0.08176879 -0.29348075 -0.1105716 0.32544768 -0.1387675 0.7844447 0.16452768 -0.01594001 -0.24760978 -0.21802369 0.013517683 -0.2341195 -0.14958951 -0.5691759 -0.069185056 0.20784453 0.34991428 -0.082324654 -0.33579487 -0.20788771 -0.1771473 -0.21858492 -0.07301098 -0.06260795 0.036752217 -0.38433364
1608 0.27427202 -0.26047978 0.037770215 -0.076053 0.051743794 0.18259543 0.3604116 -0.07567498 0.2991639 -0.18014966 -0.9973475 -0.28324875 0.018194364 -0.35898566 -0.16274448 0.18668492 -0.8585249 0.31906325 -0.3873315 0.0028227712 1.2288249 0.69581735 0.010592636 -0.38966233 -0.21617824 0.033605687 -0.22360614 0.42252037 0.11579915 -0.4628433 0.55405873 -0.4889153 0.08284847 0.13670765 -0.028859422 -0.2984304 -0.6144806 -0.44112453 -0.092847936 0.10316337 0.34079066 0.18514903 -0.32871324 -0.043400437 -0.3590203 -0.74834573 -0.55610234 -0.08421804 0.3822364 -0.34721366 0.13160229 -0.5995155 -0.6855557 -0.52491814 -0.2721383 0.19370599 -0.18014076 0.28542012 -0.1650595 -0.07590582 -0.011151309 -0.46030027 0.633617 0.14601083 0.33718646 0.034791432 0.067361765 0.015190077 -0.11135593 0.26729658 -0.98299783 0.0055981874 -0.17721185 -0.110605605 -0.45673695 -0.19685571 0.101282954 0.37090087 0.14152764 0.28061306 -0.2711111 0.44916102 0.17589909 0.029931005 -0.0086406665 0.055668972 -0.063241564 -0.433023 0.43762445 0.34963375 -0.29732493 -0.3496168 0.39897528 -0.30716127 -0.03657598 0.40620473 -0.22996393 0.23348069 0.16983236 -0.44377282 -0.3338382 0.24566445 -0.3301529 -0.54662305 -0.19275607 -0.0060778395 -0.27763265 0.3702429 0.02216766 -0.31288725 0.14329305 -0.01555275 -0.564948 0.036959168 -0.11696853 -0.34255403 0.12689798 -0.14440286 0.10885429 -0.01988241 -0.72523016 0.22631939 -0.05200753 0.12539242 0.10540481 -0.20124584 -0.56752414 0.08180335
1836 -0.07138053 0.5931995 0.09460175 -0.13250285 0.07018448 0.16115569 0.24048354 -0.0744446 0.004487759 0.0028685806 -0.32212543 -0.04870356 0.074982174 -0.66125125 0.28202298 0.8342088 0.030965623 0.29014117 -0.30096972 0.29843763 0.6268389 0.0051007085 0.31419718 -0.39938748 0.56866115 0.46077377 -0.37425527 0.17922223 0.39421612 -0.14500572 0.7250779 0.42941228 0.77273613 -0.0832543 0.20301187 0.2566254 -0.4382923 0.32499784 -0.67242837 -0.026705112 0.3660643 0.07353333 -0.25030857 0.082054235 -0.20538302 -0.15691663 0.39412487 -0.4579688 0.14188972 0.20152155 0.36943233 0.13355939 0.03416953 0.20448321 -0.16031648 -0.27612242 0.84149957 -0.1079195 -0.5371619 0.348336 -0.31863847 -0.01077467 0.25776184 0.25476652 0.63850236 -0.035151 -0.036101773 0.38028064 -0.20814918 0.21824569 -0.14405334 0.05309154 -0.6472285 -0.03525365 0.2731632 -0.12049042 -0.22853903 -0.40966964 -0.048334174 -0.1718211 0.1873931 -0.15664999 0.4002361 -0.30023372 0.23033339 0.31526938 -0.19380748 -0.69755715 0.461081 0.38690814 0.4976988 -0.14359617 0.58519304 -0.2733807 0.042031985 0.2524798 0.052706826 -0.22726738 -0.48038346 0.16421717 -0.25703213 0.10876424 0.21066296 -0.32297984 -0.8472314 -0.4140571 -0.21189508 0.7471878 -0.06788301 -0.65711087 0.19456331 -0.7149499 -0.21183427 0.043542445 0.3787325 -0.0040286887 -0.19770053 -0.071407184 -0.62483835 0.3627198 -0.020775467 -0.2509322 -0.12330417 0.16740045 0.028300224 -0.12823166 -0.5961845 -0.31423724
1365 0.13086015 8.3551524e-05 0.73358226 -0.42386398 0.04336586 0.20738046 0.084999375 -0.26909208 -0.06378213 0.2158642 -0.03296302 -0.115738355 0.14914194 -0.13369426 0.09021474 0.21554568 -0.21929105 -0.09537444 -0.49884823 0.081418715 0.7367985 0.837152 0.40473062 -0.038883224 -0.24660613 -0.21113992 -0.47191548 0.012779892 0.6833535 -0.19665003 -0.06398372 0.25862464 0.45861685 0.3680703 0.23475341 0.35926244 -0.18995768 -0.6497191 0.26022258 -0.17262968 0.7840434 -0.055363473 -0.09844255 -0.35054836 -0.07152573 -0.23872732 0.53894156 -0.16595794 -0.10745272 -0.33210808 0.46352062 -0.4905473 -0.47040465 0.06321286 0.10685467 0.1303282 0.37293634 -0.38728568 -0.30857775 -0.24335954 -0.26359993 0.38683376 0.2944175 0.2214414 0.9735082 -0.5173719 0.4857231 -0.049370173 -0.3620378 -0.32463643 -0.6666517 0.48160857 -1.1782404 0.05703561 -0.94837505 -0.45496088 0.6585645 0.13030112 -0.4490027 0.24974859 -0.15635416 -0.10690467 0.26337045 0.020068701 0.019968862 0.1406295 -0.23793226 -0.4181285 -0.0724234 0.4754774 0.11745883 -0.17698139 -0.101916656 -0.06518495 0.16938671 0.13117877 -0.31877673 -0.29958606 -0.103084385 0.5829696 0.34501854 0.19395244 0.32754445 -0.29325047 -0.13275698 -0.47810456 -0.12616038 0.26852912 -0.24375333 -0.14242536 -0.10615334 -0.07689602 0.36236522 0.2893078 -0.102360316 -0.6235741 -0.3560522 -0.060941603 0.24648911 -0.33045784 -0.38643098 -0.32548067 -0.43165943 -0.031352457 -0.14722924 0.5378879 0.2472417 -0.13391736
943 -0.6207745 0.018767832 0.4977021 -0.07159555 -0.15868334 -0.13447838 0.5025884 -0.13063845 0.114001065 -0.004950783 -0.48919514 0.16166428 -0.6554692 -0.5077466 -0.7296206 0.39405975 -0.45189613 0.472209 -0.3202898 0.5163679 0.5172683 -0.2270869 0.2981059 -0.4663097 -0.43360707 0.10987396 -0.3272466 0.26449144 0.6169111 -0.065356284 0.2424723 0.3013888 0.41375816 0.6900691 0.015204246 -0.25523522 0.21635981 0.03470062 -0.80674154 0.13835683 0.2706305 -0.15265721 -0.20812543 0.09414089 0.2574521 -0.05422621 -0.37123755 -0.10917182 0.33436045 0.18047222 -0.16911025 -0.37224656 -0.55048907 0.029287914 -0.14567322 -0.17338672 0.41150424 0.036433414 -0.72988063 -0.036047455 -0.6859351 -0.19824566 0.09980622 0.20859897 -0.29394874 0.08075831 0.684077 -0.16383848 -0.74650246 0.5487691 -0.6007958 0.026690919 -0.38744396 0.06990143 -0.049326558 -0.4223258 0.080248825 -0.47959846 0.3361176 0.5579946 -0.20608452 -0.36127612 0.25802132 -0.3901197 0.4381455 0.42360088 -0.14088456 -0.08372757 0.1325209 0.34841037 0.3962804 0.30510822 -0.10004923 -0.54456633 0.36263943 -0.46918207 -0.06876815 0.022870356 -0.09591884 0.2850282 0.21258023 0.2841071 -0.18965562 -0.1747682 0.047875654 0.225528 -0.32350388 0.4659676 -0.15208276 0.20621178 -0.04027552 0.052820805 -0.13521945 0.3271554 -0.15842913 -0.6070689 0.02742817 0.30174142 0.092214465 -0.32692498 0.06430874 0.41568473 -0.41534385 0.03745142 0.061656754 0.099234216 0.20663933 -0.2312031
3 0.09541431 -0.08111416 0.19183089 -0.3068447 0.045131393 -0.086558625 -0.27760783 -0.37384012 0.41750512 0.027196787 0.120476194 -0.4134395 0.19730935 0.05105165 -0.2341016 -0.16802137 -0.34490943 0.90637076 -0.35110885 -0.3042531 1.2886167 0.3010693 0.15032369 -0.51542854 -0.33291265 -0.26693597 -0.7348698 -0.058853015 0.3657314 -0.2892354 -0.28900763 0.3653775 0.6588319 0.25724086 0.20443559 0.17747077 0.15491223 0.1051169 -0.31212395 0.26075456 0.04694196 0.18734907 -0.03853907 -0.2781704 -0.5378388 0.068612166 -0.000721994 -0.4574683 0.7516611 0.4381131 -0.3032212 -0.12170442 -0.39074728 0.28798202 -0.34465894 -0.05127535 0.18400092 0.43244725 -0.87543285 0.6090655 -0.08863256 0.09689315 0.106409244 0.037630215 0.37425035 -0.11463698 0.4150839 0.16828668 0.58956015 0.3758409 -0.5985355 -0.10014054 -0.59531814 -0.68741035 0.08193533 -0.48776898 -0.26004416 -0.3028356 -0.24379025 -0.2504556 -0.23600739 -0.04618313 0.42888224 0.8539211 0.5273311 0.4815077 -0.08757115 -0.31224108 -0.123141006 -0.17144473 0.26170123 0.01233931 -0.18337414 0.038909774 0.22651643 -0.035713572 -0.41602233 -0.045787062 -0.3319827 -0.183919 -0.42531872 0.08992793 -0.14894868 -0.49121624 -0.11722761 -0.2363775 0.35873374 0.18541396 0.19965872 -0.22989434 0.18290101 -0.18777603 -0.11448407 0.30688816 -0.063129164 -0.1792391 -0.10363948 0.22362676 0.6093863 -0.17710046 0.39859366 -0.20717004 -0.27079904 0.11493724 -0.14975895 0.1542518 -0.6131401 0.21701384
35 0.14661707 0.076190606 0.5288181 -0.045399472 -0.011563384 -0.23016965 -0.30714658 -0.06767236 0.25902215 0.04687207 -0.084073305 -0.21006668 0.1111019 0.027771931 -0.36389324 -0.17958117 -0.41226783 0.90265363 -0.5939105 -0.30476242 1.0280716 0.049505945 0.333016 -0.53069323 -0.121766426 -0.19816403 -0.6494983 -0.07367182 0.34866148 -0.37113756 -0.3539285 0.32752314 0.4995909 0.32966125 0.1732055 0.18592066 0.2717161 0.00090505334 -0.2345773 0.2880138 -0.030987758 0.6068085 -0.14267062 -0.27617013 -0.46193746 -0.049080845 -0.17623012 -0.40323037 0.55404556 0.64484346 -0.40518314 -0.15936334 -0.26947674 0.36786062 -0.2400347 0.13610339 -0.16710176 0.30527407 -0.45564067 0.40321153 -0.23058273 0.110459514 -0.17203055 0.08757205 0.55970937 0.06792957 0.62166715 0.14993691 0.5460394 0.6662792 -0.65278167 -0.061593436 -0.5414334 -0.8223043 -0.10686068 -0.28077716 -0.24442473 -0.2564032 -0.20521367 -0.26145768 -0.16615213 0.113218345 0.15205134 0.9561285 0.4957046 0.29498905 -0.10269425 -0.5060828 0.009511681 0.031223185 0.2028817 0.008136328 0.033448793 -0.05435805 0.3901785 -0.076837145 -0.53762424 -0.01380606 -0.4533796 -0.06557647 -0.546337 -0.037888765 0.082985714 -0.21106817 -0.19060592 -0.13196911 0.18860354 0.3354025 0.22976783 -0.2507766 0.25850862 -0.20566387 -0.22070016 0.4553289 0.037038315 -0.11995725 -0.08773949 0.38430524 0.4600638 0.111236036 0.56027436 -0.11415668 -0.31179008 0.20284231 -0.35796234 -0.07880809 -0.7470969 0.06476871
1628 -0.3431526 -0.17029843 0.12469123 0.41314557 0.14549372 0.89153486 0.13327804 0.29899672 0.20393938 -0.06273064 -0.0714887 0.23090498 0.30703455 -0.12084018 0.08263785 -0.03205964 0.024832308 0.28596693 -0.25803995 0.23422322 0.6451315 0.30930963 0.18423992 -0.6600913 0.30932453 -0.33830005 -0.50192237 0.15719782 0.2164754 -0.3928061 0.7648555 0.5932984 0.86794037 0.39419487 -0.017822057 -0.32404712 -0.11498936 0.22312352 -0.5243416 -0.27879563 0.051058795 0.7429363 -0.24734746 -0.50908184 -0.13816461 -0.2400521 -0.6501598 0.21006134 0.32151768 0.39056948 0.65109473 -0.1355301 0.18989761 -0.07041767 -0.11841794 0.07138065 0.7780252 -0.41468284 -0.29927975 -0.023954311 -0.49818274 0.5659439 0.38256636 0.19453953 0.44056758 0.23252839 -0.06763513 0.059404735 -0.44930577 0.34613293 -0.19595452 -0.14037625 -0.5723392 0.12574536 0.038169518 -0.6405198 -0.1128517 0.15554783 0.1733756 -0.24520563 0.024201319 -0.20734873 0.49095368 -0.16459341 0.08831663 0.5743962 -0.2448183 -0.16183352 0.32094637 0.46229333 -0.042205222 -0.6810496 0.16330253 0.47760776 -0.011690316 -0.10226775 0.019012328 -0.07046527 0.010873462 -0.12706196 -0.5173878 -0.11786407 0.004494582 0.13428628 -0.35910496 -0.12914953 -0.3618575 0.18884037 -0.13491951 -0.68541324 -0.484515 0.29915363 -0.0060661696 0.5806596 0.33076516 -0.4027104 0.23772633 0.36527792 0.10070963 -0.1788515 -0.148454 0.044675354 -0.32926267 0.014190094 -0.2368883 0.261434 -0.66493076 0.13517381
353 -0.05314354 -0.2751892 0.11356317 0.4993704 -0.29677826 -0.23863061 0.61396486 0.11712472 0.59724915 -0.09248511 -0.577007 -0.16709866 -0.08280799 -0.40311405 0.06397417 0.8724746 -0.09142401 0.49496874 -0.09119505 0.4204155 0.4039801 -0.3060068 -0.021482896 -1.0610943 -0.11242345 -0.20201202 -0.13191757 0.26803282 0.62152195 -0.46451506 0.4923712 0.3599545 0.18005663 0.59744966 0.24188927 0.3141008 0.2979631 -0.12532443 0.1296595 0.40287754 -0.023899967 0.02639756 -0.31741524 0.33843157 0.6794304 -0.30130598 0.6976097 -0.40907568 0.36821467 -0.024255479 -0.16338462 -0.60223126 -0.44921777 0.06474312 -0.029266646 0.22169615 0.09774004 0.148576 -0.56202227 -0.108088315 -0.8215995 0.016077535 0.37983847 0.20773552 0.0036120606 0.028981004 0.3581071 -0.005364878 -0.20257221 -0.17852762 -0.5544688 -0.21835952 -0.5823826 0.3199274 0.06974379 -0.39242655 0.24974549 -0.009620311 0.08503143 0.33034423 0.019299278 0.06738155 0.5503163 0.42419258 0.0021925082 0.14495634 -0.5296369 -0.50646394 0.23490994 -0.061229676 0.5368619 -0.2700186 -0.29469854 -0.117520936 0.03826263 -0.11033093 -0.8161275 -0.05287346 0.27766174 0.05114303 -0.23211135 -0.12343337 -0.5865747 0.015690917 -0.106675275 -0.035467077 -0.0057524014 0.2960425 -0.21267426 -0.118257724 -0.2821801 0.32290012 -0.07621364 0.1087803 0.12826641 -0.0791995 0.071918584 0.11012313 -0.32450953 -0.3978883 0.29922327 0.09892316 -0.7532774 1.1534637 0.07111871 0.16141857 0.0076187444 0.5486365
287 -0.4257299 -0.2827105 0.6931271 -0.29103014 -0.17596917 -0.22238983 -0.16509046 -0.4138753 0.22626227 0.09128768 -0.32002115 0.016944008 -0.44149652 -0.15992653 -0.1829404 0.75586635 0.18990447 0.32529467 -0.15771264 0.52572834 0.2863138 0.38339698 -0.057621658 -0.07242971 -0.6411365 -0.23130597 -0.35210228 0.28554392 0.31705046 -0.49171567 -0.16042893 -0.41327986 0.5517416 0.037945744 0.24071132 0.11236513 -0.06094861 -0.0956608 -0.48713726 0.11609241 0.81457436 0.16199891 -0.081008285 -0.111048095 0.07789459 -0.16720913 0.038228612 -0.9162195 -0.16273458 0.32253453 -0.104706645 -0.19313438 0.21474914 -0.6619576 -0.18733342 0.036871035 0.39377582 -0.10986677 -0.24844839 -0.33659747 -0.28004608 0.30558833 -0.11548643 0.17589386 0.78459513 -0.04800752 0.2755286 -0.17196903 0.0025547736 -0.2429271 -0.2941398 0.26336184 -0.5910794 -0.11635586 -0.92934316 -0.12710506 -0.70915663 -0.27323943 -0.6173674 0.19975807 -0.37932086 0.2407287 0.1521711 -0.19328094 0.32217434 0.22916906 -0.25541335 0.0069262376 -0.033556603 0.48113343 0.04161553 -0.50580746 0.41625643 0.102169245 0.2121869 0.069978654 -0.4477671 -0.39795113 0.31058788 -0.46531326 0.07187863 0.045413725 -0.5230373 -0.34115675 -0.01770245 -0.25533122 -0.088979825 0.38797665 0.10401234 -0.1071947 -0.0027976127 0.007967461 -0.16707687 0.2104148 0.6378905 0.26541945 -0.20427753 0.42120382 0.17479204 0.14791837 -0.3353363 -0.08605605 -0.33643103 0.47204086 0.2892207 0.5369989 -0.47628176 0.07767703
1765 -0.38620102 -0.18708792 0.07806279 0.13172375 0.3120641 0.6302408 0.23178479 0.16751657 0.11941281 -0.15339735 0.016170898 0.16384181 0.19243412 -0.15143172 0.16242038 0.22470343 -0.09594231 0.34034616 -0.30148047 -0.04641004 0.670063 0.20963572 0.23673159 -0.6506233 0.40551057 -0.18605945 -0.5611067 0.19040452 0.110076815 -0.22223039 0.7845537 0.51103073 0.9266056 0.19458708 0.2776087 -0.3801212 -0.09841968 0.1895441 -0.283941 -0.21001017 -0.002523161 0.48743695 0.0654716 -0.41075113 -0.32294634 -0.25366607 -0.33292747 0.2089132 0.1826204 0.41510776 0.46851283 -0.021374373 -0.006183826 -0.272187 -0.19903246 -0.22359878 0.7536215 -0.23972851 -0.31005824 0.13946424 -0.64472544 0.6766522 0.5280076 0.46787426 0.5164412 0.23006512 -0.20131578 0.006724278 -0.5856155 0.38829124 -0.34860688 0.1761981 -0.4319761 0.020549936 -0.031801738 -0.5242097 -0.025185052 0.1638012 0.09275508 -0.24119762 0.25115815 -0.20177214 0.6548161 -0.24017736 0.112760685 0.5221764 -0.12587729 -0.13076943 0.49590862 0.40979952 0.1958574 -0.6940389 0.22618201 0.47758445 -0.0366179 -0.28692195 0.11084662 -0.22655252 -0.07026303 -0.178106 -0.4021814 0.044994757 -0.25878873 0.23175272 -0.42894983 -0.20501083 -0.21698375 0.15533271 -0.0809966 -0.5195857 -0.43995368 0.020042965 0.065120086 0.4650183 0.22501025 -0.23092872 0.20577286 0.46315077 -0.015928745 -0.012290031 -0.28995708 -0.14637402 -0.71926975 0.04579181 -0.09356496 0.33003297 -0.65919435 -0.05899767
1761 -0.44039288 0.04800161 0.22386949 0.23202987 -0.081151135 0.92493105 0.28589416 0.09000567 0.41924274 -0.11044434 -0.03310411 0.054267526 0.29006562 -0.14193352 0.3559013 -0.06735792 0.11302204 0.17768136 -0.11522639 0.4216006 0.76688725 0.10682189 0.26986665 -0.54511666 0.19788668 -0.37551343 -0.3999744 0.31615633 0.1081109 -0.5148898 0.7076681 0.14016835 0.91586095 0.46232697 -0.096234 -0.19868438 0.23252217 -0.057134338 -0.4887725 -0.1299479 0.13014916 0.6660262 -0.23942941 -0.34624106 -0.10675734 -0.24048245 -0.61558414 0.04630565 0.31096065 0.4208072 0.5787147 -0.17345105 0.3116515 0.49797672 -0.45551217 0.119066335 0.66125184 -0.5248397 -0.52171916 -0.13534488 -0.50869775 0.4900332 0.51263106 0.13180317 0.26650956 0.11516999 -0.012741472 -0.11330992 -0.5262568 -0.07893036 -0.1510729 0.26512957 -0.60947424 0.12891594 0.14226274 -0.72345275 0.004478273 0.06348862 0.05649179 -0.3256242 -0.19245304 -0.19541073 0.13239639 0.13904417 0.40514347 0.6267556 -0.050067943 -0.3878356 0.0815642 0.5043412 -0.36745906 -0.47141382 0.036007863 0.22585674 -0.020579206 0.0487119 0.032429826 0.16576013 -0.07785022 -0.03654278 -0.48433656 -0.27044606 0.31432956 -0.03939566 -0.23853208 -0.31751966 -0.23247255 0.09892885 -0.2954622 -0.52876925 -0.39074254 0.18123111 -0.20495884 0.24494511 0.5196205 -0.08060757 0.41878408 0.3472191 0.0111433845 -0.46281266 -0.29126215 0.10648013 -0.7625405 0.03148625 0.073236406 0.014028406 -0.7356501 0.248069
673 -0.80963206 -0.3255506 0.20892882 -0.0035527716 0.24033698 0.4802152 -0.39347658 0.095352195 -0.0137414895 0.25757968 -0.74960816 -0.019710133 0.049756467 0.073608875 -0.28396127 -0.13166632 0.020020843 0.800657 -0.29274225 0.25449842 0.551681 0.25370306 -0.75087374 -0.2867167 0.64492106 0.2934248 -0.51961315 0.75853264 0.9179519 -0.20819558 -0.0074449517 -0.104058675 0.39697275 0.8250632 0.47167292 -0.050547186 -0.1293839 0.013385707 -0.40060624 -0.21924166 -0.51297456 -0.075510345 -0.3432357 -0.6489064 0.52431214 0.2380286 -0.0794933 -0.26029006 0.29412004 0.40416735 0.30816036 -0.5453787 -0.1016547 0.15758625 0.050663806 -0.25055492 0.34637076 -0.25491053 0.08717786 0.0015881743 -0.0544289 0.3246377 0.3912506 -0.3549968 0.5042065 0.36151364 0.1884624 -0.17144236 0.18876539 -0.6613266 -0.32767358 0.49379125 -0.30556202 0.20709409 -0.039793145 0.36080948 -0.14798787 -0.061533965 0.0047391024 0.33562762 -0.12525043 -0.12189477 0.4409578 0.31816944 0.3910581 0.13258208 -0.300269 -0.53569484 0.46520975 0.2591861 0.4024824 0.1515225 0.09614871 -0.26766548 0.067469634 -0.6402508 -0.29544064 0.24136509 0.11745278 -0.2990867 0.39739257 0.09732605 0.1403493 -0.43367052 0.10194301 -0.19086051 -0.23992792 0.2306155 -0.06717036 -0.024040144 0.09948664 -0.287701 0.09742513 0.48145044 0.5243219 0.31337646 0.3167943 -0.5206029 -0.17582121 0.026884828 -0.066821456 -0.26038873 -0.14714304 -0.24666655 0.18183717 0.056127366 -0.21930079 -0.053108577
1613 -0.04394509 0.27343413 -0.22268894 -0.2364808 0.1672735 0.36513045 -0.5865963 -0.14895946 0.10876732 0.40976727 -0.4386156 -0.35966936 -0.4313674 -0.41841364 0.060694303 0.4827482 -0.42998496 0.6012947 -0.68095344 0.047066983 0.33068758 0.35090455 0.20000824 -0.9479758 0.1186005 0.44305122 -0.48694825 0.28074595 0.19777972 -0.07772934 0.25335005 0.09985348 0.6511861 0.46682736 -0.04806285 0.052711572 -0.572627 0.55594105 -0.30486664 0.10696712 0.23097844 0.10054668 -0.63532907 -0.055296846 0.0064698025 -0.17419377 0.09761055 -0.10000896 -0.12959746 0.05028539 0.02811553 -0.29016596 -0.081977345 0.14269607 0.07146715 0.3114487 -0.21833038 0.22247174 -0.51055723 0.004478391 -0.58108526 0.21169949 -0.09640288 0.45542762 0.09479616 -0.23698376 0.3651223 0.6766663 -0.44342253 -0.55375624 -0.57457465 -0.09565927 -0.3936329 0.20397161 -0.018627863 0.06764906 -0.01009763 -0.4318881 -0.47036198 -0.41514924 -0.03824878 0.26835027 0.38315517 -0.07769946 -0.23385695 0.2253323 -0.1868777 -0.6835232 -0.22016788 0.050015185 0.61614764 -0.038477346 -0.06777223 -0.047816865 0.08905916 -0.13781697 0.13041635 0.039842334 -0.098285854 -0.23487093 0.23047999 0.2826252 -0.43322825 0.48241743 0.23225966 -0.5902433 -0.047988575 -0.011617958 -0.10395306 -0.3175647 0.86458737 -0.5745462 -0.45207536 0.22455454 0.4121748 -0.4200666 -0.048564855 -0.10521632 0.26432347 0.28187215 -0.62874806 0.08105083 -0.5596779 0.3688923 -0.27942157 0.3553799 -0.71406645 -0.4531617
1362 -0.30647853 -0.25703016 -0.02984903 -0.18656497 0.40298125 -0.20950124 0.65270483 -0.6627758 -0.12120839 0.16897045 -0.25407246 -0.18604724 -0.17955236 -0.20725879 0.11028967 0.34955624 -0.33501142 0.27495366 -0.14285114 0.27432305 0.51454973 -0.01292803 -0.45099777 -0.47707364 0.64225084 0.2782752 -0.33785123 0.26801938 0.84895045 -0.31295657 -0.48297328 -0.39822224 0.62350565 0.12826051 0.40899727 -0.06617201 -0.11362685 -0.5785069 -0.4107015 0.32584974 0.45574164 0.32956547 0.24526857 0.0641825 0.005982594 -0.2953933 -0.5699706 0.04301951 0.2626917 -0.38546768 0.48400277 -0.24361345 -0.12790829 -0.06144112 -0.38055223 0.06743352 -0.13759974 -0.23323977 -0.29689535 -0.10713583 -0.15916966 -0.32046178 1.0017043 0.449063 0.70884633 -0.06723072 -0.061152924 0.09694474 0.33392268 -0.1140504 -0.7474947 -0.03213845 -0.9220629 -0.48883212 -0.033715494 -0.008670058 -0.46077028 0.04834836 0.2078632 0.019363236 -0.20708871 0.35809606 0.22906803 0.15060797 0.47204086 0.020019332 -0.0631751 -0.5608711 0.028704211 0.46782565 0.20142893 -0.55091053 -0.354602 -0.3594239 -0.101918206 0.5772134 -0.066337146 0.2966741 0.1047499 -0.3722421 -0.34323436 0.03187508 -0.5775656 0.21623817 0.10643047 0.040981412 -0.06980933 0.019826673 -0.38277167 0.011493143 0.13801995 0.091133624 -0.4182837 0.5777417 -0.33764097 -0.60600156 0.12531061 -0.29617435 0.15369363 -0.13896495 -0.36500838 -0.31897634 -0.20933941 0.06536918 -0.2301169 -0.23360333 -0.69597274 -0.25262612
674 -0.19477227 -0.20512015 -0.12880164 -0.20831932 -0.040037345 -0.057856563 0.25666326 -0.29752034 -0.2548581 0.58475137 -0.23088087 0.40478873 0.027626099 -0.51305455 -0.06692406 0.42360562 0.13192445 0.47681892 -0.5786886 0.8215385 0.5544652 0.3215894 -0.10374189 -1.1593635 -0.26568645 0.3509731 -0.31303224 0.18542527 -0.003976457 0.23048998 0.33154887 0.023827814 -0.25303644 1.0712366 -0.04002241 -0.1964655 -0.095187575 -0.11363234 -0.15214923 0.006661353 0.4640771 0.27407444 -0.08212754 0.27912822 0.25230986 0.49648795 0.15474668 -0.3569626 0.3242459 -0.14416093 0.34602827 -0.40342143 -0.27098617 0.12852737 0.057629604 -0.032464556 0.3592998 -0.1487895 -0.053694773 -0.15210587 0.19598994 -0.10481719 -0.10761468 0.051571265 0.5795254 -0.48296598 0.091706425 0.2606126 -0.15370038 -0.26068485 -0.2224806 -0.20134676 -0.8818472 -0.082426146 -0.4425801 -0.17078784 -0.12936635 0.4223713 0.3059528 0.48164365 0.117943175 0.43519697 0.13872062 0.38067898 0.4167335 0.49363443 0.5279669 -0.37771404 0.32277536 0.27246487 -0.24765156 -0.29308268 -0.15777951 -0.18539079 0.10551116 -0.68454003 0.039279893 -0.3030729 -0.20980707 -0.3995228 -0.25113502 0.20222858 0.5186262 0.30164325 -0.642608 0.006375927 -0.34137958 0.18432297 0.20965517 -0.36596647 0.17495283 -0.2925116 -0.497457 0.6844552 0.05970074 -0.05843073 0.5931892 0.5102374 0.19448748 -0.007107683 -0.33204243 0.12444393 -0.14032567 0.26141927 -0.66692936 0.12210387 -0.103808574 -0.17877534
1434 -0.5353914 -0.07398351 -0.15112665 0.12334541 0.33047268 0.29171363 0.31462875 -0.5961052 0.21055336 0.06119014 0.015798042 0.114614025 -0.19776814 0.32899427 0.07240485 0.14432205 -0.47117788 0.56039816 -0.5714384 0.330416 0.85828304 0.073859915 -0.35035613 -0.01079203 0.16565673 0.55350083 0.109847896 0.4434395 0.66640246 0.32379788 -0.32353702 -0.04179191 0.85669714 0.6073047 0.48705906 0.14792386 -0.11908914 -0.23303825 -0.8051795 0.64280176 0.7578996 0.34395176 0.201969 0.08263895 -0.09306477 0.011748845 -0.3229703 -0.25141287 -0.12705983 -0.27169892 0.3596389 -0.02312901 0.6503682 0.09369554 -0.37527066 0.1184678 -0.091551214 -0.106851384 0.10807638 0.23936602 -0.7909627 0.16677171 0.3778324 0.021102468 0.2827288 -0.56708246 -0.102328025 0.26036623 -0.23220192 0.35465103 -0.39492494 -0.25351387 -0.7753145 -0.37745345 -0.4451171 -0.0013234138 -0.19949669 -0.36735153 0.46999413 0.24813187 0.03741864 -0.19187889 0.52925026 0.32019782 0.37693113 0.0044005327 0.18864807 -0.79735994 0.14100114 0.5350484 0.19568703 -0.008372613 -0.14261326 -0.36484328 0.060734913 0.13762434 -0.2062668 -0.017387379 -0.027789855 0.07739933 -0.3877254 -0.04612319 -0.28527817 0.11094398 0.4983551 -0.31688157 -0.3336908 0.3155514 0.08738548 0.32340094 0.14552952 0.36961073 -0.2863132 0.23394562 -0.27405652 -0.500374 0.29613814 0.1535517 -0.07139347 -0.18877113 -0.1370046 -0.44975597 -0.18319927 0.48507544 0.039107773 0.26436526 -0.12174695 -0.14987542
944 0.09637323 -0.11908761 -0.15063266 -0.13105428 0.2342084 0.16775636 0.8253258 -0.6832135 0.026135653 0.22968213 -0.27563506 -0.34312367 -0.44069356 -0.48255235 -0.03892958 0.45770556 -0.49373195 0.501896 -0.023275904 0.07822024 0.56846094 0.56557775 -0.27717963 -0.62181205 0.60659397 0.1669971 -0.51862526 0.14713755 0.660509 -0.7687937 -0.13354816 -0.5085621 0.15652111 0.34861144 0.29656973 -0.036786485 -0.29996237 -0.49857837 -0.42595536 0.118582666 0.36641818 0.29407528 -0.1781156 -0.010572626 0.07149339 -0.30950618 -0.486607 -0.022512687 0.2734124 -0.33910245 0.42276728 -0.34589154 -0.6292226 -0.08556014 -0.4230046 0.1722851 -0.017259559 -0.21352227 -0.19245926 -0.017630909 0.05303187 -0.5362838 0.7593405 0.17778955 0.68308365 0.18483143 0.068174794 0.21097878 0.170107 0.25553915 -0.7034931 -0.16982828 -0.680924 -0.33888113 0.033909872 0.11445391 -0.27737355 0.088480204 0.053655256 0.4868156 -0.4303471 0.33231452 0.15769218 -0.24546696 0.3454964 -0.046536457 -0.40562123 -0.49267575 0.16489746 0.28871575 0.19163997 -0.6280401 0.037717395 -0.27537253 -0.15974969 0.6666815 0.0678862 0.40913472 0.102139264 -0.32509872 -0.7526939 0.1681339 -0.38424945 -0.03611629 -0.072276875 0.1241005 0.060999043 0.17793551 -0.22133406 -0.35943294 0.32330507 0.12642346 -0.3238697 0.27947104 -0.33382574 -0.65796036 -0.19065918 -0.39566234 0.14956686 -0.038349796 -0.30948058 -0.21555234 -0.02688301 0.15928991 -0.100372836 -0.32632905 -0.50621337 -0.18886633
314 0.32567176 -0.24131697 0.22589096 -0.23166634 0.12226229 -0.091963045 0.0852742 -0.29231387 0.03409925 0.10640388 0.23229396 -0.025159694 0.37555242 0.043232847 -0.082747765 -0.19235879 -0.5555687 1.0195379 -0.53579557 0.040658575 0.90742385 0.6716468 0.027671695 -0.21925594 -0.2740444 -0.05998364 -0.86432904 0.23707888 0.35274893 -0.14150895 -0.05623212 -0.06625886 0.31617102 0.21501265 0.42385307 0.15367986 0.22668572 0.31455505 -0.4748738 -0.20391406 0.5300207 -0.10499176 -0.047692996 -0.3805327 -0.10525856 0.1096455 -0.0071196947 -0.75254637 0.92412746 0.22341011 -0.22174664 -0.0549412 -0.1814195 0.22435418 -0.14331363 0.19938171 0.23302056 0.40236104 -0.8320052 0.06682667 -0.5844629 0.10133637 0.26573533 0.3705346 0.17185101 -0.18969338 0.28141817 0.17881285 0.369673 0.46256807 -0.48211104 -0.24849993 -0.47809458 -0.31581983 0.05625223 -0.3946161 -0.2827975 -0.090001665 0.24418437 -0.091696955 0.02414862 0.027607901 0.22720799 1.1910837 0.49537715 0.6074305 0.09905637 -0.28776595 -0.20259796 -0.20563418 0.4107592 -0.20452453 0.09936678 -0.058859847 0.33558694 -0.4957385 -0.46707034 -0.16940142 -0.36635837 -0.19215891 -0.46940318 0.09633241 0.0029255762 -0.44333217 -0.339759 0.14011903 0.6672793 -0.08224505 -0.099396154 -0.28130716 0.54589146 -0.13003314 0.077003025 0.40805405 0.012485738 0.034296412 0.17648192 0.5458109 0.5633081 -0.16133942 -0.031562377 -0.13408266 -0.41051933 0.021666141 -0.25467527 -0.06631555 -0.68567693 0.12217166
456 -0.06071801 -0.4039764 0.2880347 0.48191363 -0.35917705 -0.037741415 0.067340754 0.32361728 0.14977323 -0.17819811 -0.30451813 -0.47867733 0.4593658 -0.5332763 0.08836516 1.0562534 -0.30706978 0.23604646 -0.29265636 0.083575085 0.2797755 -0.061495207 -0.0042729634 -0.33295834 0.24420138 -0.05272968 -0.6423956 0.20239665 0.6626871 -0.5128262 0.34344995 0.20221533 0.5541847 0.41518804 0.36118212 0.13908425 0.28966227 -0.24613939 0.45967954 0.255934 0.19523358 0.19593412 -0.7719794 0.747212 0.75626343 -0.0012541062 0.29063898 -0.32551518 0.23961239 0.32725874 -0.22794247 -0.59982526 -0.23627761 -0.030733353 0.13863163 0.31207514 0.24287434 0.3468762 -0.06233404 0.03428042 -0.5712133 0.22125083 0.45609102 -0.39287135 0.5511563 -0.018750032 0.37765616 -0.072697446 0.18508394 -0.30688968 -0.3883572 -0.35729828 -0.610268 0.2717786 0.031118885 -0.60385245 0.051668376 0.12433114 0.2871073 0.6478662 0.21598932 0.09042046 0.1621316 0.22999153 0.02332699 0.31253648 -0.21591616 -0.85824573 0.27515352 -0.23765498 0.35278094 -0.047835127 -0.34080145 0.21099089 -0.37898338 0.15834683 -0.5083635 0.24049029 -0.26242894 0.0088083455 -0.42755955 0.068048805 -0.73478734 -0.0800454 0.047299445 0.07519033 -0.3424426 0.55692035 0.068556786 0.11794656 -0.1846872 -0.34098068 -0.07349078 0.31437746 0.15735215 -0.23247476 0.25999257 0.16447966 0.08857246 -0.34473097 -0.037208762 0.12211495 -0.73892415 0.50735575 0.0030281197 0.30995238 -0.34002715 0.10578044
