1901 128
148 -0.04207318 -0.3387889 -0.1537165 0.55614775 -0.06906916 -0.2250736 0.23758951 0.069012664 0.020914512 0.3102766 0.1551044 0.006407892 0.24344712 -0.12773393 0.27215093 0.36167616 0.072701186 -0.17031048 -0.44309637 0.57246834 0.6620698 0.70576143 -0.33010742 -0.054813277 -0.44760287 0.26118308 -0.0011468969 0.4443483 -0.12792782 -0.042955905 -0.4323073 -0.14351644 0.50062144 -0.104615316 -0.45303792 0.02763626 0.6574422 -0.1800421 -0.120440125 -0.5313411 0.05576186 0.17310934 -0.30867857 -0.2500227 0.44079384 -0.25190938 -0.041457936 0.5788888 0.30374908 0.07776319 0.00092388026 -0.15007025 -0.14678909 0.5866555 0.17902845 -0.6392229 0.1818102 -0.37800786 -0.22493081 -0.2670883 -0.3692036 0.20671906 0.029289814 -0.5659662 -0.022003675 -0.28978857 0.44492304 0.010366606 0.039936896 0.09340652 0.029771524 0.3692962 -0.7248446 -0.36504036 -0.147944 0.17507558 0.43482777 0.13329902 -0.26011518 0.21865736 0.15685804 -0.18077892 0.3974235 -0.18674883 -0.08295052 0.14580394 0.36923712 -0.31040275 0.03847993 0.30788487 -0.13244826 -0.4224992 -0.21453334 0.1251941 0.58417237 0.43166795 -0.46387056 -0.052438807 0.14250256 0.19758981 -0.5735805 0.34716117 0.08504871 0.4249763 0.20504013 0.01905208 0.31662717 0.58231604 -0.52242213 -0.47772667 -0.04157591 0.07677877 -0.70327157 0.46959242 -0.25561264 0.057011772 0.35843208 0.6077564 0.019541556 -0.09356661 0.2621963 -0.7153215 0.109442964 -0.4800703 0.01748867 0.12250384 -0.89411825 0.49638677
313 -0.094730966 -0.30542827 0.08119068 -0.10873064 0.38367444 -0.52950764 0.22900383 0.24110737 -0.2043645 0.6203359 0.83797026 0.01748987 0.39124903 -0.006422855 -0.44101027 0.18146259 -0.07936598 0.21888545 -0.39052346 0.53556114 -0.004019929 0.25252908 -0.48533165 -0.4782676 -0.30872288 0.07421497 -0.4415956 0.37891826 0.4987994 0.08856663 -0.16948786 0.12728558 -0.093885966 0.44225138 -0.056631744 0.3284654 0.78676677 -0.28406847 0.13819715 0.08668962 0.8876144 0.43311906 0.56923294 -0.3649259 0.2847299 0.3546329 -0.5022533 -0.18536 -0.050264698 0.045971375 0.45321652 0.018583333 -0.15709786 -0.0050411155 -0.17622742 -0.29260105 -0.097909145 -0.35530865 0.20666589 -0.32519987 0.01702721 -0.04585594 0.0144175105 0.2500978 0.5906384 -0.4098496 -0.1705338 -0.020840311 0.06566697 0.03384101 -0.18940073 -0.4923772 -0.76361495 -0.28309503 -0.01848095 0.34158635 -0.16529202 0.19760749 -0.2695619 0.80985206 -0.40966666 0.09611898 0.018656958 0.2861323 0.47958523 0.22250272 0.5714089 -0.61668885 -0.1707302 0.41997334 0.094979435 -0.4011219 -0.34395337 0.23526432 0.21940781 0.2069955 -0.4158931 -0.24955566 0.093023576 0.056920297 -0.33218172 0.1811264 0.50801736 -0.22149377 -0.51853424 0.10517739 -0.07036806 0.106621824 0.24545361 -0.42157477 -0.05387423 0.38299555 -0.10511191 0.35997522 -0.0992517 0.5072317 -0.25299612 0.39544708 0.23157293 0.13339521 -0.672632 -0.22399935 -0.24142013 0.09197463 -0.30111265 0.03048751 -0.6288651 0.20143387
914 -0.045211602 -0.48752925 0.2682291 -0.058286194 0.4504114 -0.7776905 0.12357004 -0.14406258 -0.26895738 0.69944894 0.49611822 -0.046670284 0.15239963 -0.017599745 -0.36166483 0.30790174 0.031478617 0.19854814 -0.25286803 0.2852233 0.2380405 0.28127012 -0.38915083 -0.55030215 -0.50821525 -0.0629285 -0.3774409 0.09192896 0.5339326 0.07582708 -0.41642442 0.3067781 -0.13851283 0.5339806 -0.10080314 0.2884778 0.8724435 -0.37221158 0.06385468 0.14647269 0.7526881 0.3342313 0.6769675 -0.46669978 0.36274567 0.4988453 -0.46730345 -0.08652649 0.03153456 0.12937851 0.43563882 0.102324456 -0.16346656 -0.0017027287 -0.15669954 -0.349794 0.09592414 -0.17259233 0.2013313 -0.18904285 -0.1096107 0.0057107005 0.04546717 -0.08065565 0.7404019 -0.43760732 -0.04678653 -0.095078394 -0.08459147 -0.23765415 -0.115178935 -0.2882423 -0.73338073 -0.18830916 -0.26190734 0.167765 -0.10279943 0.2537115 -0.24913767 0.6946497 -0.27904034 0.13027644 0.22646214 0.22670826 0.3725878 0.26934046 0.54124284 -0.7490947 0.14609961 0.61885774 0.1553031 -0.26728904 -0.46452233 0.2057488 0.42334318 0.23529148 -0.36217302 -0.3705874 0.034067325 -0.14232005 -0.48421484 0.34044072 0.3584088 -0.24833325 -0.42545033 0.06828083 -0.010950867 0.07660078 0.1967916 -0.355958 0.016569877 0.33811072 0.1826735 0.4478964 0.036924355 0.18113732 -0.32063234 0.3114331 0.21828648 -0.011053362 -0.63792694 -0.39102045 -0.051480167 0.14679082 -0.37724528 0.050356016 -0.606052 0.0934961
1873 0.10070612 -0.5473372 0.16553235 0.035857346 -0.01343562 -0.73832107 -0.013766067 -0.016414769 -0.1492781 0.4209193 0.45755225 0.058477316 0.43081844 0.1270818 -0.30607045 0.30045578 0.13967161 0.23324816 -0.35904804 0.22546954 0.22424905 0.45878598 -0.43538165 -0.67553455 -0.43786386 0.24065502 -0.43973306 0.07228944 0.53265184 -0.013490362 -0.5584093 0.12844816 -0.15721565 0.4072446 -0.20869488 0.074717134 0.91918075 -0.39158338 0.024543324 0.35851893 0.60417855 0.41788223 0.37385783 -0.6243215 0.31879795 0.16777396 -0.6076505 -0.16028805 0.15585387 0.1416936 0.2719827 0.0041746176 -0.38324445 0.25702092 -0.20244052 -0.2496501 0.12616903 -0.041644275 0.06138413 -0.2703021 -0.038149435 0.015400633 -0.13953441 -0.09962779 0.7359881 -0.50469285 -0.002804026 -0.074672274 0.11353338 -0.3472567 -0.1475234 -0.22942355 -0.8775626 -0.43601936 0.00316202 0.20144343 -0.22860439 0.17950046 -0.19293933 0.3571607 -0.48657286 -0.13463448 0.3765725 0.14827272 0.09251811 0.33421373 0.55142033 -0.7051667 0.26992336 0.55604416 0.20908134 -0.33430648 -0.53550315 0.37392613 0.51051164 0.11027985 -0.15115176 -0.45160967 0.0128253605 -0.24581394 -0.49880463 0.46032074 0.2349349 -0.12692478 -0.4091464 -0.06143461 -0.11399063 0.3139707 -0.035266504 -0.31283045 0.08369998 0.23124562 -0.059508067 0.5665096 0.05997638 0.032725345 -0.19842695 0.21883245 0.16937687 -0.21606974 -0.5183159 -0.61768603 -0.13457006 -0.13497363 -0.32742143 0.040364627 -0.4158895 0.16953942
458 -0.16115697 -0.44458753 -0.15900995 -0.38089016 0.1394086 -0.40731266 0.06965539 -0.25987172 -0.4413033 0.26070914 0.053734645 0.2830827 -0.04745614 -0.2704968 0.39201292 0.13141058 -0.23215495 -0.26811227 0.30343348 0.39225128 -0.14786363 -0.24550466 -0.39012042 -0.09368355 -0.19984326 0.36644092 -0.038578995 0.5452716 0.29292673 -0.36972 -0.36955428 -0.22563495 0.17243664 -0.19021869 -0.29388842 0.34334913 0.28013125 -0.12488813 -0.010330167 -0.1757603 0.24561031 0.57410324 -0.43134847 0.2055122 0.5625156 -0.6175092 -0.16044712 -0.070212066 0.28211457 -0.45810145 0.28135204 -0.34111023 0.705127 0.07309231 -0.19361502 -0.1981085 -0.14709726 -0.63569415 -0.022930225 0.26542175 0.016083686 1.0251994 0.28427684 0.25848815 0.13189644 -0.054977305 -0.05278164 -0.2187335 0.6000258 -0.59672123 0.58814913 -0.35149503 -0.19064124 -0.51459575 -0.03276106 0.4138599 0.016694725 -0.16128765 0.29570177 0.8593776 0.039699107 -0.6395359 0.4687367 0.23039263 0.25369453 -0.37736848 -0.2604543 -0.42144656 0.5827079 -0.54437286 -0.019020181 -0.40839827 -0.005427087 0.13370618 0.46115878 0.24727313 -0.44524065 0.14862882 0.6129865 0.29270405 -0.1514142 0.5389028 -0.36266512 0.09443817 0.75303 0.07095376 0.29302353 -0.25821227 -0.022115093 -0.08078743 0.5031445 -0.1592434 0.031131173 0.468734 -0.12525529 -0.143198 -0.08346848 -0.08471777 -0.1436519 0.33514228 0.12468414 -0.4705489 -0.5817311 0.07932861 -0.26585898 -0.46565568 -0.55929273 0.07246787
460 -0.34933406 -0.62351364 -0.07056493 0.070979506 -0.08542148 -0.044187866 0.024278482 -0.21282896 0.0053314953 0.7552413 0.28395557 -0.048963267 0.17726544 -0.73688626 -0.2753798 0.4240824 -0.5258061 -0.14183725 0.08935513 0.043559693 0.15048233 0.5434209 -0.47916782 -0.43702745 -0.80937624 0.22173242 -0.044656828 0.16357912 0.32390824 -0.37293214 -0.49995 0.06326955 -0.09003542 0.097746454 -0.30756304 0.00469592 0.13283637 0.46664035 0.021770172 0.19417773 0.32605505 0.38565287 -0.39836246 0.088940054 0.21692996 0.23998745 0.3537385 -0.26581404 -0.31958908 0.036957465 0.020430394 -0.22583367 -0.15998761 0.37956607 0.12913032 -0.33834618 0.43532628 0.024344381 -0.12433722 -0.013926397 0.19335577 1.0725324 0.6240336 -0.5826063 0.45352522 -0.55459005 0.24583273 -0.5410979 0.5025207 -0.29479173 0.1406298 -0.078223005 -0.7110887 -0.41106433 0.2676039 0.7881284 0.34074447 -0.1357596 -0.25031182 0.40953296 0.76233745 0.21488115 -0.1136628 0.19662924 0.13213065 -0.0084839845 -0.009376412 -0.6855857 0.22055748 0.04041516 0.15186404 -0.33481818 0.5737487 -0.10550254 -0.34673795 0.20872785 0.438056 0.45428333 -0.19024031 0.3187476 0.19875656 0.09782018 0.113767505 0.13620186 0.15717715 0.04508075 -0.7692609 0.45100603 0.16081138 -0.35042682 -0.20208614 0.39649156 -0.2261297 0.102117226 -0.36073375 0.22666687 0.19613093 0.24425249 -0.05693993 0.4597603 0.27781314 -0.20865634 -0.6777118 0.40956607 -0.20419616 0.25762218 -0.21744464 0.16021568
642 -0.044178028 -0.45269266 -0.10106993 0.551251 0.013691283 -0.13568528 0.1361874 0.065020874 -0.043253224 0.07886946 0.20146571 0.10061177 0.21353206 -0.016991159 0.04404659 0.5348862 -0.061318282 0.027995754 -0.31327328 0.7295425 0.6170447 0.65141016 -0.42891034 0.055961512 -0.53552985 0.25080386 0.15438677 0.43049848 0.13855077 -0.07006982 -0.5473999 -0.1545798 0.30624172 -0.10687348 -0.36310792 0.14595732 0.8525196 -0.19933797 -0.16221566 -0.4658958 -0.15391926 0.43244818 -0.2746971 -0.3196883 0.3080019 -0.2743746 -0.041923687 0.54323626 0.41542184 0.22306487 0.12360667 -0.35637832 -0.16388372 0.42103854 0.23627692 -0.379694 0.35529462 -0.20393698 -0.07105318 -0.31642205 -0.22494695 -0.026918342 -0.006775051 -0.6343008 0.23997743 -0.13501795 0.25128326 -0.053459052 0.085135914 0.20244978 -0.03417506 0.2908373 -0.8065709 -0.2357099 -0.18644333 0.2861853 0.37068957 0.23588386 -0.2700732 0.08973797 -0.029324323 -0.21531166 0.42655692 -0.1971672 0.06617755 0.1699383 0.44313085 -0.35181078 0.23055403 0.39760593 -0.08862355 -0.4119374 0.1503315 0.19361122 0.8162334 0.37664098 -0.48964027 -0.06843863 0.25871423 0.17779513 -0.61399984 0.6101354 -0.045362867 0.2023698 0.12293301 0.022456938 0.2155203 0.6879235 -0.5445762 -0.4445021 -0.14284642 -0.008007009 -0.47365138 0.35501757 -0.08841865 -0.14536807 0.21838517 0.422398 0.04690738 -0.10826992 0.24462321 -0.8465167 0.1979264 -0.1358547 -0.028948715 0.13880631 -0.85264283 0.7486721
621 -0.19577599 -0.2351711 -0.2544086 0.04260074 -0.10565488 -0.88138837 0.069669314 -0.20959459 0.4076023 -0.28164187 0.2821447 0.18118286 -0.14796932 -0.7003987 0.1907103 0.5045647 -0.937693 -0.003829413 0.33497903 0.87139535 0.12276343 -0.08734614 -0.058543593 -0.3502758 -0.66955966 0.024750073 -0.4771015 0.19157739 0.21872331 -0.38168538 -0.24247277 -0.16299841 0.76450557 -0.20419998 -0.22760057 -0.21801265 0.3516091 -0.13972127 -0.07577211 0.25548878 0.79514724 0.40566996 -0.2169536 -0.001906934 0.97312534 -0.24768022 -0.008151304 0.07412791 0.089287944 0.105457254 -0.1619663 -0.23197 0.00176538 0.20754063 0.021460673 -0.21823853 0.24250475 -0.112927034 0.076547466 -0.117492 -0.55189794 0.106672 0.35042223 -0.19144593 0.16671485 -0.15843616 0.62204957 0.08230008 -0.31448764 0.10219352 0.08397098 -0.6577315 -0.10562111 -0.2319685 -0.22119233 0.3222695 -0.03186984 -0.39039966 -0.0110937 0.068914026 0.30413398 -0.46438822 0.627801 -0.07740169 0.5633482 0.067729644 -0.11387757 -0.3449443 0.37863213 0.06956216 -0.6192305 0.23499013 0.44863352 0.031153785 -0.26526627 0.3046419 -0.18158291 0.74754333 0.31162053 -0.6541279 -0.61649024 0.33528918 0.13889523 -0.024995176 -0.43285358 -0.045227136 0.042142212 -0.0003212052 -0.07534971 -0.22606027 -0.25252435 0.6207217 -0.39109418 0.287693 -0.460213 0.3015738 0.6722905 0.16170193 0.22740221 0.06114756 -0.59799993 0.12136182 -0.1547183 -0.14708152 -0.5710138 -0.21360508 0.19839725 -0.12063395
1655 -0.062151186 -0.1623557 -0.017090999 0.3247233 0.42868537 0.09712613 -0.24690653 0.09839071 0.2692608 0.26849392 0.06802333 -0.0170785 0.5123742 -0.8054512 0.12120391 0.54882205 -0.2718735 0.25136486 -0.45831645 0.7280934 -0.18856308 0.45698914 -1.0868771 -0.028988577 -0.43888277 -0.32441077 -0.49065194 0.9064188 -0.18360066 0.016787391 -0.44087675 0.036206365 0.34397486 -0.15291628 0.20381737 0.08295411 -0.54941154 -0.23789284 0.1882636 -0.036212854 0.20628364 0.41243654 -0.8457933 -0.3395057 0.40452164 -0.5200591 0.13848764 0.1219695 -0.36226416 0.37777877 -0.065141216 0.124444515 0.39262405 -0.4299603 -0.022575665 -0.06859992 0.3376186 -0.27721223 0.08650934 -0.14157689 0.015356254 0.4818325 -0.27383184 -0.37596667 0.6396005 -0.68934786 0.19256899 -0.54527086 -0.044262383 -0.0032734158 0.065828 -0.3775917 0.057225093 -0.22563168 -0.15335126 -0.019843334 0.4255554 0.1784577 -0.021675643 0.54862386 0.00031793432 -0.2162155 0.30720392 0.10855262 0.48178238 -0.07254001 0.08815165 -0.19013923 -0.033835184 -0.34632427 -0.45677185 -0.38579023 -0.13213807 -0.81733084 0.57266736 0.32875746 -0.020474711 -0.4186961 0.30129042 0.13601325 -0.6723546 0.046010222 -0.36774755 0.40875694 0.15899423 -0.41449586 -0.4449183 -0.14145717 0.010826641 0.14629275 -0.12918079 0.4244558 0.17194153 0.3698549 -0.24434243 -0.1868826 0.47281653 -0.17065012 -0.08342342 0.068381265 -0.37222496 -0.42287788 -0.22643955 0.36356595 -0.31994835 0.58085907 -0.13644229 0.03781828
190 -0.15052941 -0.3451187 -0.44331798 0.6991621 0.036847953 -0.18485561 0.21653672 0.10278382 -0.010210962 0.45078772 0.19991964 -0.22197671 0.3975911 -0.097561784 0.30962685 0.25598082 0.0042690877 -0.26687974 -0.6603925 0.5936906 0.6597807 0.6808849 -0.3018621 -0.0037788542 -0.41779047 -0.008669697 -0.019265667 0.43511024 0.17936747 -0.08265302 -0.3795054 -0.1514873 0.3540177 -0.15415439 -0.46725696 -0.04390751 0.5987321 -0.12319686 0.015332275 -0.4088798 0.030237246 0.11603196 -0.34268525 -0.3511565 0.42064893 -0.13490373 0.21033257 0.71864206 0.49713284 0.038357012 0.037256803 -0.3918315 -0.025088077 0.31228867 0.18501581 -0.6059313 0.36185664 -0.49091163 -0.33197746 -0.26920077 -0.66937053 0.33108371 0.14857438 -0.76353174 -0.013769967 -0.2401609 0.38496524 0.09325041 -0.10838953 0.104900725 -0.08285383 0.15905762 -0.7157501 -0.1891171 -0.2153092 0.10247482 0.50106424 0.16500002 -0.42360878 0.43801832 0.2010869 -0.039592933 0.1990842 -0.25863317 -0.20090798 0.051928803 0.57094663 0.062337294 0.20044714 0.0035409892 -0.09432647 -0.52827895 -0.24920218 0.06117319 0.4621459 0.44268012 -0.37151742 -0.039428283 0.20919243 0.26419252 -0.47423393 0.42396855 0.33957273 0.46438432 0.06889858 0.20955667 0.4071454 0.6681057 -0.48012462 -0.43421483 0.07921158 -0.0022948137 -0.68894774 0.4306182 -0.18797264 -0.006466067 0.24446775 0.5950016 -0.121122554 -0.19952157 -0.112489 -0.5296037 0.01658118 -0.48158243 0.017802624 -0.0049400586 -0.82448757 0.43256965
454 -0.5367478 0.0166546 -0.36484337 0.67513156 -0.06615278 -0.28000307 0.025512855 -0.39773947 0.060407884 -0.14439765 -0.22231162 -0.24823016 0.49476305 0.1623327 0.24521524 0.35807043 0.13682316 -0.340293 -0.09901763 0.15482223 -0.52391076 0.4142084 -0.6041327 -0.23040195 -0.2781395 -0.12844501 -0.28805366 -0.17841512 -0.30673125 -0.072021514 -0.25941378 0.27932847 0.32815927 0.016148826 -0.3103637 0.25851047 -0.13103545 0.06764814 -0.5724154 -0.17990068 0.0019314176 0.6310751 0.018107854 0.11796665 0.23575674 0.18721156 -0.1293295 -0.39062285 -0.0958422 0.5168985 0.44917506 0.041877884 0.22250538 -0.15702783 -0.053768583 -0.39981738 -0.35689837 0.012394873 0.43606368 -0.26841328 -0.18967538 0.2343572 0.39353374 -0.19970487 0.21960987 0.046681233 -0.22519012 -0.30572432 0.32237437 -0.124127306 -0.20460655 -0.63221425 -0.81271017 -0.2235094 0.17208946 0.43035406 0.34555024 0.42947865 -0.362422 0.6655349 0.306751 0.12657942 0.6222047 0.20094024 0.653165 -0.57418084 0.41448903 -0.47362867 0.58946455 -0.3983752 0.048148535 -0.83006334 -0.022560494 0.2827106 0.40612942 0.28654352 -0.27954495 0.052061785 0.33895102 -0.26808786 -0.16888039 -0.23872627 0.18160795 0.45825693 -0.5007469 0.21457952 0.1052371 0.12726496 -0.051157977 -0.059746064 0.20996034 0.47622883 0.2968188 0.2588017 -1.0049285 -0.6828768 0.45862654 -0.30175766 -0.20001355 0.3845976 0.2445792 0.050685894 0.089662455 -0.23292777 0.18166503 -0.35049567 -0.23916312 0.40107173
292 0.22547455 -0.1267001 -0.22511354 -0.27614155 -0.27034163 -0.6015947 -0.022677656 0.31763738 -0.040523127 0.47498804 0.2513964 -0.060383037 0.34952426 0.11027984 -0.08282443 0.3157551 0.2604099 0.10816461 -0.12675615 0.058209263 0.74659944 0.17418069 -0.53194326 -0.48698583 -0.8794315 0.25417003 -0.5240223 -0.035331585 0.4762281 -0.27861753 -0.490434 -0.094859645 -0.12004729 0.4416565 -0.484476 0.1595652 0.5700126 -0.32286954 -0.34565443 -0.08269024 0.82232225 0.25964803 0.22438996 -0.5335211 -0.01762402 -0.14730172 -0.686188 0.18789136 0.2301056 0.28033993 0.30880305 -0.061241947 -0.28852588 0.2780692 -0.23420161 -0.42583373 0.29457134 0.2221608 -0.00076541124 -0.31770635 -0.23548698 0.26849 -0.2993632 -0.32174066 0.60575086 -0.82734483 0.43162096 -0.45622113 0.3993984 0.065562055 -0.038280126 -0.013806692 -0.6610473 -0.14569198 0.17038298 -0.060316183 -0.14277124 -0.038956556 0.05074126 0.28011692 -0.43765837 -0.47044605 0.5368641 0.10540056 0.08059594 0.05817376 0.4791862 -0.81891245 -0.06862551 0.5315148 -0.29637027 -0.16431272 -0.54185784 0.21382716 0.5617559 0.33328545 -0.10347485 -0.20508204 -0.24504651 -0.056317985 -0.43099973 0.22076944 -0.030281145 -0.18669952 -0.39144126 -0.05413117 0.0033086806 0.27579048 0.19678934 -0.13919407 -0.15578316 0.31547293 -0.054775715 0.6305038 -0.4196323 -0.28092557 0.020921921 0.10318374 0.14665177 0.07247151 -0.28031847 -0.45413885 -0.21106507 -0.5095383 0.026540888 0.16607042 -0.49712235 0.24135752
1197 0.50806457 -0.09573783 -0.1468411 0.4564436 0.3105384 -0.12880932 0.48310143 -0.058208402 -0.20778838 0.44785455 0.27324155 -0.37704378 0.3088232 -0.21876945 0.16893622 0.2133355 0.56510216 -0.47047627 0.11195397 0.45076212 0.8396999 0.459585 -0.23298895 -0.28517073 -0.7388029 0.028909134 -0.20789242 -0.3176751 -0.056037128 -0.49932975 -0.22820032 -0.14881101 0.023181252 0.09776396 -0.61189926 -0.1573255 0.26429072 -0.5084152 -0.11575204 0.11184738 0.6444675 0.09208326 -0.20061563 0.026546245 0.27528232 -0.42156425 -0.41570964 -0.0732725 0.1986366 0.20611005 -0.032106914 -0.28213826 0.47743222 0.5871452 -0.115615666 -0.47042567 -0.11623053 -0.0063622436 -0.22728795 0.08643498 0.122258775 0.43537357 -0.41646913 0.41754255 0.13413459 -0.9666775 0.35401222 -0.1938652 0.2747973 -0.49440435 0.38404524 0.35793638 -0.19628341 -0.08442586 0.26815 0.40173844 0.010837257 -0.58012295 0.25494167 0.63478374 0.1686547 -0.40948278 0.2828197 -0.24605186 0.27877876 -0.20040472 0.087697946 -0.33919752 0.1280369 0.23451214 -0.39018255 -0.877554 -0.26378044 -0.06817266 -0.040564597 0.6204248 0.20960599 0.319518 0.2045206 0.45115995 -0.36314282 0.08095675 -0.006905254 0.22691739 -0.648177 -0.4496182 0.024246385 0.0597489 0.8450161 -0.06894957 -0.20375226 0.28469843 0.14034115 0.37878338 -0.7937059 -0.29408982 0.41880703 -0.24370967 -0.002113722 -0.074638315 -0.50468564 -0.32405004 -0.019853415 -0.21052305 -0.29527575 0.17453109 0.19215026 -0.025068067
134 -0.29481775 -0.26510587 -0.61968535 0.50012577 0.40653938 0.10381214 0.41795015 0.37280026 -0.19011945 0.5033957 0.03260792 -0.74087906 0.5731218 -0.70446265 0.37765875 0.2752206 -0.03456385 -0.44426006 -0.5295836 0.7090004 0.3937661 0.59472156 -0.4865333 -0.18320863 -0.31445423 0.08997326 0.16285293 0.37724358 0.04500806 -0.039097738 -0.22117844 0.03382132 0.198487 -0.33592555 -0.60691303 0.12518224 0.18714304 -0.32837173 -0.20123337 -0.4267838 0.63790137 0.084605634 -0.17794874 -0.37438947 0.37927118 -0.3923523 0.266841 -0.11391252 0.61573845 -0.1450765 0.22773163 -0.47148344 0.26915365 0.6200601 0.6540562 -0.6575224 0.5363628 -0.25272194 -0.2061969 -0.121858284 -0.6587865 0.2833461 0.190905 -0.41242257 -0.2513621 -0.33015 -0.19564648 0.08100193 -0.12986504 -0.08019104 0.054709494 0.5025377 -0.8372759 0.16272935 -0.5199938 -0.12075502 0.3706817 -0.0078275455 -0.07699881 0.84161556 0.2578814 0.029774232 0.09661699 -0.24459146 0.08852607 -0.23865633 0.3726886 0.01500628 0.11259193 -0.3131949 -0.11288694 -0.4757667 0.25573877 0.1942905 -0.11978255 0.36397955 -0.2834618 -0.18620552 -0.05543872 0.12945093 -0.39324144 0.4973339 0.23522195 0.558551 0.1731902 0.020706564 0.05490935 -0.027634822 -0.09955051 -0.2687846 0.11401412 0.39437744 -0.4762167 0.53028804 -0.33402953 0.26476195 0.5480652 0.5342548 -0.13121183 -0.2749431 0.006870396 -0.48541677 0.39567602 0.12439676 0.083140835 -0.109102905 -0.25411388 0.4362724
1209 0.16622129 -0.22195095 -0.063632846 0.18494199 0.37640953 0.5582177 0.37424237 -0.40370578 -0.1638816 0.54958814 -0.17470556 -0.07300389 0.3730761 -0.6730155 0.26769343 0.4580759 0.24037172 -0.30051234 0.013167923 0.20341246 0.19410262 0.11155844 -0.35286894 0.77212065 -0.7688174 -0.20076036 0.17052484 0.070608586 0.40781543 0.3102848 0.011940981 -0.18849604 0.23887135 0.44051298 -0.024715 0.14537235 0.25812405 0.073231176 0.072809085 0.3600563 0.45265403 0.6326048 -0.29538095 0.21708615 0.660161 0.07848376 -0.42458344 -0.06956309 0.019369194 0.20641941 0.3219467 0.3826637 0.58126134 0.12951823 -0.50420564 -0.42356417 -0.2842476 -0.21355547 0.0724907 -0.29764402 -0.27703106 0.12806219 -0.06501433 -0.03234975 -0.14341871 -0.4461837 0.07792088 -0.312246 -0.16485932 -0.6484633 -0.067094184 -0.13960007 -0.19175859 0.16108584 0.024299314 1.2404058 -0.044302475 -0.19935565 -0.82743025 0.42032668 0.18583168 -0.5623277 0.3155535 -0.46126848 0.25752226 -0.04630227 0.38742232 0.08797733 0.16496517 0.31493494 -0.08334872 -0.48085442 0.06811742 0.11988289 -0.18769303 0.061353467 -0.38678682 0.19771959 0.20953278 -0.28854474 -0.09815886 0.6613941 0.26797146 0.22927298 -0.08585576 -0.19238135 -0.05250456 0.09158475 0.14359272 -0.053412847 -0.12751426 -0.26043612 -0.28117228 0.6432513 -0.6503139 -0.1817744 0.54898506 0.020430308 0.6138463 0.33507556 -0.16997337 -0.5995351 -0.6530884 0.38025358 0.012616973 0.26878622 0.120347105 -0.19753423
191 -0.19350027 -0.4863081 -0.40700567 -0.07974601 0.021339351 -0.6198799 0.5150506 -0.33307686 -0.06281794 -0.07259081 -0.21420893 6.113577e-05 0.06869589 -0.32813647 0.14306638 0.4402247 -0.8307053 -0.3549711 0.055298332 0.6296969 0.058615807 0.32729325 -0.3826345 -0.12455511 0.15872245 -0.05994315 -0.26524913 0.31979707 0.31586498 0.1424495 -0.5505672 0.18260455 0.025039505 -0.18649423 -0.3284669 -0.17966697 0.3215707 -0.18652913 -0.14582458 -0.34896183 0.5014411 0.11471686 -0.30945706 0.2686658 0.80021304 -0.0625634 -0.22917697 0.23918451 -0.05884553 -0.3390075 -0.051995486 -0.24832125 0.28117573 -0.19649166 -0.3096785 0.31430212 0.19241413 -0.24606249 0.100016244 -0.29882666 -0.5591427 0.6437483 0.39634755 0.23900883 0.28015086 0.023345059 0.050332204 -0.11657903 0.6941544 -0.26816556 -0.1000596 -0.022371598 -0.81941026 -0.021019647 -0.23768808 0.20665362 -0.065621234 -0.11658543 0.3758875 0.5792282 0.13300695 -1.0846913 0.49720764 -0.057911977 0.31715393 0.02680715 0.050947696 -0.63463163 0.5244626 0.28423983 -0.27175283 -0.17866424 0.40317693 -0.6164778 -0.19942454 0.3602875 -0.3001191 0.43351308 0.0626033 -0.10585569 -0.22404651 0.4127102 -0.6088815 0.23536862 0.45619062 -0.2901257 0.2647673 -0.2638352 0.026558815 -0.0016700953 0.49705207 -0.1719732 -0.41732252 0.031489108 -0.64838773 -0.15823585 0.29965833 -0.41086522 0.24506077 -0.0032887624 -0.5257289 -0.38393247 -0.63127065 0.13747433 -0.25451946 -0.5048971 -0.5534368 0.19257769
820 0.03738397 0.17609245 -0.403287 0.045438506 0.48831177 -0.3117172 0.07655492 -0.2657603 0.009515473 -0.16987209 -0.58818746 -0.4484369 0.071388945 -0.30534667 0.25856003 0.41175348 -0.42709315 0.16337392 -0.1121931 0.41965836 0.72568774 0.18865816 -0.3753515 -0.24484172 -0.5974891 0.3606892 -0.18390046 0.3285034 0.54637307 0.03659762 -0.43310586 -0.5725134 0.33858007 0.069985166 -0.27911872 0.41070253 -0.41607517 -0.43902063 -0.26712987 0.18499003 0.34610665 0.5160737 0.057799622 -0.47523057 -0.0034494475 0.2951857 0.18710913 -0.19456919 -0.13294384 0.010741734 -0.12263457 -0.019097783 0.09162699 0.6399617 0.008829484 -0.34663412 -0.2590677 0.17074235 -0.46270165 -0.26300868 -0.057441197 0.8656309 0.3657743 -0.015460993 0.38157418 -0.14046298 0.012822483 -0.23751128 0.68570507 -0.22792974 0.005951863 -0.17082638 -0.46905968 -0.5841373 -0.012340019 0.30500022 0.16303347 0.11761163 -0.510214 0.48118067 0.55090415 -0.20599972 0.7095301 0.29083163 0.69672036 0.09704244 0.09891398 -0.5499189 0.23611203 -0.58324194 -0.14943396 -0.8415562 0.0029403502 0.048382502 0.30068564 -0.18362698 -0.5771551 0.30655742 0.51480526 -0.81058407 -0.6319174 -0.07042003 0.14998004 0.18248601 -0.619 0.040224753 0.1069584 -0.011109817 -0.7038913 0.12980922 -0.42841434 0.3836425 -0.3713135 0.095747516 -0.30679262 0.44503516 0.58932066 -0.05958359 0.18324071 0.39613268 -0.48852092 0.3008072 -0.012118712 0.13363442 -0.25169268 0.050456863 0.19708782 0.2860465
305 0.039112847 -0.34891742 0.016043028 0.31368357 -0.11147724 -0.20204581 0.19681124 0.011832768 -0.27914098 -0.012359076 0.18902892 0.39239407 0.12110723 -0.09158365 -0.0858161 0.4931557 -0.07795447 0.2680385 -0.31055155 0.74698424 0.51115185 0.5763085 -0.52878994 -0.083907016 -0.43761012 0.50515693 0.07837648 0.61333174 0.016966416 -0.23708884 -0.6558088 0.0644453 0.19497204 -0.086721264 -0.17767806 -0.028243955 0.87985784 -0.2057296 -0.24825314 -0.37037435 0.02703247 0.53158116 -0.1939046 -0.61462677 0.69526434 -0.24448472 -0.15766245 0.45123863 0.1646121 0.2703867 0.072468385 -0.48222077 -0.1386768 0.4058382 0.061708964 -0.09495293 0.25323167 -0.47341335 -0.12298027 -0.31728303 -0.03047099 0.1263524 0.07433144 -0.44226602 0.18434514 -0.09129773 -0.05834701 -0.23262157 0.14216834 0.12259992 -0.16276255 0.24693632 -1.0875453 -0.19766355 -0.12597851 0.12141949 0.4046422 0.30467847 -0.45574766 0.051929884 -0.19788785 -0.43206418 0.47674525 -0.09656777 -0.1339417 0.15031317 0.2839573 -0.4421859 0.09103835 0.5964535 -0.21071264 -0.62458223 0.3781562 0.23992842 0.8429465 0.21957734 -0.34320346 -0.087140724 0.11532566 -0.013504005 -0.28003967 0.5794124 0.07317647 0.3910255 0.078467675 0.30129933 0.2692383 0.4241936 -0.55974185 -0.32136497 -0.014790074 -0.14299674 -0.5338238 0.34795004 -0.1924611 -0.056309737 -0.15555757 0.481249 0.046074327 -0.19011033 0.14434505 -0.6621662 0.07090928 0.1650634 -0.1409965 0.17809545 -0.70632774 0.47971225
518 -0.41853902 -0.4565157 -0.7360321 0.37230664 0.08535602 0.08996073 -0.17625606 0.0055189547 -0.21576539 0.78412944 -0.13084969 0.1117886 0.5423914 -0.25894082 -0.006790131 0.224667 0.12639143 0.046714988 -0.19449171 0.6277254 0.2511103 0.6590655 -0.26117116 0.06359254 0.11254885 -0.047127537 0.03212158 0.27208155 0.22389486 0.07779729 0.06358996 -0.4212283 0.51529264 0.21280724 -0.32283837 0.62701505 0.0033161843 -0.006514834 0.6089745 -0.3710937 0.018173149 0.1370337 -0.26604766 -0.015006221 0.09717121 0.14219183 0.14297308 0.6070807 0.5044311 -0.18658717 0.19712766 0.13564533 0.38910246 0.68931013 -0.23097496 -0.19064343 -0.19245815 -0.62513155 0.08390391 -0.21700329 -0.05014638 0.69240814 0.4233025 -0.6539835 0.31947714 -0.112084515 0.23160776 -0.3045541 -0.16204587 -0.611738 0.07234507 -0.19478992 -0.4169506 -0.085901454 -0.29065537 0.1365018 0.49953577 -0.6859058 -1.0162588 0.30249557 0.15786399 -0.279698 -0.08658299 -0.13115145 -0.03237067 0.13898957 -0.021089343 -0.09750481 -0.06889042 0.1430775 -0.38241673 -0.34658694 -0.37001777 -0.26339626 0.058849197 0.51237845 -0.47284937 0.5857975 0.40685192 -0.18687467 -0.31003374 -0.012079953 0.3959253 0.29635036 -0.3444972 0.1039011 0.17042461 0.15691192 -0.2582284 -0.22792234 -0.14198449 -0.045334358 -0.3125586 0.36146086 -0.5392876 -0.050726723 0.29159272 0.024604727 -0.054869868 -0.01895611 -0.57209617 -0.16640814 -0.86604446 -0.4397476 0.0850103 -0.17256513 -0.21771006 0.28927523
2 0.07057941 -0.34786105 -0.23873965 -0.542138 0.14778581 -0.4456297 0.29824272 -0.670204 -0.62216496 0.07543917 0.045606125 0.15460798 -0.108791426 -0.27598605 0.18413177 0.2865219 -0.2360963 -0.12745547 0.10940253 0.56014055 -0.12248849 -0.07592345 -0.38315934 0.06445976 0.086206816 0.2196093 -0.0071790526 0.59357524 0.21829268 -0.059276085 -0.45315805 0.08675879 -0.0011442024 -0.15711132 -0.45635557 -0.074461944 0.46612906 -0.091373384 -0.3253731 -0.20986754 0.19897525 0.17875613 -0.4808199 -0.014090593 0.68380886 -0.61901206 -0.11199592 0.17591888 0.36189455 -0.19845273 0.09184995 -0.6691022 0.40022078 0.07320049 -0.096555844 0.25134313 0.0655989 -0.53129894 0.07895983 -0.13664642 -0.080760375 0.8383393 0.32306388 0.24296276 0.14440261 -0.09449044 -0.12072183 -0.48391828 0.7180202 -0.33728594 0.34437546 -0.2254056 -0.9088292 -0.3686272 -0.100628056 0.46652502 -0.004931014 -0.029759863 0.2105731 0.7311647 0.06965186 -0.7870388 0.45213354 0.11613069 0.34328586 0.19313578 -0.21882266 -0.49349132 0.5261097 -0.21367882 0.01855865 -0.5447009 0.1430662 -0.3038875 0.26203686 0.3611821 -0.27805462 0.14315672 0.2926546 0.10090365 -0.08189447 0.457047 -0.5853265 0.094489455 0.47427398 0.108497135 0.2721907 -0.4496645 -0.0968273 0.026287012 0.5758173 -0.19537999 -0.22874579 0.12215375 -0.27418 -0.27151325 0.20637012 -0.27594268 -0.15912196 0.2605694 -0.0673389 -0.56238824 -0.7030039 0.08721043 -0.37679625 -0.4329364 -0.72475886 -0.034936912
136 -0.036347866 -0.44863147 -0.3703929 -0.06690101 0.052193366 -0.61242104 0.6249429 -0.5000147 -0.3056773 0.06465203 -0.15912761 0.09940225 -0.088012576 -0.4172091 0.08184639 0.40506718 -0.719674 -0.22484562 0.06285911 0.6480228 0.16343476 0.04306319 -0.2826421 -0.08616582 -0.036089074 0.1823781 -0.38306525 0.55635107 0.3113799 0.091958754 -0.5446536 0.12565517 0.094233885 -0.25704247 -0.29752493 -0.079584666 0.32461256 -0.13842948 -0.10489999 -0.18536839 0.4971815 0.07416899 -0.33741102 0.35869494 0.6671563 -0.12598842 -0.11841387 0.4576906 -0.083159134 -0.44089717 0.115063384 -0.41688898 0.27678126 -0.26895347 -0.28279814 0.29715544 0.18698095 -0.23412624 0.14814584 -0.3269867 -0.2761338 0.5997746 0.4059868 0.19456099 0.1664773 0.034575228 0.01300753 -0.20406693 0.8255532 -0.11050249 0.010271589 -0.0066600046 -0.80652404 -0.015958335 -0.14571097 0.37787068 0.059221253 0.024456257 0.24846622 0.48780525 0.16547003 -0.951645 0.39908737 -0.107826345 0.35301474 -0.0011070234 0.09241177 -0.6057295 0.5524062 0.062264938 -0.18792093 -0.35478032 0.3536778 -0.6498248 -0.14883208 0.6018555 -0.27864686 0.29536873 0.20543723 -0.09115564 -0.16869329 0.54769677 -0.6407771 0.10200057 0.42954755 0.027782094 0.37629014 -0.34728295 -0.0244084 0.052568927 0.45024666 -0.26225242 -0.32769477 0.15158193 -0.44849905 -0.37193146 0.32380834 -0.42957148 0.15075527 0.117021635 -0.35239562 -0.4211927 -0.67223275 0.20578666 -0.18592295 -0.5135522 -0.7791785 0.12763958
542 0.3582322 -0.21520206 0.017422318 -0.24689758 -0.17789568 -0.73086166 0.064439364 -0.10407737 -0.048355907 0.4887181 0.6084585 -0.087382175 0.38115785 0.10012759 -0.19195765 0.4795455 0.17080683 0.24233256 -0.4365832 0.01331041 0.52485573 0.22964354 -0.44633585 -0.84095883 -0.65690297 0.30968192 -0.4361127 -0.10004561 0.53333455 -0.18901493 -0.3907274 -0.025331913 -0.078445785 0.54580784 -0.3142935 0.18819337 0.7703851 -0.19676122 -0.0676595 0.1407323 0.70209706 0.35182357 0.24267684 -0.81796235 0.20400846 -0.2834654 -0.7326895 0.047618773 -0.03513691 0.121350415 0.38368583 -0.04970965 -0.19904561 0.16608289 -0.15967056 -0.2495824 0.23865199 0.24849258 -0.06379261 -0.21412423 -0.1764299 0.019377358 -0.18870775 -0.26569563 0.72552013 -0.6570871 -0.031928718 -0.30485937 0.21951796 -0.09663803 0.020676361 -0.04644675 -0.72986835 -0.34126037 0.08295153 -0.011135618 -0.18277298 0.14470905 -0.124528676 0.3649143 -0.29620188 -0.46935925 0.55493706 0.24017826 0.15987508 0.11097388 0.47130218 -0.8040781 -0.08264706 0.51152045 -0.26061258 -0.36740988 -0.7003125 0.27824897 0.29213172 0.25101358 -0.11063556 -0.25617185 -0.20731375 -0.2279501 -0.39758238 0.15127741 -0.052271526 -0.33075285 -0.4214679 0.03449569 0.039637335 0.36581802 0.091917336 -0.22794059 0.04958666 0.21575856 0.027350483 0.5651547 -0.3312184 0.023549084 -0.20545542 0.23453635 -0.047104422 -0.0071580666 -0.40688998 -0.51829755 -0.28667808 -0.18954761 -0.053413294 0.14594351 -0.66194904 0.3018953
509 0.57126063 -0.13198382 -0.12677233 0.4656 0.25275397 0.15038787 0.51270574 -0.29007414 0.052450333 0.5804218 0.24658443 -0.22826467 0.21579917 -0.31894904 0.26068354 0.58026683 0.62172747 -0.43691623 -0.06985529 0.7161824 0.4829521 0.30187887 -0.075428426 0.17454915 -0.67462206 -0.019699723 -0.18800418 -0.3651094 0.07118227 -0.07674802 -0.3410395 -0.17780295 0.07387154 0.40936485 -0.33150062 -0.079904065 -0.042114977 -0.5041044 0.090862244 0.0912305 0.20892777 0.43838325 -0.50971365 -0.19836035 0.37723252 -0.2230287 -0.13035882 -0.058925297 0.1925715 0.15971401 0.0023785485 -0.2796796 0.38676563 0.47096336 -0.08900594 -0.523084 -0.24051575 0.013987153 0.13148944 -0.0419676 0.39122653 0.22387996 0.099166036 0.31234083 0.36112195 -0.65707505 -0.03374205 -0.19398256 0.052746918 -0.4380785 0.34402213 -0.0796465 -0.1756907 -0.30697078 0.28776276 0.5846766 -0.5790952 -1.0953835 -0.37218618 0.5744594 0.11392804 -0.46322212 0.4178075 -0.4530072 0.3295421 -0.19715267 0.30097076 -0.15675466 0.55207306 0.6237926 -0.17056002 -0.9716492 -0.31042778 -0.35527208 -0.118650064 0.17397064 0.29927385 0.6292514 0.2215317 0.24873337 -0.13642621 -0.07456387 0.1728748 0.21377425 -0.33387527 -0.19996598 -0.007143707 0.007739028 0.6770088 0.07282024 -0.30763587 -0.066120945 0.004088428 0.5430175 -0.7554326 -0.24558455 0.62090564 0.018029863 0.12072496 -0.013329485 -0.66842103 -0.57743967 -0.3727401 -0.026709711 0.020346051 0.09673046 0.036047325 -0.17327645
445 -0.28946555 0.20056427 -0.523202 0.57810056 -0.12299821 -0.2546073 0.23582627 0.0050021964 0.0870791 -0.12307312 -0.39364633 -0.2583379 0.3977043 0.3493543 0.26122436 0.55235136 -0.004584722 -0.041228086 -0.08338421 0.114028215 -0.23782863 0.31911677 -0.75160694 -0.28403586 -0.4305944 0.1699692 -0.30553424 0.15141007 -0.22021446 -0.004466254 -0.5735012 0.1263946 0.37836525 0.042233948 -0.052901153 -0.13542087 -0.06367247 -0.17363633 -0.4839578 -0.274082 0.0076069576 0.8178985 0.26096907 -0.25083745 0.29778567 0.2037311 0.2885123 -0.26627058 -0.08910112 0.34717372 0.12106007 0.18496709 0.7116269 -0.013033748 0.006881777 -0.5380661 -0.16351004 0.2392161 0.35097614 -0.029602725 -0.39013466 0.49396825 0.5742812 0.27298358 0.2212795 0.042152703 -0.117858924 -0.22317319 0.4494057 -0.39965615 -0.42347598 -0.42602238 -0.6819346 -0.34596705 0.27223408 0.29185855 0.32546908 0.0026273353 -0.40438592 0.42136744 0.26667497 0.14086118 0.42778176 0.13247329 0.587904 -0.43875057 0.55137116 -0.5072944 0.24542694 -0.48149627 0.09063214 -0.98877704 0.025057375 0.09487193 0.20422088 -0.14352348 -0.14679527 -0.027731122 0.33652356 -0.72610605 -0.49319997 -0.111251585 -0.11593773 0.18170938 -0.28433236 0.18646623 0.28779188 0.21916279 -0.16183238 -0.14447117 -0.14521202 0.497615 0.018852688 0.058841676 -0.843867 -0.3589218 0.3113399 -0.33888644 -0.36665237 0.7831119 0.21562669 -0.16768941 -0.08850325 -0.2004369 -0.0049740723 -0.16977517 -0.17594571 0.4010505
243 0.35240173 -0.13522482 -0.041033965 0.5221225 0.31499195 -0.014455524 0.5916514 -0.20515785 -0.12230096 0.45683235 0.19444698 -0.20109202 0.085549496 -0.37042323 0.22972442 0.5318703 0.7381291 -0.49634004 0.027745377 0.61564875 0.6468869 0.38022333 -0.11156261 -0.09978608 -0.9454415 -0.041404754 -0.27586013 -0.15216692 -0.13886756 -0.21584561 -0.14507136 0.021791397 0.12822421 0.22168753 -0.49393776 -0.18465132 0.083603576 -0.51326865 0.12238612 0.04403648 0.3977599 0.27088928 -0.30046442 -0.13131556 0.22388487 -0.14733796 -0.19621769 -0.06040788 0.20787889 0.046278924 -0.0862372 -0.072203904 0.49791384 0.49306384 -0.17588742 -0.5366503 -0.2201523 0.20909485 -0.1238398 -0.0022659018 0.31658456 0.3745771 -0.16251501 0.49241728 0.3925935 -0.7074466 0.23398261 -0.15056805 0.08255195 -0.4880169 0.4233895 0.3499658 -0.16901141 -0.222565 0.31343392 0.48176673 -0.2800072 -0.9300308 -0.036627963 0.6020472 0.19697608 -0.38013604 0.38123897 -0.2527586 0.37830544 -0.15142733 0.24406974 -0.40550742 0.5895073 0.33132824 -0.19860077 -0.8272747 -0.26699397 -0.107142255 -0.034710735 0.49786925 0.17097907 0.43302482 0.066536956 0.3443982 -0.2704477 0.08179425 0.101663016 0.30221987 -0.44830602 -0.5652177 0.052714173 -0.05015398 0.70042664 0.027098382 -0.19197395 0.1097655 0.2470066 0.4364917 -0.8356017 -0.36838624 0.44388255 -0.08414797 0.1699414 0.0034065347 -0.421353 -0.5342412 -0.29099607 -0.17535384 -0.15501647 0.12513694 0.2092842 -0.2218554
422 -0.16824888 -0.22938345 -0.3200789 0.12427081 0.05620644 -0.7208862 0.089823365 -0.03575858 0.29677317 -0.2392724 0.3080352 0.23804057 -0.10399662 -0.6665751 0.24242836 0.5865175 -0.8598835 -0.0020206203 0.49468818 0.645702 0.15697472 0.03457206 -0.06791025 -0.27154404 -0.53676516 -0.12721004 -0.43037122 0.2263936 0.24325037 -0.39446643 -0.25777692 -0.14876746 0.6640236 0.04872474 -0.3456484 -0.22735262 0.20540805 -0.15093479 -0.017098011 0.2679412 0.7375244 0.27602285 -0.116860986 -0.13044225 0.949411 -0.28617617 0.15182774 0.0298856 0.30579174 0.01775576 -0.13888186 -0.15888852 -0.102767095 0.1764765 -0.1491206 -0.38552684 0.20245439 -0.17703201 -0.069034256 -0.2896693 -0.6583829 0.203509 0.36228254 -0.21135902 0.15691252 -0.16630109 0.46841687 -0.07124572 -0.22503239 0.005590294 0.12748495 -0.47057316 -0.12868229 -0.31302732 -0.36651155 0.2930007 -0.32712045 -0.22118318 -0.22785099 0.0032720761 0.30711582 -0.46631223 0.71255875 0.011169421 0.60469216 0.10576756 -0.330395 -0.36139852 0.29930592 -0.08651419 -0.80845636 0.1557146 0.7662133 0.106718525 -0.20406964 0.34893075 -0.28192735 0.5608635 0.47816548 -0.7327617 -0.52739644 0.283476 0.049407687 -0.09246027 -0.49951035 -0.23788993 0.01894779 0.07871895 -0.12220331 -0.19578898 -0.3190774 0.9063347 -0.2214848 0.44387603 -0.41095155 0.4772558 0.64421767 -0.030816078 0.07122819 0.019816795 -0.61868787 0.1284028 -0.14038728 0.016605332 -0.27559325 -0.16891693 0.22722599 -0.017304434
816 -0.3347835 0.08345791 0.23891929 0.110848136 0.120927915 0.0058038924 0.27015093 -0.13476974 -0.07800949 0.10228513 0.27389503 -0.38203892 0.11046327 -0.43438575 -0.16073585 0.6614391 0.29882756 0.21656393 -0.27586794 0.30974633 -0.33247674 0.54128176 -0.30885673 0.17975792 -0.8352724 -0.5051366 -0.5171247 0.55714417 -0.37258968 -0.3506973 -0.18982747 -0.7139271 0.19521277 -0.057907972 -0.20796825 0.7372829 0.4084624 -0.20981961 -0.78849757 -0.29314184 0.5403442 0.09622318 -0.29161045 0.2190879 0.6360942 -0.33942893 0.011127355 0.078682505 -0.08906329 -0.36181965 0.28216347 -0.15539423 0.28920904 -0.5855098 0.06869334 -0.47317567 0.41368288 -0.25429308 0.13973446 0.06439865 0.28772962 0.98068404 0.44491553 -0.41722277 0.021039015 -0.3541756 0.50579345 0.07106009 0.052695546 -0.12775663 0.05899036 0.2151661 -0.39292458 -0.47595546 0.21718557 0.105755806 0.10463085 -0.25330308 -0.13910939 0.1252103 0.1339078 -0.34333974 0.25413376 -0.30503377 0.39893758 0.6693624 0.500298 -0.31018707 0.072315305 -0.035143904 -0.05933609 -0.5598242 -0.07139049 0.58164746 -0.06567202 0.19970849 0.06332236 0.43880847 0.08416178 -0.100219734 -0.5813217 0.08561267 -0.21346825 0.60883474 0.015146956 0.27767083 -0.11762856 0.1792181 -0.28359765 0.26812258 0.1370331 0.22478119 0.22630432 0.28546536 -0.2366462 0.09474252 -0.039547224 -0.36872408 0.6000458 0.2342962 -0.66888064 -0.21189749 -0.18283822 0.38456798 0.064662285 -0.5352098 0.24107927 0.80990726
34 0.09662141 -0.53264016 -0.19510281 -0.42932087 0.16747028 -0.6765394 0.19109686 -0.64746857 -0.8180467 0.03853925 0.1940464 0.14411713 0.0007246283 -0.28032684 0.26005936 0.26803553 -0.24956372 0.006851361 0.24179874 0.50378263 -0.18986279 0.07264225 -0.61019886 -0.035531025 0.06826669 0.30366433 0.09702071 0.4979442 0.28154412 0.00015431613 -0.29814434 0.15286557 0.21668252 -0.040243175 -0.20635705 -0.022516826 0.4502627 -0.31011555 -0.21508516 -0.010743344 0.20884392 0.2585352 -0.44709432 0.22675051 0.6102751 -0.7065415 -0.09350431 0.22337124 0.09660407 -0.12392636 0.29744968 -0.6775885 0.41960675 0.008306713 0.043517407 0.52024513 -0.0052549974 -0.42139083 -0.049928278 -0.21484874 -0.20943046 0.9328292 0.2793861 0.3517164 0.10526934 -0.0554735 -0.0843723 -0.42462698 0.63663065 -0.27661836 0.30892324 0.08166445 -0.81822884 -0.37513208 -0.11958751 0.35532516 0.08913652 -0.09560906 0.18759514 0.70466024 0.17184682 -0.82758844 0.41020972 0.21705095 0.46499524 0.2721876 -0.16507937 -0.5923363 0.4330242 -0.14035864 0.108615175 -0.64229804 0.37117732 -0.17972492 0.19364735 0.32073992 -0.4308606 0.10526947 0.33618465 0.094855286 -0.24967761 0.30369663 -0.51991117 0.04942538 0.34082136 0.091272295 0.16826147 -0.28208604 -0.18019044 0.05780876 0.5814406 -0.39270937 -0.041223798 -0.0032368475 -0.48704165 -0.31668118 0.16217864 -0.16293842 -0.051433656 0.045813337 -0.22266752 -0.5327134 -0.6115533 0.04134621 -0.21567863 -0.26089537 -0.69784653 -0.025281101
1679 -0.2816721 -0.430425 0.16777506 -0.13203615 0.50012034 0.20865358 -0.24071163 -0.2670225 -0.2147161 0.61390036 0.09302791 -0.235795 0.71364176 -0.21134561 -0.21183261 0.2675883 -0.45080918 0.55879235 -0.32311574 0.6304322 -0.1616109 0.00951128 -0.47887847 -0.6038894 -0.734813 0.3915405 -0.45405662 0.12362857 0.6672424 -0.15985553 -0.23838235 0.10914519 0.16020258 0.77047616 -0.2497577 0.17563155 0.2184231 0.04659376 -0.21157077 -0.0020593395 0.70517534 0.21031605 0.3644114 -0.68083614 0.22447918 -0.002165229 -0.13409995 0.17732342 0.13404335 -0.0008882046 0.21418728 0.020012474 0.17681819 0.314591 -0.4597673 0.03694983 0.19789992 0.0141776465 0.33092862 -0.5757411 -0.091095604 0.2856446 0.47879827 0.55800414 0.50693977 -0.21071503 -0.22955821 -0.10006527 -0.40555623 -0.49065733 0.035501245 -0.3793054 -0.8704575 0.31105387 -0.16530502 -0.009542561 -0.025037339 -0.22511134 0.03176502 0.30394593 -0.3811207 -0.21466419 0.5373554 0.38720882 -0.116981745 -0.00066192646 0.44511133 -0.7228012 0.29954794 0.34546894 -0.21716134 -0.1592393 -0.2549866 0.43074727 0.05350102 0.23823716 -0.030137666 -0.16051567 0.2531346 -0.45027968 -0.2570953 0.47083178 -0.1370968 0.21286917 -0.4192766 0.5452096 -0.4971934 0.2932793 0.11961605 -0.38120162 0.2996271 0.40723968 -0.11756384 0.62208 -0.16962877 -0.14230876 -0.30881107 0.18196495 0.25770506 0.1557195 -0.39198378 -0.30799845 -0.03399929 0.20166847 -0.08916526 -0.0071327444 -0.45121044 0.15532824
1534 -0.24752553 -0.060678944 -0.0073669846 0.12100079 0.42227134 -0.056550447 0.3188275 -0.4128921 -0.5141167 0.66852635 0.24014449 -0.7176462 0.7307717 0.12358839 -0.08854771 0.08468741 -0.2290349 -0.05384038 -0.38203922 0.6494479 0.28999957 -0.096723236 -0.7494354 0.10801032 -0.30342558 -0.28559324 -0.2801643 0.37222105 -0.20141181 -0.38269752 -0.15198758 0.48887146 0.4350734 -0.63565165 0.26103765 0.39146015 0.056184065 0.19968414 0.010082385 -0.5498027 0.2984342 0.96139795 -0.43230537 -0.33045757 -0.037101764 0.06187403 -0.11331234 -0.2956706 0.067601345 -0.29379967 0.6624295 -0.09820756 -0.09671545 0.33777437 -0.49230447 -0.37755486 0.35163653 -0.29412588 -0.46140146 0.2624467 0.037536588 0.2350894 0.4524119 0.18942337 0.019794825 -0.11946082 0.13154787 0.2618956 1.020871 -0.21593142 -0.40892833 -0.21494453 -0.20414698 -0.22016968 0.11608464 -0.18245947 -0.2106503 -0.46641633 -0.5801802 -0.13752957 0.013126623 -0.5247038 0.45099387 -0.30253646 0.15984699 0.44872832 -0.2929555 -0.61714363 0.021060497 -0.13573834 -0.21315058 -0.25359437 -0.12315752 0.24394178 0.11867623 0.05431805 -0.22440091 0.31971705 0.35158747 -0.00974788 -0.5316577 0.3429731 -0.26431552 -0.06686 -0.38856792 -0.111985974 -0.12672773 0.32755867 0.10616034 -0.2933699 0.5207951 0.33165434 0.03853793 0.0072687073 -0.11362607 -0.3995767 0.9515922 0.18013576 0.30376667 0.14045717 -0.27649507 -0.44626758 -0.32928613 0.04831254 -0.30961916 0.55239403 -0.21336178 0.20071568
594 -0.047778074 -0.18035665 -0.18565479 0.5291458 -0.0039571333 -0.49496818 0.30933443 -0.111465655 0.15335831 0.5294896 0.2150062 -0.3053071 0.06810895 -0.2551452 0.15758052 0.23714109 -0.014815282 0.41483688 0.22808431 0.3995094 -0.0965317 0.10118129 -0.27328312 -0.05667769 -0.5727999 -0.22527635 -0.25495294 -0.16751754 -0.18188721 -0.4172415 -0.27983323 -0.097100966 0.17755486 -0.022898609 -0.54024565 -0.380038 0.29635933 -0.013969739 0.32148552 -0.37758344 0.242647 0.097114965 -0.2788744 -0.060568098 0.62725914 -0.2635516 0.18900178 -0.31347474 0.08670977 -0.08550657 0.77957153 -0.20776846 0.17689501 -0.39634624 -0.46606314 -0.14869483 -0.19717668 -0.62541455 -0.033740584 0.013077106 -0.57099247 0.16391201 -0.31785738 -0.2744531 0.433506 -0.32209852 -0.08003025 -0.47409135 -0.20853344 0.38905308 0.4784607 -0.53182226 -0.64605993 -0.07821891 -0.27128154 0.03854962 -0.37460807 -0.6098682 -0.35996836 0.09833381 -0.078017354 0.050022047 0.8794314 0.20750792 0.33094928 0.35473958 -0.10225799 -0.5019045 0.50445753 -0.5259149 -0.5044679 -0.20055553 0.43757626 0.5958385 -0.034532916 0.6774913 -0.4766852 0.61362624 -0.029733509 -0.1639678 -0.30128875 0.7627265 -0.10575342 0.041723426 -0.1952758 0.46644223 -0.16074707 0.047046095 -0.040569548 -0.16771926 -0.39609727 0.53128195 -0.17130756 0.1460183 0.19397028 0.2318458 0.912602 0.037376773 0.008187399 0.033997715 -0.13579644 -0.28271917 -0.5164167 0.032013398 -0.4345263 0.5455929 0.22987024 0.10411274
244 -0.1259729 -0.18602645 -0.36191788 0.36373326 0.31114095 0.2256476 0.3835572 0.20307447 -0.12453019 0.5339321 0.030691769 -0.71179503 0.45141548 -0.5490681 0.24851815 0.16810296 -0.13736582 -0.38044125 -0.6464908 0.7687081 0.5444955 0.55407476 -0.47499523 -0.12304599 -0.37180215 0.024251176 0.11393399 0.12239511 -0.14084534 -0.05863264 -0.31163946 -0.13427608 0.27297068 -0.23287027 -0.6808582 -0.0013425621 0.12099443 -0.2568154 -0.20626955 -0.3080532 0.8025756 0.1901783 -0.3388767 -0.37164196 0.33144403 -0.4748615 0.17831333 -0.25596824 0.67933965 -0.19022052 0.17186698 -0.41584414 0.21354999 0.6969745 0.49887305 -0.78536075 0.4168671 -0.035479177 -0.07588976 -0.07422305 -0.5940385 0.22986433 0.080159724 -0.2070625 -0.13479704 -0.43039006 -0.11017107 0.16431697 -0.062341884 0.068702064 0.065362096 0.3325913 -0.9321683 -0.007834007 -0.49973986 -0.3108818 0.32128102 -0.14109379 -0.15864779 0.8822581 0.3298957 0.13576776 0.27415028 -0.19691813 0.06915913 -0.30033025 0.3453763 0.34007537 -0.10462338 -0.380996 -0.13605268 -0.35119694 0.1126897 0.11781056 -0.25926808 0.38868007 -0.11771883 0.118737034 -0.08589704 0.32385877 -0.4649429 0.389267 0.27290222 0.64794874 0.13801251 0.03152639 -0.032715674 -0.11320699 0.011062228 -0.25369626 0.12244986 0.44052464 -0.51160467 0.6497986 -0.4813247 0.13633306 0.48362225 0.35974413 -0.22470188 -0.18953294 -0.053766593 -0.6522448 0.33825493 0.13607784 -0.00033209697 -0.18440793 -0.3984699 0.45541322
1691 -0.10606864 -0.25712878 0.14987525 0.39534047 0.43685165 0.18784076 -0.2146365 0.041089226 0.16973123 0.16339876 0.17402735 -0.032345694 0.6113681 -0.71435946 0.12468784 0.5591687 -0.14444058 0.35536835 -0.4016444 0.71858066 -0.31590688 0.50770897 -1.1256247 0.19250041 -0.32403168 -0.15737149 -0.6366445 0.90479475 -0.087355725 0.005016679 -0.38840756 0.19845794 0.34112984 -0.19210184 0.13539086 0.15285887 -0.5152929 -0.12926394 0.034107115 0.015568381 0.15200834 0.46165496 -0.6932215 -0.26056933 0.55440515 -0.42728588 0.41145205 0.19707693 -0.33291885 0.0879902 -0.05690569 0.004688189 0.37877658 -0.19833268 -0.06707776 -0.074227005 -0.012010077 -0.27736336 -0.011196742 -0.29387084 -0.014405944 0.5566814 -0.2871853 -0.23654687 0.67074955 -0.8185555 0.09509306 -0.31041172 -0.19180058 0.0063205874 -0.020605944 -0.37923345 0.15655306 -0.10678996 -0.044883404 -0.060162596 0.578973 0.30814767 -0.023929728 0.5919139 0.022955751 -0.0499809 0.3324833 -0.08505895 0.6282341 0.11136503 0.08474952 -0.42306522 -0.051008437 -0.2960426 -0.65351474 -0.339053 0.0066340384 -0.67322046 0.4997359 0.39527473 -0.015866788 -0.32806838 0.26039797 0.15597512 -0.53139246 -0.10011871 -0.5025739 0.34805757 0.14971069 -0.56047493 -0.4618705 -0.050625082 0.075087324 0.23226844 -0.1368267 0.3720656 0.04168798 0.47164685 -0.18901399 -0.21393356 0.33203328 -0.08472687 -0.13525547 -0.1196382 -0.46438098 -0.3938366 -0.438214 0.4423822 -0.19097449 0.5007561 -0.02734985 0.21288922
1511 -0.15360653 -0.090189405 -0.15660177 -0.020618932 0.47103316 0.57571954 0.5019876 -0.5691396 -0.08644229 0.57670355 -0.028558081 -0.033914167 0.36452353 -0.58602524 0.24816656 0.35463467 -0.031313617 -0.18173209 0.06661755 0.12509552 -0.006364231 0.11109254 -0.40669575 0.3638287 -0.96804404 -0.1593588 0.140166 0.12666574 0.3627993 0.66964704 0.11411824 -0.3322183 -0.02526506 0.49878743 -0.08972963 -0.0049224775 0.29532215 -0.15605612 0.19366434 0.1907012 0.46671945 0.6468159 -0.3266195 0.07961516 0.5526704 -0.16418287 -0.42790234 0.065699555 -0.11274633 0.51202935 0.3517341 0.12601559 0.3096328 0.1545412 -0.5333745 -0.43364814 -0.16058123 -0.33390287 -0.16457932 -0.5752548 -0.5283463 0.085045666 -0.04830656 -0.15081404 -0.3630902 -0.3976151 0.15173358 -0.20651886 -0.19178025 -0.44798 -0.25652537 -0.24659735 0.00014044008 0.07562959 -0.13705415 1.1204703 -0.076630205 -0.15540393 -0.7192758 0.65361977 0.1323947 -0.49207053 0.22240394 -0.4812009 0.43249592 0.1590907 0.3462562 -0.04299448 0.11604488 0.29487026 0.057774182 -0.5684007 0.21315008 0.2193368 -0.18304397 0.068872 -0.22139385 0.10562819 0.3874521 -0.06011856 0.114676304 0.55670124 -0.1630502 0.2848963 -0.059853405 0.11996773 0.11713546 0.055486113 0.08234415 -0.2818895 -0.16196197 -0.34759995 -0.099874035 0.55678433 -0.50988084 -0.3709007 0.604096 -0.053244095 0.75328743 0.47049502 0.026153699 -0.5340766 -0.34554183 0.42828333 -0.2966649 0.29996756 0.24282773 0.13907969
1186 -0.24358337 -0.0676872 -0.25933036 -0.035238035 0.38267455 -0.05107901 0.39868692 -0.41409618 -0.47273177 -0.068281986 0.09226497 -0.045925204 0.17442332 -0.57758397 0.20376568 0.71101564 -0.1284563 0.107041925 0.2609066 0.952063 0.06602706 0.21232763 -0.9095358 -0.5437805 -0.5818677 -0.27129644 0.22779846 0.23632666 0.12662262 -0.16453509 0.23680283 -0.45298657 0.5861221 0.63125825 -0.28547406 0.020934036 0.43423715 -0.1347481 0.30765375 0.32566383 -0.024410902 -0.1796061 0.57402056 -0.13070974 0.250744 -0.46257475 -0.35516712 0.4600376 0.11134777 -0.28336596 -0.00031656495 0.013242984 0.4232066 -0.1446534 -0.3718444 -0.46458313 0.22967745 -0.5068065 0.2627837 -0.027846152 0.00023012215 0.2099734 0.12593348 -0.267972 0.5559866 -0.50856227 -0.121731415 -0.12440771 0.5908831 -0.44264984 -0.39005008 -0.47401884 -0.3247038 0.12095477 0.34620583 -0.17798476 0.16628303 0.13904873 -0.24129574 0.0400481 0.20373584 0.14029092 0.23938867 -0.11809778 -0.28514463 -0.07353587 0.52006054 -0.74735296 -0.12291066 -0.6938502 -0.21017092 -0.43555537 0.37060788 -0.06786288 0.19665591 -0.3441516 -0.2801079 0.48703662 -0.1086155 0.42863643 0.085581034 -0.011301161 -0.3245356 0.10780052 -0.30652663 -0.18422282 -0.06837748 0.12833542 0.18527786 0.43639708 0.008587077 0.17786363 -0.56192166 0.4204078 -0.5963909 0.10843347 0.7822667 0.43406928 0.07093925 -0.1808879 -0.07390221 -0.45212615 0.20294407 0.24146698 -0.3878916 -0.42557976 -0.10930266 -0.07793541
66 0.089461245 -0.47437772 -0.31284848 -0.16052054 0.20413339 -0.5597555 0.29252335 -0.5977899 -0.5322613 0.086080946 0.017146073 0.17991196 -0.26094878 -0.29466745 0.20325916 0.4040824 -0.52465534 0.0086748 0.14954504 0.59130293 -0.005326189 0.26181397 -0.49130347 -0.038515322 0.18343008 0.20886391 -0.12451247 0.5260707 0.3013773 0.03493236 -0.66240555 0.30887917 -0.03737299 -0.20546797 -0.33005726 -0.069272675 0.54936856 -0.2523518 -0.109965704 -0.26086858 0.3349316 0.23292388 -0.3452213 0.16710247 0.6909616 -0.45548275 -0.0859555 0.3195005 0.021099452 -0.24474192 0.16142236 -0.6934856 0.45094532 -0.06382382 -0.21484807 0.40234154 0.20544231 -0.5115042 0.019338714 -0.2696394 -0.22549233 0.7091235 0.35405767 0.25994423 0.05149095 0.13110939 -0.05613963 -0.22838703 0.772878 -0.34181973 0.21673718 0.027911998 -0.7977382 -0.32752058 0.119443424 0.43033326 0.10287339 0.06745665 0.30604511 0.56054217 0.19437706 -0.8506729 0.3796995 0.08295581 0.25124478 0.23093432 -0.14831309 -0.48394462 0.6161464 0.08099364 -0.0061835325 -0.40788272 0.2885508 -0.4313459 0.25986013 0.41138294 -0.27920535 0.20228578 0.15739691 -0.039891962 -0.129918 0.5218029 -0.62587327 0.20117214 0.42683062 0.08626931 0.31187516 -0.33815253 -0.07493162 -0.11475942 0.5763654 -0.27507582 -0.3055215 0.1938572 -0.60781294 -0.35460576 0.25261343 -0.23880419 0.0338635 0.0838643 -0.29312214 -0.36893252 -0.5800542 0.18417533 -0.2819265 -0.31078213 -0.5978191 0.21150124
475 -0.49183354 0.34885895 -0.32449272 0.084292956 -0.19977587 -0.2490467 0.17638321 -0.29494208 0.073712505 0.110702045 0.20066686 0.15861529 0.036995593 -0.37390026 0.38041496 0.3145829 -0.03677 0.26620492 -0.43931523 0.59646064 -0.23226587 0.11516262 -0.54783255 0.15445891 -1.0014338 -0.63054353 -0.25963274 0.56664866 0.058151767 -0.563286 0.0054684347 -0.2588389 -0.14013183 -0.020414598 -0.17591192 0.48337132 -0.031599265 -0.39236054 -0.24431515 -0.123936996 0.3411752 0.5280909 0.16726343 0.1211109 0.43557468 -0.138502 0.17554896 0.25486588 0.36898053 0.22016244 0.3650012 0.25254923 0.4635883 0.07267853 -0.40058246 -0.15214871 0.25672486 -0.31307662 0.2805285 -0.006578663 -0.07415529 0.20870072 0.08173415 -0.37085047 0.21569249 -0.44021937 0.011235795 -0.15104501 0.4001349 -0.41807604 0.5315807 0.68213654 -0.7058981 -0.21400951 -0.28957677 0.24714132 0.17382973 -0.28536555 0.09614103 0.20127779 -0.048481 -0.25692433 0.78328705 -0.4176959 0.51952404 0.8854296 0.08128609 -0.21422324 -0.07440293 -0.20027964 0.1255818 -0.45068207 -0.31217024 0.2978498 -0.14568645 -0.2447833 0.5054238 0.5384139 -0.20108691 0.26982844 -0.43245462 0.0287044 -0.0035166205 0.16686451 -0.25568837 0.5975926 -0.24620341 0.56036556 -0.20677672 0.55328715 0.2019811 0.32074854 -0.1469696 0.15414645 -0.30444396 -0.07653883 0.3155261 -0.08313695 0.39215887 0.060766403 -0.41010788 -0.20175649 -0.070922665 0.62944096 -0.17545077 -0.66628367 -0.3547599 0.41336855
135 -0.2597049 -0.6456034 -0.55440354 0.187142 0.11220886 -0.4741045 0.71798354 -0.22556995 0.14962412 -0.122845836 -0.12330209 -0.15570472 -0.03652013 -0.24648497 0.11767757 0.33135074 -0.8883473 -0.14993271 0.080337524 0.33061087 0.22557071 0.56609327 -0.4347746 -0.17113653 0.046316892 0.0020988737 -0.07606169 -0.030107053 0.28071654 0.40846187 -0.48799405 0.22485271 -0.09431318 -0.24563892 -0.50558245 0.058504537 0.14919241 -0.46236205 -0.11973424 -0.43743896 0.5447132 0.26294908 -0.5515003 0.33472326 0.67839265 -0.008828117 -0.0833169 0.48102623 -0.010389435 -0.39797446 -0.0060298387 -0.21019574 0.27149677 -0.26603767 -0.41672948 0.13154526 0.20932889 -0.209045 0.3436964 -0.16110197 -0.30117384 0.5674462 0.42540973 0.3698939 0.34255424 -0.05734265 -0.026124721 -0.3691548 0.52577776 -0.14410725 -0.38050115 -0.031617794 -0.9614112 0.057787135 0.13138837 0.39917126 0.042305507 0.19078529 0.36937705 0.57890165 -0.009158862 -0.677427 0.5250843 -0.30607677 0.31837726 0.04881508 0.47012928 -0.6643338 0.37361887 0.056727313 -0.23966037 -0.1045974 -0.09844161 -0.557563 -0.31502032 0.6612677 -0.18136734 0.3679421 -0.005893657 -0.11327161 -0.17745435 0.5797514 -0.7141018 0.033520408 0.2257893 -0.18768817 0.033529446 -0.25958297 0.20490573 -0.046525653 0.38308805 -0.052538607 -0.42181656 -0.11434846 -0.4085561 -0.1599699 0.56373626 -0.4876609 0.42224467 -0.13910739 -0.3496265 -0.1487416 -0.8504411 0.21621822 -0.19800587 -0.40810552 -0.6307789 0.040005162
67 0.27145386 -0.7213992 0.35476467 0.2346524 0.19349405 -0.3153611 0.14920677 -0.24681191 -0.6145824 -0.18764566 0.24883568 0.4807209 0.1592851 0.018507529 -0.16973643 0.5417836 0.12772058 0.065514125 -0.18196587 0.9504933 0.42712456 0.63109934 -0.6155319 -0.013906371 -0.32427278 0.3901758 0.084501036 0.5904961 -0.10820894 -0.16251993 -0.3493016 0.17500387 0.0374956 0.038383335 -0.018848835 -0.088301286 0.49957177 -0.44925103 -0.18964694 -0.32093444 0.06698272 0.560737 -0.33606827 -0.13946979 0.76961 -0.40029174 -0.017029723 0.39363268 0.398482 0.16766481 -0.09705166 -0.77326286 -0.06296022 -0.089768305 0.11646875 0.2469245 0.04020591 -0.40464857 0.08447098 -0.4836983 -0.1596658 0.5010643 0.1474678 -0.27919453 -2.6273134e-05 0.07242723 0.03563383 -0.16625294 0.46997002 0.08506747 0.025837088 0.11623094 -1.0292579 -0.45101672 -0.09204345 0.31341088 0.26350585 0.23611848 -0.12926987 -0.07440264 0.23733294 -0.4993264 0.46564677 -0.12303129 -0.023215128 0.4966982 0.31134695 -0.54546106 0.3928788 0.3931562 0.0728526 -0.8595306 0.7135426 0.036448333 0.5418084 0.40393743 -0.312689 -0.06655908 0.43478966 -0.02230051 -0.38431668 0.36321157 -0.2303542 0.19705103 0.1464722 0.31242153 0.28731775 0.2900779 -0.6667954 -0.32866377 0.1378988 -0.16343242 -0.33600834 0.13118544 -0.18003203 -0.123715356 0.1928591 0.20946613 0.040989336 -0.058257695 0.309013 -0.66716665 0.037060674 0.13920197 -0.22164392 0.24312934 -0.7697755 0.19055875
32 -0.32621327 -0.57402545 -0.34583429 0.071693376 0.006913401 -0.7029515 0.23604389 -0.25527787 0.25087264 -0.49094003 -0.29049772 0.16238636 0.16842282 -0.621561 0.22903469 0.7411303 -1.01073 -0.32826996 -0.036845494 0.8727796 -0.1365031 -0.000105911546 -0.28429627 -0.63725746 -0.13353528 -0.031517264 -0.77669394 0.42290428 0.41065612 -0.123611115 -0.45021078 0.18311903 0.15764515 -0.37177882 -0.12082988 -0.01651286 0.40660608 -0.014584492 -0.02705952 0.08986691 0.7666827 0.20415847 -0.19836386 0.12863703 1.0741274 -0.02311475 -0.094687015 0.07921744 0.31858352 -0.29394522 0.08673778 -0.3013003 0.085626654 0.2561029 -0.22252333 0.08949024 0.3005659 -0.089958265 -0.02459014 -0.33674434 -0.3508243 0.24374288 0.5974165 -0.06969284 -0.0125273885 0.02462839 0.5485381 0.17419302 0.0015260746 -0.06313133 -0.15269935 -0.1770236 -0.40474358 -0.04936896 0.06815117 0.08903102 -0.078905344 -0.19259699 -0.0069833533 0.17655618 0.13635468 -0.9541354 0.2249785 -0.13889083 0.61744475 0.14852977 0.30207035 -0.45780912 0.24788 0.27214408 -0.53789693 0.062013846 0.41557503 -0.45826703 -0.38889647 0.35563383 -0.15892129 0.78474337 -0.032535 -0.124626234 -0.24457557 0.40109083 -0.2893442 -0.090650745 -0.040593848 -0.25781375 0.20263089 -0.20401445 0.1848402 -0.14701968 0.055841394 0.383324 -0.4269948 0.29332703 -0.47741574 -0.13728537 0.6744112 -0.5062495 0.33228925 0.14190587 -0.48145384 -0.14481036 -0.38919032 -0.048465688 -0.32223052 -0.42322922 -0.14045866 -0.1254358
249 0.08637533 -0.66421956 0.36686555 0.25024974 0.047080804 -0.18572786 0.09119152 -0.08654506 -0.379512 -0.053572144 0.25175348 0.2994829 0.07629032 -0.1039632 -0.109643586 0.6354772 -0.001868005 0.31301817 -0.32351583 0.70900655 0.5276007 0.5332546 -0.5718209 -0.13893348 -0.20151167 0.4623506 0.14229219 0.64753 -0.13365592 -0.32544577 -0.5012966 -0.06111773 0.077104375 -0.05869962 -0.1097126 -0.06993388 0.7126837 -0.40584224 -0.27941862 -0.27633777 -0.21082033 0.5224937 -0.42585394 -0.51771873 0.646299 -0.5073555 -0.10467274 0.48949575 0.22951186 0.24922034 -0.042853065 -0.57998323 -0.17205118 0.19943056 0.16869149 0.11829854 -0.052231826 -0.37870312 0.040614605 -0.31946865 -0.1600018 0.26079604 0.11907946 -0.32497284 0.10997371 -0.048264667 0.024354784 -0.23880383 0.4027957 0.09939961 -0.032764133 0.26285148 -0.9456028 -0.22991721 -0.17430216 0.34083453 0.28953916 0.3539533 -0.35375354 -0.021757511 -0.11972266 -0.44624922 0.4607179 -0.05256374 -0.0053198026 0.28454846 0.33016628 -0.658688 0.41432467 0.4142688 -0.00020742348 -0.8977257 0.58179694 0.07484005 0.652806 0.4384366 -0.20920654 0.07560418 0.29602164 -0.12035492 -0.2828225 0.46411222 0.00022832627 0.24974437 0.057402518 0.19163918 0.50276923 0.58071554 -0.6384773 -0.41527122 0.04880507 -0.11429176 -0.46594837 0.24421735 -0.14680831 -0.010348139 0.16402708 0.23149742 0.05224634 -0.124688536 0.24640225 -0.8041628 0.11425983 0.28972742 -0.13146667 0.068847544 -0.7652431 0.25124642
3 0.32735103 -0.5840502 0.14783514 0.057847735 0.070780285 -0.7702829 0.26464424 -0.42621827 -1.0556238 -0.070264585 0.5431886 0.47030824 0.021724354 -0.26499277 -0.0048166206 0.24019668 -0.28864563 0.21667881 0.22510627 0.768418 0.34421563 0.44135225 -0.6702136 0.14428839 0.14221762 0.25544053 0.33944717 0.6953816 0.3947852 0.23094754 -0.3771758 0.16353035 0.32940277 0.065651104 -0.11708603 -0.3807678 0.3181963 -0.38478807 -0.3936022 -0.14844103 0.141456 0.53991497 -0.058773622 0.12058342 0.47664297 -0.40173018 -0.25062987 0.07153162 0.27461627 0.06376162 0.25537536 -0.30742192 0.15807466 -0.1867765 0.23174211 0.22533928 0.035303622 -0.57638276 0.051129796 -0.12221071 -0.21144076 0.7193194 -0.1645352 0.03385721 0.21869361 -0.049566876 0.1949522 -0.14472461 0.48755822 -0.045536883 0.18417406 -0.017834287 -0.81571424 -0.49299356 -0.10375538 0.2150519 0.24363133 -0.10609266 -0.011444922 0.50027174 0.15049736 -0.70369494 0.53030527 0.17555936 0.20469931 0.3510616 -0.042340733 -0.35930395 0.62758595 0.28580728 0.27197582 -0.7648679 0.4531733 0.08815897 0.11130369 0.26195216 -0.53064424 -0.0107618 0.36282822 0.11342737 -0.41034374 0.36103302 -0.14720838 0.4187116 0.2870038 0.06573957 0.051868793 -0.13826033 -0.429562 0.010744561 0.27946308 -0.25552607 -0.15687919 -0.0772046 -0.6411652 -0.22519302 0.18292217 -0.116014525 0.057119716 0.05087945 0.008833791 -0.5602489 -0.5087508 0.2385427 -0.2956668 -0.023879368 -0.8254787 0.159673
1295 -0.11045631 -0.22293863 -0.51614904 0.3066498 0.5124104 0.16128157 -0.12646124 0.27378792 0.05950059 0.6345489 -0.2777322 -0.49958813 0.31228393 -0.21415547 -0.4324212 0.8946468 -0.03958029 0.03116458 -0.118958816 0.9708922 -0.14045414 0.06261869 -0.39052957 -0.5946043 -0.6726712 -0.14768392 -0.59137756 0.13380608 -0.06316342 -0.024238395 0.36405128 0.11349392 0.52973795 0.12577291 -0.56632936 0.34859645 0.07339169 -0.31473628 -0.3401306 0.42236754 0.096272364 0.5255024 -0.37397286 -0.34867227 0.92293346 0.30801988 -0.3625167 -0.09707155 -0.06210395 0.05749825 -0.073662914 -0.41105166 0.5386501 0.021078952 -0.20909216 -0.30979466 0.22327034 -0.56910545 0.39254457 0.31067577 -0.42897618 0.89158213 -0.026316168 0.2293127 0.080780186 0.22789669 0.2930302 -0.47737646 0.22361793 0.1590156 -0.053744286 -0.17739446 -0.008493494 0.027340706 0.19478709 0.156584 -0.19003204 0.2553517 -0.5359641 0.55906796 -0.17013492 -0.50594014 0.3960917 0.29439333 -0.024495117 0.014293557 -0.47188565 -0.032449447 0.44337776 -0.019319389 -0.10122233 0.06938674 -0.049236294 -0.07978475 0.12281528 0.29092237 0.014323534 -0.07738795 -0.23819591 0.2814852 -0.41585734 -0.08822251 -0.17083597 0.03098451 -0.20644379 -0.26369756 0.051831055 7.9186604e-05 -0.5798689 0.0764703 -0.506162 -0.04319111 0.080934584 -0.21517695 -0.22885327 -0.4223075 0.46094003 0.32243544 0.1363959 -0.072070874 -0.023994656 -0.3826233 -0.054982718 0.40225765 -0.3233494 0.23318063 -0.6854237 0.26320454
731 -0.2926827 -0.7275594 -0.31295612 0.049799114 0.0723361 -0.81932676 0.19606271 -0.06346267 0.34494054 -0.5890398 -0.11613485 0.13829812 0.044038318 -0.7111376 0.07336978 0.6291709 -0.9263534 -0.36630443 -0.039497834 0.89951843 0.008681176 -0.059092864 -0.06212504 -0.5967972 -0.12353262 -0.08234187 -0.52205306 0.47826272 0.43527555 -0.3134712 -0.1856706 0.08638798 0.33786926 -0.25154185 -0.10298483 -0.08813009 0.23409247 0.07983419 -0.068210535 0.10288931 0.9143468 0.21837905 0.03558663 0.04595536 1.1887583 -0.07373585 -0.24417686 0.15866618 0.2885507 -0.08280861 -0.05692003 -0.3754035 0.13338901 0.24271455 -0.08804105 0.025293836 0.2342131 -0.14127606 -0.0029883522 -0.19397408 -0.5403307 0.18267743 0.61108136 -0.016109182 0.10687845 -0.2335018 0.5077405 0.12597153 -0.023935774 0.0834268 -0.16262375 -0.23376566 -0.32329476 0.087256566 0.0130748255 0.29190478 0.06440585 -0.1601565 -0.14913593 0.100689605 0.23310988 -0.9359758 0.32950747 -0.42229286 0.722362 0.17225645 0.16137984 -0.54554987 0.23503992 0.24895146 -0.5084131 0.056851577 0.3170864 -0.40897214 -0.4671966 0.34426582 -0.034424435 0.66019565 0.14946347 -0.34053192 -0.27998972 0.40830287 -0.1899701 0.05490932 -0.053119622 -0.3421106 0.17037505 -0.096254654 0.19726996 -0.17695196 0.10559874 0.6095813 -0.39125967 0.33484137 -0.35161552 0.084637515 0.684758 -0.31615818 0.12701756 0.11114833 -0.5558458 -0.042399283 -0.38448194 -0.15977162 -0.27354735 -0.25639316 0.14051986 -0.18930507
1147 0.50667983 -0.14681318 -0.10414165 0.22346315 0.35278708 -0.3399121 0.41312608 -0.12395907 -0.14548896 0.64025337 0.37920806 -0.3079124 0.3117212 -0.15644015 0.1878999 0.038865764 0.6780415 -0.4929073 0.20600544 0.48701015 0.7606428 0.031425677 -0.23001513 -0.72514504 -1.0442843 0.24534503 -0.5058975 -0.12661377 -0.04689017 -0.5575717 -0.1761582 -0.38338795 -0.3421335 0.24438387 -0.3703038 -0.23443499 0.17438889 -0.5629809 -0.22713457 -0.15259714 0.7574456 0.119450085 0.034349553 -0.09684498 0.15299715 -0.17009442 -0.2738025 0.05339081 0.22163539 0.5301202 0.07637816 -0.015623911 0.0007739922 0.20421533 -0.1086838 -0.3709881 -0.012803495 -0.20114264 -0.30240527 -0.19726665 -0.12062138 0.4386595 -0.31035858 0.17450537 -0.0876494 -0.8992924 0.53076655 -0.37994334 0.32164776 -0.4075623 -0.22691159 0.20699584 -0.19758019 -0.08438888 0.31215903 0.39862466 -0.051501784 -0.27338734 0.35774204 0.2479023 -0.16448727 -0.52841324 0.2876179 0.03732041 0.20205148 0.021228947 0.16941766 -0.5954301 0.21463662 0.29560295 -0.5710179 -0.7095051 -0.25435004 -0.16626544 0.31843546 0.5964669 0.18971226 0.13934316 -0.19591281 0.34559524 -0.16747886 -0.191757 -0.07721295 -0.090807036 -0.3682712 -0.14889134 0.37008864 0.21139781 0.42492998 -0.18797134 -0.036079258 0.39698595 0.29897356 0.44810817 -0.7468426 -0.3264445 0.4067941 -0.201749 0.04169857 0.033348072 -0.21421097 -0.47646978 -0.36426106 -0.2719553 -0.21864915 -0.013185449 -0.14652622 0.18772325
1613 0.068285115 0.056024756 -0.658577 -0.49100155 0.7415232 0.02993062 -0.38451615 -0.31595364 0.16881965 -0.19499867 -0.4812535 0.17794394 0.5517352 -0.13906543 -0.18790057 0.23316704 -0.052379973 -0.48671353 0.024141427 0.57209635 0.08534314 0.33025193 -0.34419426 0.006253321 -0.3595219 -0.0111193685 0.009909073 0.5321082 -0.3105375 0.0533822 -0.2279031 -0.07524231 0.087306865 0.18140921 -0.26420036 0.5524647 0.24380673 -0.7258312 0.23989601 -0.084452085 0.64781517 0.26116538 0.065178126 -0.13153586 0.53449696 -0.43073037 -0.25305992 -0.051000167 -0.35167634 -0.41019267 0.7748652 -0.27211598 0.17074157 0.34294066 -0.06737167 -0.30044338 0.30978155 -0.12370693 -0.6314844 -0.039796673 -0.4706031 0.28714183 -0.030322915 -0.41373882 0.43554318 -0.10050182 -0.09463106 -0.61710334 0.013897019 -0.24882959 -0.73530936 -0.4428112 -0.16920543 -0.39841172 -0.31191823 0.07904227 0.1603421 0.21629883 0.16998054 -0.10764749 0.17807086 -0.23884082 0.60379875 -0.41884804 0.6482853 0.25583592 -0.11229433 -0.43167448 0.6725826 -0.16477422 0.3204444 -0.6276994 0.19478206 0.091795966 -0.7061877 0.40640265 0.04441415 0.07130692 0.1375466 0.26498976 -0.3648843 0.42902535 -0.10599405 0.5132648 -0.42981324 0.18026891 -0.39659473 0.61598074 0.3320549 -0.39478225 -0.2304255 0.11666468 -0.032726303 0.32333955 -0.17385098 0.044549365 0.00668299 0.30189666 0.5621866 0.6365034 0.27409348 -0.72065794 -0.5707719 -0.10024713 -0.2637438 -0.12388541 -0.09162349 0.19622287
943 -0.046739288 -0.33739737 -0.16377105 0.6766228 -0.08912328 -0.39790896 0.29940304 -0.15709619 0.08548048 0.44232336 0.15048148 -0.27799752 0.017143825 -0.3126048 0.33178183 0.24324644 -0.12943207 0.39647612 0.170506 0.40347958 -0.2204809 0.082674235 -0.41725782 -0.16732788 -0.5044734 -0.057978418 -0.15288125 -0.34335145 -0.083973035 -0.38742274 -0.2337388 -0.1305721 0.37145793 0.12937267 -0.39917308 -0.102072686 0.25118747 -0.06938999 0.29243973 -0.28517094 0.4681646 -0.049289946 -0.3853872 -0.06101937 0.81832767 -0.38624448 0.19448371 -0.3272379 0.047061455 -0.030494116 0.6313152 -0.25964668 0.06344954 -0.509743 -0.31087077 -0.16306522 -0.17596734 -0.62524074 0.060342558 -0.20251435 -0.6183031 0.29445568 -0.35090804 -0.2683418 0.4789368 -0.06390662 -0.13292386 -0.40648112 -0.27645794 0.4337568 0.3699845 -0.3536588 -0.4758263 -0.32720834 -0.3015866 0.23807144 -0.46031106 -0.43235606 -0.33774006 -0.037091702 -0.13741691 0.07848454 1.0895156 0.34980607 0.43027124 0.13502043 -0.22283268 -0.57502764 0.2346843 -0.4069477 -0.5084671 -0.1098242 0.49912837 0.59033114 0.14589605 0.7516975 -0.3641465 0.83621407 0.05079872 -0.051526546 -0.26668176 0.720637 0.08979279 0.059958868 -0.29204914 0.23284288 -0.24351184 0.33128616 -0.05251456 -0.2514119 -0.24273565 0.5077221 -0.21196765 0.08033219 -0.08368362 0.31284824 0.8443563 0.05074781 -0.0020216806 0.14735137 -0.279633 -0.16884382 -0.34428278 -0.18251239 -0.19961129 0.37014565 0.38265333 -0.036927015
474 -0.55879986 -0.55147094 -0.07549263 -0.05413987 -0.23311158 -0.48244363 0.11068906 -0.068280555 0.11128011 0.17954005 0.13150561 0.42259723 0.84625465 -0.2643383 0.19918093 0.29408264 -0.29666662 -0.101966165 -0.27024543 0.9040334 -0.15449068 0.18345003 -0.4779754 -0.61186683 -0.525017 -0.15428688 -0.2465457 0.42170423 0.28709307 0.068172686 -0.19297421 -0.04968588 0.20062472 -0.32309195 -0.07923173 0.49873367 0.013532533 0.0821438 -0.46052095 -0.13716425 0.76725596 0.05781937 0.35100862 0.064258955 0.4013312 -0.72371423 -0.4713144 0.04568899 0.33419755 -0.053129178 0.24001372 0.41693306 0.59069157 0.6435333 -0.46123296 -0.2236995 0.13021131 0.07485626 0.14394371 0.44060808 -0.3233686 0.34020525 0.3222312 -0.15841636 0.04742261 -0.2818167 0.18967885 -0.08610524 -0.71674573 0.407036 0.17711699 -0.25743023 -0.40897825 0.20674887 0.68592334 0.18302658 -0.13172811 0.103745766 -0.21275443 -0.015240374 0.44058663 -0.46350223 -0.28383213 -0.19179171 0.885329 -0.27618003 0.29386508 0.039941307 0.46759152 0.61684346 -0.1975113 -0.70554006 0.4494072 0.11292507 -0.17015348 0.4075262 -0.002531825 0.5565422 0.05131129 -0.07035926 -0.2009648 0.15780513 -0.08310354 0.065100856 0.13177556 0.05830002 0.21385963 0.27319446 -0.0900942 0.084262595 -0.1518201 0.49615017 -0.112457335 0.28158018 0.25328398 -0.09191458 0.6722882 -0.19795544 -0.3887827 0.09389524 -0.14028761 -0.21172726 -0.49988097 -0.059869368 -0.77797216 0.3566748 -0.11674712 0.012644642
669 -0.09037284 -0.3973338 -0.09798109 0.52902687 -0.15431032 -0.102413595 0.20377766 -0.0161789 -0.0008145763 0.39945608 0.22129534 -0.19680451 0.39964467 0.06383622 0.25855085 0.58656526 0.21169156 -0.20059332 -0.32188597 0.41061348 0.7474596 0.74185157 -0.55810165 -0.02217664 -0.50270444 0.31472692 -0.17556378 0.29305336 -0.096513204 0.036336266 -0.55355626 -0.036331233 0.3889635 -0.29557613 -0.6189295 0.036697734 0.5257913 -0.3182401 -0.21023615 -0.20055142 0.102918565 0.04466491 -0.16160561 -0.21682602 0.45274007 -0.12923856 -0.067891695 0.72534543 0.30430576 0.15230756 0.06417026 -0.27170134 -0.11756861 0.5505318 0.14829278 -0.52490944 0.27805722 -0.24701574 -0.4659942 -0.2764142 -0.41153458 0.13048741 0.09037429 -0.72899175 0.05809566 -0.404296 0.35545716 -0.13746127 0.042825457 0.13880378 0.14077888 0.6089309 -0.6761664 -0.34452307 -0.07995524 -0.04243179 0.463524 0.10144693 -0.33391055 0.22076017 0.2227586 -0.44032076 0.4207347 -0.23158911 -0.16725798 0.11735914 0.43960074 -0.21994913 0.1877122 0.096186474 -0.22660603 -0.3155545 -0.13334349 0.24909057 0.6628035 0.4444195 -0.44790292 0.027590623 -0.010039715 0.3474222 -0.4398762 0.28247678 -0.021375956 0.18390812 0.0390417 -0.17433569 0.32442623 0.45203748 -0.3881139 -0.59760445 -0.16134511 0.16357622 -0.6457677 0.72038877 -0.14976676 -0.085297376 0.3033215 0.44126815 0.017418155 -0.08690859 0.13212252 -0.6245471 0.19040933 -0.54330504 -0.033155076 -0.07256958 -0.84101427 0.52799165
254 -0.05176475 0.20956703 -0.38695073 0.021005325 0.5549264 -0.41276094 -0.10186607 -0.13294785 -0.06811497 -0.25455493 -0.60945857 -0.426236 -0.022328336 -0.19771853 0.3191134 0.34260702 -0.5809762 -0.14275584 -0.19472744 0.41806757 0.7703273 0.20859689 -0.36773294 -0.11344517 -0.7076981 0.4130818 -0.20366125 0.25243714 0.6032668 -0.05276382 -0.32711625 -0.60931146 0.11131683 0.045015257 -0.25600797 0.4240103 -0.51759833 -0.56569284 -0.29523653 0.16850697 0.25495535 0.49867228 -0.027816193 -0.5409236 0.026765572 0.16906512 0.276341 -0.2015448 -0.118248105 -0.08623431 -0.15281928 0.023021836 0.116350666 0.5094453 0.090048075 -0.40095964 -0.24764661 0.043056782 -0.3507824 -0.34923166 -0.06577503 0.83586013 0.3515242 0.0005606716 0.2584089 -0.16833074 0.23262309 -0.22731319 0.6756389 -0.36223555 -0.060268555 -0.14913477 -0.43108335 -0.6318702 0.03608614 0.28020325 0.20318832 0.17009372 -0.34467027 0.5161707 0.53263944 -0.19853322 0.74636257 0.27751282 0.6258758 -0.034401167 0.2407264 -0.5557655 0.32120422 -0.4667296 -0.15955603 -0.6936812 0.059831593 0.043984186 0.25568625 -0.22434793 -0.6221037 0.2805322 0.5349414 -0.8600908 -0.63067 -0.02965655 0.15138489 0.03953655 -0.61963755 0.20453516 0.0057643047 0.033776123 -0.60109264 0.14984114 -0.39381042 0.3877739 -0.30888402 0.11827917 -0.4234548 0.5015884 0.69271356 -0.025563868 0.2823759 0.27806735 -0.6723478 0.15486346 -0.15582056 0.26841056 -0.16837549 0.25401983 -0.014985814 0.40432215
797 -0.4567651 0.11030472 -0.55393577 0.58695805 -0.2957524 -0.32921618 0.17734219 -0.41254252 -0.22101311 -0.17700756 -0.24032424 -0.2595878 0.6884603 0.022600897 0.35077062 0.31060117 -0.023830473 -0.43529984 0.20898044 0.44262132 -0.61800313 0.3917684 -0.6623274 -0.1454696 -0.23770812 -0.08214213 -0.41670552 -0.1656297 -0.36914432 -0.3811441 -0.1712269 0.19133018 0.18996683 -0.09731492 -0.40054187 0.2676145 -0.12305226 0.090700045 -0.5588523 -0.4375399 0.10539288 0.8944612 0.12238996 -0.2456095 0.21214637 -0.010827105 -0.36948812 -0.04611615 -0.27372837 0.44418493 0.2638708 0.18938138 0.27036685 -0.20853363 -0.16376628 -0.30457205 -0.48681015 -0.09144855 0.42324412 -0.24021779 0.053826217 0.10694191 0.2485229 -0.31465095 0.01605678 0.20399207 -0.26292607 -0.1030952 0.2975703 0.07992332 -0.12187775 -0.61510277 -0.8436595 -0.12873155 0.12877294 0.26974908 0.19254243 0.24554045 -0.56098664 0.58186203 0.16422185 -0.030126639 0.4900897 0.052013192 0.50659907 -0.65294886 0.4458514 -0.54734397 0.22758178 -0.3180642 0.084719375 -0.6110366 -0.05255855 0.062141996 0.17773841 0.55406696 -0.30115438 0.18036786 0.24401873 -0.13978615 -0.3917303 -0.099721484 0.30429938 0.56414396 -0.52925885 -0.011373053 -0.07323152 0.18935174 0.07316479 -0.054681897 0.15694511 0.19358861 0.40912187 0.4581491 -0.96101236 -0.55804425 0.34303507 -0.22666611 -0.27659434 0.45814437 0.24303475 0.112961665 0.25313252 -0.10273699 0.11636426 -0.25057963 -0.29460594 0.45000672
1836 -0.17899686 -0.497909 -0.4800246 0.105381936 0.05122537 0.051780336 -0.27360535 0.069290236 0.0053149047 0.33923805 -0.43856093 -0.23660457 0.24762762 -0.014371701 -0.42954865 0.034130372 -0.08280813 -0.28098896 0.27527946 0.55541134 0.31609723 0.40761107 -0.2362591 -0.37612405 -0.5090708 0.033198934 -0.36700016 0.46887943 -0.25573125 -0.060351625 -0.7864456 -0.17339613 0.30387917 0.121729724 -0.43543226 0.11534424 -0.012161716 0.19812742 -0.03543247 -0.03248569 0.54500914 0.8226846 0.08817407 -0.15344621 0.67068774 0.07486476 -0.3142132 0.26619896 -0.37318495 -0.19678155 0.27781752 -0.4453422 -0.24208014 -0.009744422 0.17170797 -0.7803196 0.35664925 -0.20031554 0.32884246 0.121447876 -0.2712182 0.92709875 -0.032053918 0.37801316 0.18589461 0.161961 0.069549285 -0.46373186 -0.008259358 -0.456744 0.09435878 -0.10303886 -0.062407747 0.30175406 0.21953179 0.27603635 0.053308208 0.10622405 -0.36105424 0.3296114 0.21364757 -0.36224654 0.3579952 -0.042277448 0.4768275 0.6562354 -0.07920174 -0.33264464 0.55994034 -0.2585977 0.25461772 -0.38144255 0.18737067 0.40793797 -0.5633735 0.3886146 0.22278951 0.5152285 -0.26074338 0.5478084 0.18365723 0.08891423 -0.07091763 -0.02518355 -0.54299986 0.011640905 -0.4777461 0.49750936 -0.41062796 0.38124847 -0.14445111 -0.43294302 0.10062311 0.5402262 -0.3184057 0.28514767 0.46937373 0.3241366 -0.3896812 0.41976377 -0.4341713 -0.14810748 -0.05198096 0.12189319 -0.13611987 0.418246 -0.8596066 0.013641263
353 -0.34258977 -0.24442507 -0.41356644 0.09956484 -0.18654244 -0.8809908 0.27028728 -0.21372263 0.37899628 -0.35571975 0.3189621 0.14068745 0.049878355 -0.6249458 0.16788295 0.5736874 -0.9570961 -0.23724337 0.17705901 0.9837049 0.14388357 0.07690653 -0.0628341 -0.5701087 -0.53544104 -0.14079276 -0.5073737 0.38217667 0.54252756 -0.15517831 -0.2813475 -0.058302626 0.61635566 -0.24893533 -0.28543973 -0.07931322 0.2515755 -0.10857419 -0.12315878 -0.005231941 0.83129394 0.34707928 -0.039612837 -0.10111589 0.9518897 -0.27321124 0.03140729 0.35228387 -0.17983769 0.16317655 -0.13635932 -0.19319583 -0.03765541 0.2988417 -0.064377524 -0.16710071 0.24501747 -0.13794254 0.10717347 -0.20602854 -0.6779182 0.05353163 0.42596957 0.07079731 0.23064041 -0.05133376 0.55429673 0.31759536 -0.1404749 0.30775267 0.22365744 -0.628178 0.024348756 -0.26861373 -0.019079916 0.35461605 0.029160628 -0.43701136 -0.08980016 -0.08300054 0.26910537 -0.6532824 0.5216533 -0.25577152 0.5580853 0.060916636 -0.03870017 -0.28270143 0.32088888 0.13589464 -0.47738022 0.2730916 0.3988093 0.053910438 -0.51230216 0.21427937 -0.1789703 0.5331793 0.28948632 -0.40986153 -0.35221922 0.2684247 0.08529045 0.120023824 -0.27060896 -0.21525678 0.32445055 -0.19924867 0.10686848 -0.23059078 -0.27037132 0.76573664 -0.5094582 0.28406066 -0.35501 0.26906294 0.62817776 -0.15162697 0.09713354 0.0017660564 -0.5551818 -0.11203086 -0.44013983 0.0071321093 -0.5603057 -0.20069258 0.116663374 -0.12487084
1765 -0.20955881 -0.24180403 -0.2838503 0.24301599 0.3351889 0.10745711 -0.29371247 0.55268127 0.05615773 0.5697843 -0.24320723 -0.5557187 0.3561821 -0.40779498 -0.24727575 0.9288388 -0.22107789 0.059435125 -0.19845729 0.73162496 0.038031433 0.3639834 -0.3316471 -0.33314294 -0.59132385 -0.25630844 -0.9304832 0.14507034 -0.18681355 -0.028260883 0.32299575 -0.11319509 0.76254225 0.27809316 -0.46263298 0.18269528 0.034806695 -0.5526801 -0.29585046 0.32646334 0.17705093 0.40383297 -0.3422966 -0.36716807 0.89293426 0.048112087 -0.4943408 -0.13221532 -0.2450668 0.15361662 -0.121059455 -0.26927567 0.59366053 0.27064016 -0.30256033 -0.16254325 0.072806805 -0.6909666 0.31770435 0.32404318 -0.48016867 0.5979005 0.07097398 0.23735827 0.36510095 0.13663864 0.4333235 -0.71585274 0.16988973 -0.1038038 0.05878832 -0.2082894 -0.1167845 -0.13064148 -0.063901894 0.047063198 -0.15847018 0.59637445 -0.5180348 0.5123662 0.05489073 -0.45097712 0.35679147 0.33154896 0.22267021 0.0155606065 -0.4538028 0.043687236 0.34186634 -0.21524619 -0.031215534 -0.19760296 -0.055458814 -0.13194877 -0.15670447 0.33384946 -0.05512739 -0.13886002 -0.26227343 0.28963473 -0.3549303 -0.06437609 -0.17537753 -0.10461387 -0.18220136 -0.35135147 -0.27356264 0.11942965 -0.45316356 0.19785474 -0.19799617 -0.15804018 0.21050301 -0.261545 -0.18360333 -0.28272554 0.46039078 0.15397999 0.002118806 -0.023033692 -0.013587003 -0.47746965 -0.14293972 0.3769586 -0.3240539 0.32396847 -0.7516809 0.36877698
1761 0.00023321468 -0.4118107 -0.7400971 0.5481242 0.3367297 -0.071656704 -0.104701534 -0.014270933 0.09850691 0.85837597 -0.36967856 -0.36622775 0.48052287 -0.10410611 -0.624728 0.92675126 -0.25508508 0.0032319992 -0.38155708 0.83494437 -0.18142395 -0.018092958 -0.39593327 -0.49281365 -0.7578655 0.022701504 0.058401465 -0.15022296 0.11497018 -0.0626649 0.052001663 -0.030211786 0.32419574 0.2503785 -0.6495676 0.10852345 0.13465978 -0.2975825 -0.21062613 0.37746918 0.08394516 0.31950483 -0.31544274 -0.20820576 0.6317512 -0.06675865 -0.4254277 -0.33431917 0.10560144 -0.22377712 -0.099003874 -0.37587148 0.31806454 -0.08146156 -0.29231766 -0.15374383 -0.064886354 -0.6136959 0.3892055 0.2659057 -0.3025749 0.97656286 -0.17912881 0.37700993 -0.027196083 0.18058223 0.49878243 -0.4031571 0.27324623 0.26999488 -0.3445508 -0.19548753 -0.024861759 0.034327734 0.19832964 0.2396678 -0.016679835 0.22631592 -0.5141816 0.6805214 -0.3442471 -0.66493654 -0.1036235 0.015382918 0.24055023 0.040456392 -0.43069366 0.012220768 0.44467902 -0.017655972 -0.056620814 -0.070505776 -0.14237514 0.1234537 0.095374055 0.2575375 -0.4170569 0.10506409 -0.11768256 0.1195902 -0.9832035 -0.2888373 -0.18475364 0.18527526 -0.24573529 -0.3284768 -0.1535013 -0.20286256 -0.5067395 0.02036314 -0.68751067 0.30990338 -0.19841954 -0.044351622 -0.24662745 -0.34897923 0.18592666 0.3135199 0.06573117 0.10447774 0.05364536 -0.39028746 0.08509746 0.40052047 -0.25393188 0.20027234 -0.462498 0.007481545
35 0.24337043 -0.6760395 0.27097845 0.12393167 0.1519117 -0.5234529 0.25978372 -0.38312525 -0.74652654 -0.13729118 0.47975436 0.43849933 0.06505406 0.02960493 -0.1587496 0.4344635 -0.07679889 0.22315614 -0.030913107 0.82898444 0.35669565 0.5053429 -0.8463482 -0.14480731 0.08684528 0.1852954 0.22449987 0.7249161 0.016153824 -0.08700472 -0.4912894 0.25885785 0.07142746 0.004467871 -0.07935392 -0.34342003 0.37212488 -0.39210778 -0.36990187 -0.33890194 0.1459943 0.49208125 -0.21400715 -0.02332202 0.5167187 -0.29343805 -0.022419624 0.3252978 0.22285405 0.12425988 0.017313346 -0.5937121 -0.0068367603 -0.22334217 -0.022480894 0.20336168 -0.11039228 -0.5034741 -0.064469986 -0.36508253 -0.17259619 0.63880605 0.07613095 -0.053047523 0.15310654 0.047163222 0.273762 -0.20810518 0.45945475 -0.015340498 0.31194645 0.070221804 -0.9389111 -0.51673037 0.030619092 0.514719 0.46403423 0.08936609 -0.10406361 0.1647633 0.079025485 -0.7739283 0.3471425 0.061322954 0.21328829 0.4746738 0.10253208 -0.40082133 0.5074937 0.29898262 0.19802916 -0.72703326 0.537023 -0.032535873 0.40356487 0.29081482 -0.49952328 0.04413451 0.4625444 0.15017839 -0.31587076 0.55346996 -0.12161021 0.43111488 0.36669773 0.17110161 0.20191862 0.019229883 -0.5113974 -0.22133045 0.085552245 -0.32936212 -0.39716187 0.032446668 -0.38221368 -0.19220482 0.29266164 0.03512592 0.09858087 -0.06794678 0.17413379 -0.78613794 0.024099559 0.04825498 -0.15476495 0.10983638 -0.79744476 0.09807237
1608 -0.21045823 0.3357502 -0.4041731 0.28770402 0.06250458 -0.21814167 0.25533587 -0.2663659 -0.5773555 -0.20892404 -0.011607365 0.110987656 0.20998922 -0.6734163 0.35725692 0.44625467 -0.0028101904 0.09271949 0.14368066 0.8853938 -0.15238047 0.23299125 -0.89032024 -0.62114143 -0.59552485 -0.08584825 0.16275331 0.28245252 0.118289076 0.006396147 0.269753 -0.5057144 0.39418787 0.50942993 -0.36949286 0.16126172 0.4068816 0.008163876 0.38470572 0.46800908 0.10113467 -0.08806497 0.5381144 -0.08826277 0.40787816 -0.3061126 -0.43447983 0.46455255 0.3760057 -0.16830862 0.26573044 -0.12382935 0.28883678 -0.17280263 -0.593916 -0.37277478 0.42790398 -0.44464374 0.29695097 -0.11375241 -0.03778943 0.20589451 0.19907795 -0.229517 0.71449065 -0.4578749 0.03188143 -0.0006303329 0.72413766 -0.56179434 -0.19930741 -0.3389082 -0.4606442 0.06301849 0.31573245 -0.016837098 0.26954117 0.120380275 -0.09779925 0.18901053 0.15817508 0.27888462 0.14313895 -0.23801623 -0.26585582 0.015658326 0.415468 -0.60035443 -0.027310433 -0.6076201 -0.014632839 -0.46402103 0.38890907 0.052086752 0.19751488 -0.4009097 -0.073609665 0.5130795 0.082035 0.5240063 -0.07369851 -0.02447761 -0.43549547 0.05439326 -0.25721583 -0.11337859 -0.035720587 0.23676793 0.18354389 0.5140717 -0.15073219 0.27655455 -0.5528286 0.36670148 -0.45775464 0.03594793 0.8093761 0.42195603 0.13454437 -0.35065594 -0.007913432 -0.37977576 -0.03351854 0.3398157 -0.25032735 -0.36855602 -0.051120732 -0.0066575436
1365 -0.4264307 -0.4053812 -0.20766547 -0.17387919 0.1632232 -0.014378987 0.5657181 -0.17051235 -0.15565187 0.2586476 0.25353044 -0.24728048 -0.22021578 -0.3213701 -0.19674772 0.35887942 0.05459346 -0.38453352 -0.025493996 0.75543386 -0.07785403 0.35154969 -0.28171012 0.10646781 -0.6452246 0.04739869 -0.43962327 0.7102351 -0.104993336 -0.2503646 -0.20727228 -0.6353098 0.32923272 -0.25554815 -0.20911145 0.6803831 0.7468346 -0.25607136 0.014184974 -0.102435425 0.64218235 0.31327084 -0.05108989 -0.20541292 0.48181963 0.25273883 -0.8225389 -0.59509885 0.38677302 -0.34324187 0.15660517 0.014292719 -0.06432586 -0.48325753 0.2187084 -0.5222996 0.07580292 -0.36567354 0.19387588 -0.13126826 -0.40238765 0.29236102 0.72064006 0.2621437 0.31986955 -0.037739094 -0.1933111 -0.14185108 0.3436182 -0.18710649 0.39481044 -0.3545597 -0.20710033 -0.37090597 0.40731648 0.26602855 -0.11597618 0.27654004 -0.10045132 0.5294042 -0.35154137 0.074915886 -0.07127959 -0.012785116 0.081418775 -0.25586182 0.03886217 -0.4919354 0.039656263 -0.13723274 0.06525733 -0.98442066 -0.13298073 0.2455892 0.49421194 0.3765771 -0.5362301 0.32012713 0.17230988 -0.13007472 -0.15716884 0.20981431 -0.009868953 -0.11693326 0.15615353 0.09106812 0.11770089 -0.0697676 0.39523736 -0.19681004 -0.21516398 0.47934 0.266751 0.44964123 0.12833026 0.5397963 -0.5823839 0.3152123 0.19727834 0.3844982 -0.69737643 -0.28626296 -0.76388246 0.13612214 -0.40178415 0.03859209 0.078728646 0.66966665
1628 -0.01946522 -0.25975204 -0.41612166 0.46648222 0.48361534 0.10172976 0.03129207 0.14876482 0.08078289 0.8391787 -0.19225994 -0.32453918 0.3122246 -0.2848522 -0.41414252 0.87026274 -0.25618896 0.07828105 -0.20634758 0.95939016 -0.15902235 -0.05500747 -0.34118453 -0.59199715 -0.5080061 0.23314859 -0.57834727 0.14572723 -0.1106992 0.079152696 0.37441346 -0.037708946 0.4322336 0.0355655 -0.4234808 0.269906 -0.068011224 -0.44495502 -0.1831814 0.28912598 -0.022561584 0.46197164 -0.34826675 -0.47609702 0.8818748 0.24191153 -0.4168129 -0.29478723 -0.0961715 0.010294866 -0.13306569 -0.32409394 0.5329071 -0.083928 -0.33697343 -0.19861858 0.15362951 -0.7197934 0.33573207 0.28577897 -0.52232957 0.84668034 0.001182924 0.07753282 0.16434632 0.04215599 0.44875118 -0.5632617 0.13847974 0.17025578 -0.08841456 -0.14749247 -0.030947886 -0.06992188 0.15187904 0.074789524 -0.110499464 0.37218744 -0.60709447 0.49982446 -0.086047314 -0.53471214 0.41690227 0.36953303 0.18159516 -0.11579349 -0.4196773 0.1679284 0.5054622 0.00016420132 -0.15345173 -0.05771938 -0.14421676 -0.19775157 -0.12603958 0.29014912 -0.026391463 -0.2698328 -0.14271455 0.28923813 -0.52299345 -0.1220118 -0.19354549 0.07023619 -0.2477983 -0.41587657 -0.05949686 0.01892819 -0.33264256 0.28626806 -0.4433243 0.116802275 0.024258705 -0.15450172 -0.3896891 -0.34646448 0.24974371 0.31986618 0.1609432 -0.05723736 0.07948956 -0.53788596 -0.05185101 0.38695037 -0.3781971 0.3217474 -0.67713875 0.25343737
287 -0.26331922 0.057921223 -0.1623838 0.20946264 0.16963723 0.010131675 0.26868698 -0.06932585 0.13844566 0.16126855 0.35931364 -0.36257946 0.2581952 -0.2517896 -0.11336342 0.4093663 0.16497211 0.28439224 -0.20365791 0.34419438 -0.40692228 0.58110726 -0.47974265 0.21837908 -0.6469499 -0.59655225 -0.5423613 0.5992683 -0.29719698 -0.380907 -0.07277747 -0.48129752 0.037467852 -0.068408854 -0.063385986 0.5973719 0.31396124 -0.24128571 -0.80959487 -0.33536074 0.5937932 0.2151008 -0.24120708 0.06192837 0.66538924 -0.31481785 0.287248 0.11202379 -0.10358229 -0.2122382 0.14607592 -0.054831576 0.38220438 -0.49507263 -0.12440125 -0.20747817 0.29233313 -0.20705022 0.1850162 0.2505495 0.06870209 0.83918786 0.18351637 -0.40401384 -0.046444185 -0.4289634 0.5510527 0.024775397 0.2379704 -0.15704939 0.29861888 0.31920105 -0.39409918 -0.5127142 0.03750272 0.29973844 0.21145456 -0.13413379 -0.15893728 -0.06228356 -0.005446862 -0.23682435 0.30870542 -0.17022882 0.5154683 0.6731108 0.49677184 -0.36711246 0.06720293 0.1477333 0.014062054 -0.57252145 -0.13596573 0.39117584 0.0018525235 0.02405605 0.1836007 0.4040074 -0.0067215837 0.023670964 -0.45699197 0.045913644 -0.11896016 0.5946698 -0.21867959 0.3490735 -0.12738991 0.16156416 -0.1946907 0.5206673 0.10026958 0.3629857 -0.020468863 0.27164364 -0.031822037 -0.031028258 -0.026264962 -0.049350463 0.69117856 -0.005945936 -0.7234146 -0.28351915 -0.3732983 0.6099419 0.27698746 -0.8456937 0.31330633 0.68838966
456 -0.21126309 -0.6021168 -0.23527968 0.018393636 -0.12880346 -0.80830395 0.06555945 -0.14063968 0.33085075 -0.35562667 -0.58961517 -0.11135998 0.34996423 -0.5872226 0.17204121 0.75006217 -0.92607343 -0.25290683 -0.19658966 0.880542 0.112790495 0.07779092 0.0009924032 -0.7546169 -0.15623756 -0.30646816 -0.16961652 0.5221049 0.4735823 -0.20356992 -0.34666413 0.121607445 0.043321457 -0.11822949 0.13239169 0.41532668 0.25633746 0.24392869 -0.12111727 -0.018886928 0.76799375 0.37113556 -0.05274208 0.26455963 1.0661212 -0.1804561 -0.2015981 -0.033947706 0.47652796 -0.21358624 0.17802876 -0.034035333 0.26522967 0.23353662 -0.17486577 -0.0948998 0.3354904 -0.020140717 0.2604501 -0.15202868 -0.5104262 0.1697298 0.39223063 -0.18265371 -0.08761544 -0.08057047 0.32388926 0.1458787 -0.22726975 0.2954248 -0.05032967 -0.07127585 -0.42091456 0.17350425 0.34214666 0.030650422 0.092460044 -0.07484318 -0.046803657 0.20030923 0.12424758 -0.7328754 0.23703061 -0.09257243 0.7329343 -0.22934194 0.48852646 -0.373019 0.34519663 0.58053726 -0.34222987 -0.28804815 0.19642743 -0.45627794 -0.115603246 0.29158968 -0.36543065 0.8205013 -0.014998617 0.0020388118 0.17291018 0.47565752 -0.25505185 -0.009095816 -0.12179099 -0.26964164 0.0057896897 0.081224516 0.31647944 -0.084518455 -0.23690286 0.6629826 -0.22068265 0.25013497 -0.35490432 -0.04393905 0.7275125 -0.63503677 0.1174771 0.0855112 -0.41485977 -0.2293158 -0.26099464 0.044486307 -0.24552189 -0.19369282 -0.049225938 0.117192656
674 -0.44811034 -0.17817001 0.14408673 -0.07734077 0.64592475 0.035295624 -0.11989179 -0.026281785 -0.46912315 0.79758847 0.099017695 -0.14990267 0.7722345 -0.28316998 0.107996166 0.3783329 -0.4257351 0.45224902 -0.26363003 0.6154848 -0.22096778 0.14381216 -0.5831439 -0.60800904 -0.6787177 0.2971534 -0.38022566 0.29009783 0.53381664 -0.25633448 -0.3606034 0.17738324 0.03144232 0.6443014 -0.26498678 0.117513515 0.2392022 0.07519292 -0.13864341 0.09430237 0.58931357 0.16679408 0.344323 -0.4589635 0.24514265 0.07805541 -0.04503138 0.23082592 0.14859563 -0.046833754 0.1976196 -0.07012209 0.45739093 0.51396585 -0.4078109 0.13375165 0.041191798 -0.04608372 0.49481997 -0.5724072 -0.04916025 0.26998016 0.3378601 0.72028846 0.4169352 -0.18321027 -0.21646109 -0.0818571 -0.4134537 -0.3660721 -0.16890076 -0.40952483 -0.8203386 0.3772347 -0.4582555 0.044686466 -0.15992588 -0.19860393 0.010924968 0.2028932 -0.23283716 -0.10931537 0.46824604 0.76491827 0.082724385 0.063709915 0.35065854 -0.86519 0.24031289 0.40938866 -0.061580073 -0.1412808 -0.26974195 0.27894917 -0.108386576 0.16999295 0.006333777 -0.03664396 0.096241824 -0.3435653 -0.22429432 0.4901167 -0.14773637 0.33072022 -0.4602332 0.2515311 -0.55759865 0.20755404 0.099868126 -0.57054013 0.22441898 0.4781708 0.04176196 0.8447929 -0.068846084 0.024949122 -0.22531772 0.041538507 0.4293019 0.03915742 -0.28504857 -0.4858205 0.024257923 0.27353597 0.11643504 -0.016313694 -0.35005698 0.24999495
1434 -0.60769504 -0.45198086 0.21253796 0.295441 0.51404554 0.13437264 0.39703247 -0.3916047 -0.781505 0.756724 0.24123132 -0.7496894 0.80804306 -0.08241405 0.015656212 0.2880374 0.03962289 -0.17134173 -0.18287635 0.47129026 0.30435538 -0.12763143 -0.6319875 -0.09542174 -0.34726182 -0.22595033 -0.09895887 0.11185821 0.047467988 -0.41335207 -0.46140277 0.4599124 0.48105472 -0.36047158 0.07804456 0.45531043 0.007039367 -0.16650909 0.11098635 -0.54136074 0.07351265 0.71071595 -0.3212769 -0.13420044 0.08527643 -0.050321188 -0.10433944 -0.5366304 -0.2387636 -0.4262225 0.53397655 -0.120874785 -0.018973943 0.24671555 -0.38658315 -0.38654625 0.30729133 -0.3562234 -0.28485236 0.35410446 0.08641334 0.19322911 0.33061272 0.16494787 0.22157316 -0.34045392 0.010349346 0.16972405 1.082686 0.047091946 -0.46329722 -0.04009538 -0.20724736 -0.36502448 -0.08198663 -0.15162686 -0.061740763 -0.40442178 -0.41872752 -0.27280533 0.10328899 -0.3698822 0.4299692 -0.3314123 0.0946355 0.04279867 -0.04950398 -0.5695884 0.06392759 -0.26531884 -0.32232815 -0.28511688 -0.111327946 0.217009 -0.0094764065 -0.17873019 -0.19261226 0.28842753 0.108495176 0.050880298 -0.11544627 0.3188002 -0.2546086 -0.06285957 -0.36431095 0.2594709 -0.34064847 0.26025066 -0.41080117 0.02232974 0.46280846 0.39567205 -0.14581887 -0.025390765 0.07819269 -0.30199194 0.76785994 0.061298423 0.43967202 0.16176319 -0.4084984 -0.680337 -0.46252483 -0.17346959 -0.38481948 0.67809254 -0.09009594 0.07594164
56 -0.16735889 -0.43348622 -0.03689965 0.4408109 -0.29858464 -0.29540217 0.5300374 -0.33116603 0.04188529 0.55574197 -0.09988947 -0.34181392 0.22530293 -0.6226792 0.30053115 0.5360261 -0.08680824 -0.108629465 0.0720719 0.8974591 -0.3268575 0.36585015 -1.0796628 -0.058413602 -0.08828461 -0.32966587 -0.29210773 -0.32182875 -0.2425784 -0.09536929 -0.02365863 -0.23015647 -0.4713358 -0.3153955 -0.31065264 0.07988042 -0.24118221 -0.15537688 -0.2133339 -0.5046416 0.42446485 -0.15482524 -0.0006430823 -0.3037852 0.6818595 -0.2461795 -0.3052801 -0.0031216962 0.18302259 0.16337639 0.90557235 -0.39292428 0.2231912 -0.23015095 -0.3967671 -0.32833916 -0.15231547 -0.39676464 0.12797439 0.06650512 -0.45863637 -0.055237442 -0.45875457 0.049069528 0.4259242 0.16092351 0.1246424 -0.3820512 -0.4108305 0.07873172 0.18516114 -0.38314694 -0.32524762 -0.5574338 -0.08764134 0.19153039 -0.20817095 -0.1665554 -0.7091054 0.18686678 -0.28157467 0.06363593 0.8393226 0.28391424 0.15401642 0.584986 0.0050909664 -0.6461736 0.48051572 -0.47199667 0.023339264 -0.3560794 0.12298907 0.45470136 0.47048992 0.9635606 -0.78770715 0.5185485 0.09051009 0.025597075 -0.22512199 0.4058971 -0.03826577 0.08333594 -0.4393955 0.21096006 -0.39055878 0.44876832 0.28549033 -0.3715862 0.3647273 0.13202155 0.046479017 -0.07729787 -0.670184 -0.056640003 0.52490354 0.23365632 -0.3279081 0.06811046 0.068256564 -0.043612517 -0.23238088 0.07993379 0.26747367 0.0028945867 0.29555276 -0.02082919
673 -0.539509 -0.18783407 -0.06433199 0.21877065 0.5900384 -0.40277156 -0.3706233 -0.33155063 0.48413733 0.82429373 -0.21165091 -0.23023327 0.46914357 0.33075857 0.44017547 0.8716147 -0.35177836 -0.015659595 0.3484405 0.17664652 0.41530016 0.5729477 -0.42558363 -0.48048726 -0.79258555 0.2611734 -0.07912299 0.21173799 0.52332145 0.094894886 -0.12574387 -0.16659547 0.00082796137 -0.433021 -0.1253787 -0.02325064 -0.3460111 -0.27594596 -0.5051612 0.37505823 0.17104983 0.34554774 -0.450773 0.066331714 0.0038298445 -0.09838843 -0.54436606 0.34756145 0.26052523 -0.5110468 0.099508666 0.21399045 0.48962045 -0.2796948 -0.37051764 -0.64120615 -0.004909971 -0.26288587 0.33983406 0.31558183 0.07275101 0.26329315 -0.25359562 -0.32787693 0.050113067 -0.3742586 -0.34378675 -0.18296382 -0.15425415 -0.43782705 -0.39971685 -0.34185025 -0.61673534 -0.26085997 0.00785742 0.111226134 0.38216573 -0.26581252 0.13208771 0.33117932 -0.044753328 -0.47496435 0.1716881 -0.07618397 0.88761514 -0.02554756 0.17871499 -0.35704857 -0.003381867 -0.18472704 -0.46395195 -0.4778228 0.053296346 0.44766638 0.055161033 0.41056544 0.23064452 0.2634679 0.49867618 0.527826 -0.15861443 0.5945111 0.40321785 0.34748605 0.16429687 -0.1053577 0.27565002 -0.1595876 0.19434312 -0.32669997 0.2880446 -0.1792026 0.09311164 -0.32861266 0.33147037 0.20542905 0.29107416 0.30749235 -0.12340117 -0.050494768 -0.06324548 0.15521896 -0.41600102 0.2687981 0.23744619 -0.07283033 -0.21410045 -0.04654425
314 0.34666407 -0.6861197 0.05125691 0.048932932 0.14775251 -0.68182385 -0.24530716 -0.4468596 -0.87006754 -0.20748582 1.0213916 0.706548 -0.021261957 -0.105205916 -0.4113703 0.08847577 -0.33741912 0.45948502 0.1629707 0.5952722 0.31744665 0.5958933 -0.6836663 -0.12730476 -0.4750491 -0.33308485 0.04814301 0.5815801 0.18152446 0.111965306 -0.11203001 0.10170111 0.23711559 0.45834827 -0.18272041 -0.05444924 0.01714341 -0.49247733 -0.34239215 0.121217646 0.26840997 0.7433348 0.07081115 -0.07094894 0.29630217 -0.33761495 -0.45028207 0.17771156 0.38253987 -0.054039095 0.36618814 -0.102783196 -0.09457605 0.09585099 0.13022001 0.28586963 0.018566525 -0.34783503 -0.06084563 0.057381276 0.014267783 0.6072316 -0.19760768 -0.13347147 -0.032453578 -0.09369365 0.036467887 -0.38335857 0.61045563 -0.18690407 -0.21048494 -0.41812173 -0.91552615 -0.50066185 0.09320507 0.4512236 0.132059 -0.12148889 -0.3138973 0.22253217 -0.046190485 -0.40036243 0.63014895 0.2720325 0.297692 0.056775294 0.033703968 -0.61071366 0.4410159 0.546213 0.14848009 -0.50657487 0.18919702 0.58822906 0.461529 0.5236817 -0.43278384 0.09245504 0.20423129 -0.1116729 -0.35699126 0.33327442 -0.10931457 0.19052899 -0.37144214 0.24946591 0.016261863 -0.22910194 -0.30637443 0.14901924 0.09154118 -0.393255 0.047903284 -0.13299055 -0.5403482 -0.07869153 0.07970631 -0.44270906 0.14728515 0.038952265 0.023185164 -0.6894245 -0.27620998 0.5863718 -0.33850354 0.42037007 -0.5561689 0.094003454
1835 -0.2843563 -0.13717715 -0.38633326 0.37154615 0.25037616 0.16321212 -0.17484996 0.39711308 0.13014235 0.5209098 -0.1990626 -0.3168429 0.28784493 -0.48001045 -0.18797189 0.99057084 -0.28291425 0.23778637 -0.18782173 0.65444607 -0.1935628 0.29624742 -0.4801822 -0.31955257 -0.5754035 -0.16063756 -0.9582453 0.23921488 -0.042808995 0.16288866 0.2815096 -0.042839896 0.48665702 0.024068432 -0.43859836 0.33569434 -0.035451017 -0.49288547 -0.122870505 0.43254942 0.21623902 0.47788775 -0.32181656 -0.4452294 0.8391893 0.1382675 -0.2520654 -0.4804657 -0.04853396 0.196903 -0.14404617 -0.41191941 0.5626814 0.048162792 -0.3180544 -0.10881019 0.20971495 -0.6705818 0.33024478 0.2687908 -0.3988079 0.69424194 -0.047908764 0.15224296 0.31627154 0.062381152 0.45837474 -0.758678 0.15320931 -0.12597455 0.048654553 -0.27263802 -0.115195714 -0.16846149 -0.052536275 0.019997723 -0.11751419 0.53028375 -0.35531628 0.48421288 -0.0022751102 -0.49573344 0.4295507 0.29653543 0.078290924 -0.14814217 -0.38135958 0.06846196 0.1847905 -0.060026925 -0.06212449 -0.2754733 -0.093978345 -0.18491979 0.013919321 0.40442923 0.06711918 -0.30528954 -0.13596675 0.4487639 -0.45033845 -0.1274546 -0.11993137 0.067271955 -0.15891452 -0.57337433 -0.26144934 -0.02118118 -0.63556 0.06311257 -0.27216285 -0.012990808 0.21611238 -0.15601747 -0.21054895 -0.37762442 0.518948 0.26731643 0.2898285 -0.24729133 0.1526372 -0.4106314 -0.25901178 0.2526267 -0.38117185 0.3411279 -0.62665164 0.15121661
1362 -0.8070652 -0.10770911 0.37061346 0.58467853 0.41770554 0.2730193 0.08094821 -0.34800693 -0.27284807 0.6471216 0.4033692 -0.30458948 0.48460063 -1.102479 -0.0032518664 0.5950361 -0.6088022 -0.08224003 0.03792222 0.1417056 0.19384852 -0.10769171 -0.8959385 -0.5245879 -0.3120895 0.17103975 0.25120917 0.041406725 -0.02260552 -0.47704425 -0.20197304 0.11011743 0.3997797 0.09714059 0.060673755 0.13574179 0.52455986 0.021838116 -0.16206034 -0.104262084 0.17706464 0.25582388 0.17551723 -0.21565065 0.12093261 0.27945164 -0.2518098 -0.04175064 -0.013702542 -0.24600847 0.08478872 -0.33555084 0.17933385 0.08725418 -0.18236527 -0.50513357 0.65487945 -0.2760091 -0.17368473 -0.056379765 -0.15179202 0.4703954 0.5372771 -0.38779444 0.5342983 -0.81383735 0.18729617 -0.053302128 0.83527863 -0.056879472 -0.26625052 -0.13751748 -0.1024492 -0.8005586 0.003790024 0.30566543 0.33659482 -0.06085907 -0.12985775 0.2939908 0.51952964 -0.32763937 -0.25391018 -0.1053544 0.033018827 -0.22588482 0.056324814 -0.70054173 -0.0034799408 -0.18133587 0.26006833 -0.4138895 0.26628348 0.16182008 0.047133226 -0.08138683 -0.07361881 0.6863587 -0.016963333 -0.1593132 0.12686114 -0.32296515 -0.17126687 0.08460929 -0.32104203 0.1622131 -0.62410116 0.24703017 0.27222806 0.043862354 0.30536154 0.15021892 -0.25635535 -0.2344161 -0.28936765 -0.3390831 0.61850786 0.22322269 0.081357 -0.031789117 0.0015714045 -0.7563553 -0.51131463 -0.0238236 -0.58512914 0.15858991 -0.31300783 -0.24538296
